A,-0.029645985,-0.03301602,-0.022761527,-0.07240298,0.046648644,0.020532604,0.0031126998,-0.017183492,0.03895059,-0.014712347,0.09681549,-0.010524602,0.0029173295,-0.029835518,-0.028343098,-0.004628617,-0.037494853,0.114323094,0.05600842,-0.06598832,0.010174861,-0.046004247,-0.01595306,0.08679252,-0.013610311,0.054550704,-0.0016395777,0.022292912,0.058267757,-0.044672377,-0.04055968,-0.00460354,0.007378637,0.1364285,-0.15815833,-0.16626129,-0.052058205,0.03323709,0.0057402183,0.11432829,0.13779412,-0.064121224,0.008745829,-0.1025698,0.01969802,0.052142147,0.07783923,-0.08082904,0.030898325,0.10923219,-0.022484276,-0.19155158,-0.2849596,-0.12613143,-0.118368104,0.21354385,-0.01734846,0.40845335,-0.2608318,-0.16881385,0.35211655,-0.5658043,0.36513746,-0.23955974,-0.027520383,0.0037285457,0.025845064,-0.029874125,0.071948126,0.009972326,-0.002544125,0.052198417,0.0078704255,-0.00489894,0.0069888826,-0.008819013,-0.0203332,2.8915274e-06,0.0015356294,0.008313845,0.0027121343,0.016580237,-0.0061040833,0.019993847,-0.0138260415,-0.010269047,0.024485322,-0.01579752,0.01780026,0.049397863,0.05751707,-0.048283175,-0.033509884,-0.031083794,-0.015225296,-0.0155892465,0.03537557,0.073754616,0.039706886,-0.04542228
R,0.010481083,-0.045520134,-0.067615084,-0.09508634,0.15891454,0.040071927,-0.046034794,-0.011314205,0.035492178,-0.020783015,-0.017277854,0.013347789,0.051635154,-0.0649466,-0.0593338,-0.09912151,-0.03951896,0.0026617202,0.006468199,0.020160781,0.028943757,-0.0036343075,-0.012610216,0.08077048,-0.0043151607,-0.00025868232,0.1447187,-0.024225129,0.006371967,-0.040930405,0.05914936,0.018924782,0.015875343,0.11289047,-0.111122824,-0.08337215,-0.068505116,0.026881851,-0.0014347619,0.19390687,0.15605289,-0.06171205,0.0073505244,-0.11421676,0.060053967,0.089141116,-0.06666327,0.013898793,0.016118068,0.055461377,-0.062230892,-0.08424907,-0.26987866,-0.14594667,-0.035369,0.26693138,-0.07019148,0.2929694,-0.2215205,-0.11652147,0.4329988,-0.5671329,0.3765726,-0.3014918,-0.018449878,-0.03827171,-0.07977593,0.06530566,-0.083885975,0.0016661375,0.019151922,0.0019469273,0.053690124,0.050988022,0.017441811,-0.02756392,0.045849226,-0.04511894,-0.03650404,0.01790935,-0.014898642,-0.039114416,0.01694309,-0.006215049,0.0009156508,0.028381005,0.0174273,-0.051483802,-0.024765655,0.008739277,-0.039284363,0.056279812,-0.06308639,-0.0011274356,-0.008052853,-0.029758366,0.013931749,0.03724822,0.036893416,0.008779596
N,0.008758026,-0.1117569,-0.054814413,-0.08830114,-0.025563026,-0.07933444,-0.031299543,0.019475581,0.023717433,-0.046694335,0.15150194,0.05005831,-0.013876752,-0.12166688,-0.052582446,-0.043056853,0.12610619,-0.074654475,0.05167844,0.12899716,0.025052993,0.014670248,0.03554674,0.079329945,-0.049206175,0.0401782,0.08348953,-0.05829503,0.029237391,-0.0072294334,0.06416221,-0.08725367,0.041281402,0.03654861,-0.25584233,-0.1521472,0.009247688,-0.033413865,-0.071837015,0.21520914,0.17719392,-0.07270863,0.21261197,-0.10323405,0.045555193,0.042574823,-0.09830309,0.038905963,-0.08754712,0.07899405,0.05487304,-0.037715178,-0.052668415,-0.09667203,0.057691097,0.1259414,0.03738658,0.40375957,-0.22376311,-0.0109204305,0.4489003,-0.618061,0.34245154,-0.28223744,0.11417651,-0.0057882336,0.0034830647,0.0473355,0.020104237,-0.08510409,0.016717428,-0.10410387,-0.026736053,0.02333693,0.05251872,8.402786e-05,-0.026499145,0.034156602,0.03273414,-0.031507168,-0.0039817793,0.0016207292,-0.014967121,-0.10086512,0.0044804653,0.028838428,-0.023588158,-0.01232276,-0.08299532,-0.007746173,-0.089431144,0.11639987,0.11503707,-0.03656795,-0.016026532,0.025051605,0.14071937,-0.027083315,-0.089228645,0.07245444
D,0.0070190816,-0.07654318,-0.028347414,-0.083940126,0.11246038,0.026967851,-0.02490366,0.013165724,0.0092889,-0.024424471,0.033303943,0.015774464,0.022032471,-0.07366609,-0.054254875,-0.036451425,0.031238165,0.007555098,0.050742246,0.029237056,0.030886555,-0.00581655,0.002066472,0.09742257,-0.059142843,-0.00042407634,0.09733818,-0.021332495,0.05259178,-0.090577185,0.06911016,-0.0010080547,0.0005721426,0.0693505,-0.1876227,-0.1396489,-0.0493779,0.014798853,-0.024012694,0.20802236,0.21315786,-0.09389026,0.10383437,-0.13544686,0.051459048,0.09162498,0.00033640498,-0.03854225,-0.021444874,0.037238203,-0.01903306,-0.026904367,-0.1979753,-0.1488123,-0.0036459584,0.22986789,-0.0064114747,0.34248036,-0.21224484,-0.047095414,0.4466538,-0.58437324,0.3428354,-0.2634828,0.008747079,-0.01933869,-0.07345008,0.06699511,-0.009493846,-0.045314644,0.041687444,-0.028176153,0.014684213,-0.013382527,0.056263287,-0.0029769202,0.030903932,0.016493913,0.022334343,-0.016665604,-0.01386849,-0.0076038986,-0.045788452,-0.09279746,0.027754515,0.038088396,-0.048335157,-0.0014672906,-0.009773892,-0.05426044,0.017617006,0.0010096566,-0.0031812147,-0.020316089,-0.023473775,0.05286077,0.08168855,-0.018155541,-0.013136042,-0.10610193
C,-0.04814197,-0.06741705,-0.11255178,0.13160224,0.17600979,0.13013963,-0.16453275,-0.059338972,0.034345172,-0.051762998,0.030170184,0.019496357,0.00026833315,-0.1542505,-0.1164004,-0.10124828,0.1067958,-0.030656084,0.007701621,0.06903575,0.07838052,0.04802563,0.03253289,0.20155272,-0.1917562,-0.07988423,0.14118606,-0.10409506,-0.0052142455,-0.074466035,0.10376955,-0.016398756,0.086371906,0.24255522,-0.33209038,0.029031062,-0.016821388,-0.030932162,-0.033672135,0.21044235,0.03983163,0.03635188,-0.057180088,-0.09563053,0.05452855,0.08307788,-0.09946202,0.050825477,0.011345652,0.07218384,-0.016665025,-0.113609165,-0.026958043,-0.12542726,0.10898277,0.12850961,-0.014155435,0.3676634,-0.2347641,-0.12741768,0.5330953,-0.620149,0.3044646,-0.2567585,0.036678392,0.007598545,-0.03880676,-0.020530684,-0.18946789,0.022298904,-0.0786681,-0.07074276,-0.032007657,-0.01753808,-0.036873702,0.014028935,0.08119598,-0.06414107,-0.043611787,-0.013162665,0.010771701,-0.047807347,0.06783682,-0.012694832,0.039242227,-0.027603338,-0.008291331,0.01027166,-0.061623782,-0.07201704,-0.18902187,0.13609727,-0.004048771,0.014267845,-0.068554156,0.0037694632,-0.22305888,-0.053348504,-0.042167205,0.29521036
Q,0.1848293,-0.09835873,-0.17871739,-0.12662739,-0.009343699,-0.07779336,-0.04801403,-0.029909605,0.041711424,-0.0359847,0.007209994,0.038889717,0.015412518,-0.0020031708,-0.035914466,-0.008222195,0.03283409,0.034369938,-0.0029911867,0.06673212,0.004027042,-0.06449701,-0.028546428,0.12049527,0.018370347,0.026900787,-0.0036512155,0.016080778,0.02549671,-0.04826472,-0.00016110085,-0.00521314,-0.03414894,0.022462353,-0.11829296,-0.2716936,0.09047039,-0.048244074,-0.097777285,0.20547114,0.10162522,-0.038852416,0.111852676,-0.095416814,0.011809025,0.033855733,0.038314268,-0.042451836,-0.0029225654,0.07553945,-0.001911321,-0.115911014,-0.1511954,-0.14137271,-0.0009590284,0.18374275,-0.07917973,0.39567068,-0.28622788,-0.2338142,0.43893507,-0.5636505,0.34412336,-0.29362917,-0.006644947,-0.056436587,-0.0718122,0.009600017,-0.08203939,-0.083464086,-0.04367517,-0.08816289,-0.025381323,-0.07779009,-0.06473949,0.039403666,0.027101519,-0.036393538,0.024959905,-0.023236042,0.028399106,0.0018830339,0.025902968,0.0878953,-0.048638485,0.015943283,0.044072922,-0.027377108,-0.028985824,0.05469913,0.024991749,0.05233362,-0.109112754,-0.05469242,-0.04633766,0.033411868,0.06560851,-0.04104735,-0.0020327377,-0.042034514
E,0.058953956,-0.109666236,-0.071665145,-0.14376344,0.14421614,0.04855109,-0.15217954,-0.007245041,-0.0029404555,-0.06058371,-0.058555365,0.011279362,0.016581532,-0.056993138,-0.047834747,-0.020866826,0.04079243,0.0058507454,0.028490374,0.03979811,0.010707805,0.03204052,0.027969742,0.07063248,0.003445036,-0.0137529895,0.05722459,0.009270516,-0.022392197,-0.1472515,0.14978963,0.08711147,-0.010386166,0.09453985,-0.19925584,-0.17259994,-0.0014922897,0.00327532,-0.06802239,0.30960453,0.20711529,-0.09810335,0.09990627,-0.14254072,0.041564412,0.06549157,-0.046106428,0.0109646255,-0.019335058,0.057959538,-0.006585761,-0.06361993,-0.19664295,-0.16317396,-0.0017925414,0.22929765,-0.058380436,0.30572858,-0.21555096,-0.11459005,0.42371178,-0.5486507,0.31684786,-0.25868687,-0.0020093482,-0.00082209054,-0.10017279,0.07066288,-0.026103368,-0.05038123,0.030977571,-0.052694052,0.044670094,-0.0064136465,0.06553639,0.0027863155,0.011222722,0.0041851774,0.017554728,-0.014159085,-0.020080337,-0.009419209,-0.004018638,-0.024938462,0.0022164043,0.018193834,-0.005286534,-0.011786428,-0.027194388,-0.03419792,-0.026045224,0.032036074,-0.008418464,-0.019539906,-0.016738879,1.38100095e-05,0.09797656,0.028950527,0.042262528,-0.063952416
G,-0.04431781,-0.06767428,-0.041219395,-0.04696736,0.06904143,0.035170786,-0.022990705,-0.05980351,0.0075137904,-0.00022076978,0.10733247,-0.0017161206,-0.011476117,-0.019813582,0.0032892588,0.009282926,0.0333789,0.021899894,0.051244594,0.01071609,0.028126141,-0.0032339657,0.019368468,0.07652948,-0.042232115,0.031957142,0.027397955,0.0005857219,0.06132843,-0.070640646,-0.020176189,0.004506998,0.053696178,0.1493436,-0.21809262,-0.10358738,-0.05446358,0.013696075,-0.019047631,0.2076403,0.16596335,-0.07363931,0.0580781,-0.123732775,0.031650133,0.045831796,-0.007655948,-0.021125423,0.016778091,0.10950011,-0.011590449,-0.17709336,-0.18404649,-0.097251646,-0.06345637,0.15259151,0.0004013077,0.31595057,-0.19418654,-0.08298646,0.4050593,-0.6082491,0.35538968,-0.22877043,0.009936606,0.0052235513,0.032834243,-0.022375733,0.056830846,0.029312193,-0.0052723796,0.06277092,-0.046714064,0.044540282,-0.0026908757,-0.012609289,-0.0059177815,0.004187247,0.011143178,-0.041527845,0.01553848,0.014609814,-0.0016434299,0.008152042,-0.022903364,-0.048086364,0.036859598,0.008449181,-0.012939813,-0.004789915,-0.05960105,0.011206738,-0.006402144,0.020877762,-0.0078805,0.022664081,-0.0060910094,0.057692476,-0.02052354,-0.043864522
H,-0.06238548,-0.12379627,-0.12836172,-0.008253717,0.06963074,0.011591233,-0.11578272,-0.08622021,0.027209686,-0.03582265,0.025372166,0.0024181567,0.011096422,-0.12740067,-0.1051152,-0.08350216,0.08813649,0.0069094403,0.029681735,0.060502313,0.03897512,0.0067987693,0.030165844,0.1723123,-0.09398107,-0.021310028,0.072896585,-0.048635338,0.018248413,-0.12301988,0.07081622,0.041941438,0.012267368,0.1934456,-0.20962097,-0.09311424,0.031941615,-0.020894887,-0.04779186,0.17145053,0.030826744,0.023944195,-0.029438077,-0.07081222,0.036993697,0.06332404,-0.04858544,0.020555526,-0.0009925459,0.07402449,-0.004973248,-0.10728556,-0.05787495,-0.13468923,0.0819811,0.14211902,0.0012489927,0.26263395,-0.15206571,-0.04575272,0.5250827,-0.6855458,0.39135498,-0.30078048,-0.023297917,0.022267373,-0.12714481,0.012526721,-0.15586676,0.037845977,-0.042186663,0.0015668989,0.049928933,0.032997947,0.024168398,0.000940148,0.03417543,-0.062915556,-0.058853153,0.027340626,-0.03234556,-0.079152115,0.03926512,-0.0039108265,0.0345357,0.056216504,-0.03719562,-0.023822052,-0.0342428,0.030525943,-0.08751472,0.09823267,-0.030063234,-0.03965881,-0.01830359,-0.12246322,-0.02937098,-0.04062097,0.023276972,0.086580485
I,0.028600937,-0.101827815,-0.024126446,-0.07850111,0.053066894,0.026541227,-0.1267599,0.022888172,-0.024314111,-0.024527008,0.060148224,0.001397006,-0.03704337,-0.06859996,-0.03928263,0.051450625,0.09859503,-0.06745626,0.020718163,0.06974462,-0.0007039652,0.034875143,0.032630008,0.014938311,-0.034738123,0.030409556,0.05367165,-0.03741596,-0.021945195,-0.00042478996,0.101317674,-0.03136686,0.05525994,0.14519373,-0.28367877,-0.09286782,-0.0053292005,-0.015282138,-0.04418941,0.17226937,0.15434031,-0.051442124,0.11362799,-0.12348109,0.041413546,0.07393908,0.0074732103,-0.039200604,-0.045535486,0.08872637,0.038900793,-0.09188101,-0.06304856,-0.11693856,0.051500537,0.12713459,0.08666793,0.41430223,-0.20115955,0.018208236,0.47963265,-0.6171509,0.3241611,-0.2658184,0.023293948,0.0389589,0.01914943,-0.015805122,0.07437293,-0.0045495364,-0.010856724,0.00085290085,0.008894417,0.013936324,0.013464277,0.008928265,-0.04908578,0.04820638,0.038652036,-0.043107662,-0.0047831032,0.033639334,-0.0020389955,0.005480195,-0.046431925,-0.044645153,0.05296971,-0.003975151,-0.037015866,-0.02259853,-0.061366998,0.022709163,0.065842465,0.007999824,0.009746209,-0.03282407,0.10438025,0.011343554,-0.041740663,-0.02356025
L,0.026727779,-0.06333389,-0.049822077,-0.049213648,0.05293119,0.030784378,-0.057519596,0.01684713,0.010493295,0.004165061,0.063662685,0.01602605,0.010056755,-0.04777358,-0.03456925,-0.025450252,0.0038482312,-0.018231684,0.008296384,0.018547213,0.00685163,-0.0014065703,-0.009763656,0.017240973,0.009217983,0.016001092,0.03752325,-0.009248957,0.007197773,0.021385087,0.026959669,-0.038067598,0.0037720155,0.11114905,-0.18943933,-0.1745864,-0.014234113,0.0010658673,-0.023595193,0.12800209,0.11661352,-0.035647556,0.052571137,-0.09772266,0.031220997,0.058739003,0.018025227,-0.039962973,-0.013444774,0.0811472,0.001288599,-0.10783748,-0.16201991,-0.118769124,-0.0138651235,0.17478466,-0.007571348,0.4018705,-0.24933617,-0.11244499,0.4164075,-0.5786074,0.35195524,-0.27397576,-0.019365542,0.00030504656,0.0138783185,-0.024877518,0.047306385,0.002716447,-0.015780097,0.019647682,0.0148525415,-0.002203016,-0.035606436,0.0008127921,-0.02256792,0.014439353,0.016254883,-0.013540987,0.0030828938,0.018472742,0.0015641318,0.052162122,-0.051206432,-0.012542763,0.05729129,-0.027348382,-0.003619653,0.048591968,0.026074994,-0.004990879,-0.0058521563,-0.0064687417,0.021316035,-0.05451528,0.0882028,0.05831892,-0.016353197,-0.06442622
K,0.06453092,-0.17145787,-0.062083114,-0.11572661,0.09228794,0.07335538,-0.23303784,-0.012302341,-0.043998025,-0.046232708,-0.042047333,0.010954223,-0.016549842,-0.070214316,-0.058941733,0.029884594,0.092868686,-0.07698188,0.009490419,0.071496405,0.026584994,0.07870717,0.050895277,0.034115534,-0.02510968,-0.0020763194,0.036137722,-0.021088373,-0.04496467,-0.11394188,0.19053286,0.055040654,0.041616723,0.106835976,-0.2569133,-0.13146865,0.03725986,-0.033670377,-0.10969023,0.36116153,0.20024395,-0.07128772,0.13695312,-0.16769676,0.05128044,0.06921014,-0.069722086,0.017407613,-0.06758617,0.04634913,0.024134401,-0.00037163493,-0.054936618,-0.13547093,0.09223122,0.15667792,0.009796009,0.32646486,-0.18869622,-0.019341663,0.487458,-0.5785598,0.30356124,-0.2721377,0.015040454,0.01828769,-0.06333322,0.0730707,-0.0378289,-0.06749563,0.016843924,-0.11922411,0.040788677,-0.033188142,0.04102971,0.025821233,-0.03516208,0.051972684,0.032360364,-0.023145737,-0.033197504,-0.009203681,0.0037333663,-0.0055514877,-0.010648972,1.1252269e-05,-0.010145058,0.02456061,-0.045942806,-0.07342968,-0.09777333,0.084735274,0.11916098,-0.013844779,0.01972481,0.0067459703,0.04437325,-0.021419154,-0.047506794,0.030425321
M,0.06315316,-0.049527504,-0.084855385,-0.03349814,0.060538627,0.05973657,-0.104887575,0.031238293,0.021091595,-0.027929239,0.044146366,0.007846116,-0.022736903,-0.023967348,-0.048940867,0.03256247,0.02123096,0.016752718,-0.0033208348,0.0074190623,-0.027510116,0.011056782,0.017103177,-0.030081436,0.029442348,-0.022750426,0.0245794,0.0025366684,-0.013517195,0.05485131,0.071202524,-0.05257304,0.037116777,0.13126646,-0.21292776,-0.14958765,-0.0073938943,-0.0029896665,-0.046864066,0.20147526,0.094260395,-0.029437225,0.06485685,-0.08741183,0.012950424,0.032428008,0.034834947,-0.04049267,-0.022312596,0.15124008,0.035376687,-0.21526442,-0.15529713,-0.121977426,-0.038672376,0.14638719,0.08688861,0.44423053,-0.22676599,-0.09681816,0.37464508,-0.55148363,0.3207643,-0.2220181,0.027169283,0.007413641,0.034610387,0.009972094,0.120605476,-0.011922447,0.033046067,-0.008532955,0.017988037,-0.0032999956,-0.025524866,0.024164088,-0.03196526,0.03496078,0.013859015,-0.017887231,0.011214,0.03322984,0.018472495,0.050321255,-0.0435585,-0.037389636,0.046557013,0.0042490237,0.0013444201,0.055100154,-0.016700601,0.017933339,0.020522518,-0.00949643,-0.011808765,0.0092669055,0.081950225,0.0005370826,0.041516136,-0.15051074
F,-0.038081884,-0.1260417,-0.053229704,-0.046638194,0.032440536,0.08206149,-0.11815512,0.018138936,-0.021049267,0.01303574,0.051971648,0.010143328,-0.003648262,-0.059581913,-0.029250378,-6.696252e-05,0.05109622,-0.070994206,0.007766388,0.042176325,0.021091152,0.05173697,0.015921192,-0.025609862,-0.03791671,0.006380418,0.08456611,-0.043685902,0.0021155488,0.03627597,0.055963434,-0.050453078,0.103432976,0.15909548,-0.2866061,-0.030557936,-0.02203155,-0.017289286,-0.02867418,0.1251899,0.11539103,-0.020342214,0.079754226,-0.10933006,0.041553583,0.06572702,-0.012661245,-0.024662685,-0.029108016,0.07107553,0.012822861,-0.077174544,-0.046584833,-0.09687567,0.061034083,0.115979515,0.055960733,0.43884838,-0.23660284,-0.03294746,0.48988542,-0.6323044,0.33894923,-0.24724299,-0.0018707564,0.015536751,-0.008818296,0.0032713164,-0.00079231866,-0.012878875,-0.031645827,-0.009935284,0.008120892,-0.0012330108,-0.03629792,0.0074467775,-0.012454458,0.02395952,0.0073999655,-0.0129727805,-0.009246138,0.0032714088,0.00267761,0.012493936,-0.024059692,-0.01893906,0.022471182,0.011295169,-0.014311748,0.027851509,-0.053010225,0.043572117,0.036731716,0.019089822,0.021971267,-0.02796498,0.056976695,-0.029242806,0.017115789,-0.049932245
P,-0.05967308,-0.03459962,-0.059055373,-0.076885924,-0.0040513077,-0.021599399,0.0061554927,-0.057765972,0.031169346,-0.0018954948,0.07882679,-0.0053011863,0.00011088416,-0.02234366,-0.011466686,-0.014835251,0.035762507,0.017731294,0.03864748,0.038359713,0.008886508,-0.011370305,0.0185827,0.043096896,0.031608794,0.041313257,0.016085153,0.0025937334,0.06381355,-0.021698562,0.0086624045,-0.04344853,-0.015337684,0.045073964,-0.06954939,-0.13805847,-0.01991417,0.011004718,-0.020788636,0.14222647,0.09666905,-0.046929162,0.039701767,-0.07092358,0.0118522905,0.020846054,0.035463218,-0.04423792,0.048568748,0.112057716,-0.022465985,-0.21412708,-0.24092065,-0.08863451,-0.117833085,0.1632696,-0.05996314,0.32851297,-0.2357166,-0.2069072,0.36401078,-0.6430167,0.37864244,-0.2012095,-0.03896888,-0.037599977,-0.09000871,0.00730888,-0.061636105,-0.054094866,-0.009809098,-0.0457544,-0.04415223,-0.07142099,0.032609526,0.0100707775,-0.01336781,-0.018950088,0.000843337,0.036778055,-0.0038425392,0.013944614,0.0046916637,-0.023830654,0.034402806,8.278411e-05,-0.033634644,0.044637393,0.0015636111,0.01153265,-0.028630666,-0.001770142,-0.03729087,0.00018285336,-0.04871796,0.08185122,-0.07261793,0.13382958,0.025707785,0.03321414
S,-0.04207797,-0.07478,-0.079924464,-0.13226892,-0.009870326,-0.0106542725,-0.011691878,-0.060078196,-0.01521819,0.03511043,0.10335384,0.012074092,4.547563e-05,-0.005434973,0.03470623,-0.01202282,0.010055601,-0.027195787,0.017267447,0.028087646,0.0100698415,0.0061680535,0.0028933955,-0.025951456,-0.0508023,-0.042602133,0.05366744,-0.039475236,0.03815938,-0.04302687,0.075314395,-0.027989713,0.04621873,0.07854115,-0.18449853,-0.14528805,-0.054722667,0.010749818,-0.020552345,0.1547414,0.14407171,-0.049668368,0.10205219,-0.102253824,0.035209987,0.02661404,-0.048174627,-0.00052160665,-0.015212286,0.08837917,0.014666542,-0.1170277,-0.16223954,-0.041032247,-0.06971556,0.117866054,-0.054417834,0.3311403,-0.23770249,-0.15442348,0.3860971,-0.68403876,0.40415415,-0.2449825,-0.001100357,-0.01708001,0.014964402,0.03804294,0.024947839,-0.05406504,0.036069505,-0.076736934,-0.010871341,-0.010556133,0.029349742,-0.013061314,-0.021075387,0.024817424,0.0035296825,0.019386677,-0.018681064,-0.03882884,-0.016605979,-0.029894305,0.018868933,0.06275656,-0.04439176,-0.028348207,-0.00889662,-0.040182617,0.0014953386,0.041787293,0.12782337,-0.041762926,0.03307325,0.010757238,-0.09631699,0.0038877164,-0.11100177,0.10560567
T,-0.053393826,-0.031172622,-0.0109516345,-0.069598936,0.020134859,-0.019269014,-0.042509552,-0.042961635,-0.00748572,-0.018520216,0.067451395,-0.026995786,-0.031430062,-0.03716038,-0.01120685,0.05702902,0.09182604,-0.009524311,0.0587877,0.032208316,0.042819828,0.03287367,0.04529554,0.09212017,-0.031082941,0.037871167,-0.04449675,-0.011931759,0.048594724,-0.07318359,0.053327806,-0.044212714,0.020717986,0.09659657,-0.17857456,-0.082264505,-0.029122,0.011953732,-0.023240028,0.1507241,0.15484898,-0.067348756,0.06006134,-0.11018181,0.02403997,0.034488216,-0.013583164,-0.008733926,-0.02385689,0.073061444,0.020210966,-0.086859375,-0.13191496,-0.08904147,-0.033191256,0.12225732,0.012319332,0.36574015,-0.2156612,-0.119197205,0.4331527,-0.70995164,0.3940917,-0.22697347,0.055482604,0.026411187,0.029792955,0.022574417,0.031761453,-0.026756935,0.037821908,-0.064832166,0.016930278,-0.039411046,0.0370639,0.018288339,0.0063869497,0.016681388,0.0138084935,-0.0055951653,-0.0034092495,0.013684778,-0.013713674,-0.049579993,-0.0014552191,-0.0018338043,-0.006303714,-0.0022683558,-0.007551325,-0.059559222,0.01052756,0.0058455807,0.024688229,0.00308356,-0.033041406,0.037689764,0.001833218,-0.05045813,0.008560949,0.112004176
W,-0.046674423,-0.024647195,0.0954365,0.01619579,0.039318632,0.030249842,-0.021106964,0.020384604,-0.031573612,0.037112236,0.04876165,0.014729121,0.009038753,0.02195228,0.016566746,0.058323964,0.015353941,-0.019413874,0.0614458,-0.00037278768,0.0658987,0.020096054,-0.004595035,0.05011876,-0.0089833215,0.11752965,0.09881116,-0.036288116,0.085662365,0.06836864,-0.04392167,-0.12392645,0.07710784,0.1470842,-0.20747057,-0.06107192,-0.070670344,0.03494111,0.014669321,0.08363113,0.12792681,-0.03444758,-0.013130142,-0.10137747,0.033110358,0.070927836,0.035317484,-0.052009087,-0.022008821,0.05107871,-0.01996319,-0.048839055,-0.2226472,-0.12646793,-0.043640066,0.21611477,-0.040112533,0.369646,-0.24222821,-0.108727805,0.44498175,-0.57044923,0.36293146,-0.2997534,-0.05047414,-0.007780983,-0.067090146,-0.062011663,-0.0014553098,-0.015712343,-0.047331065,0.030149514,-0.021261718,-0.040790707,-0.034486223,0.022219105,-0.026290001,-0.040327754,0.05733246,-0.040408697,0.031960614,0.06463439,0.039038703,0.14748283,-0.08123533,-0.065332055,0.11783274,-0.0176717,-0.035869606,0.040567383,-0.032792762,0.012206515,-0.12770337,0.052437093,-0.008956761,-0.03783303,-0.011157906,-0.09200933,0.008881687,-0.09469115
Y,-0.030534863,-0.118924014,-0.035388663,-0.044691153,0.020621976,0.03679733,-0.11566121,-0.0067543774,-0.02583087,0.011305177,0.06886302,0.020958731,-0.0051000975,-0.10127472,-0.051519502,-0.012013902,0.12448903,-0.14907649,0.01929351,0.12082691,0.039920237,0.07646942,0.03906688,-0.005768536,-0.046424426,0.01729145,0.10655879,-0.07422493,-0.042779062,0.023843586,0.07388839,-0.014355621,0.08097651,0.13594386,-0.29161093,-0.082580864,-0.008611141,-0.022162227,-0.050372746,0.17636704,0.14123291,-0.04522901,0.113516174,-0.11049797,0.039369166,0.05574329,-0.03168842,-0.006752528,-0.02646434,0.04870696,-0.008036662,-0.040258043,-0.0644321,-0.11232624,0.0690939,0.14551555,0.051065862,0.35467792,-0.18587153,0.0048379023,0.47804546,-0.6368018,0.33141392,-0.21443214,0.026711091,-0.010225539,-0.09084756,0.06636702,-0.08962084,-0.05979295,-0.0067784465,-0.07803759,0.014278404,-0.005522155,0.011900475,0.013893907,0.009238903,-0.002908313,0.011157777,-0.01774214,-0.0075413706,-0.0046793623,0.002700682,-0.019435164,-0.011852641,0.0066988273,0.0049865856,0.001649809,-0.034414776,-0.02102062,-0.04843419,0.07451215,0.0072610066,0.03219132,0.011634367,0.016027614,0.09170266,-0.05465729,0.0035523048,-0.04927968
V,-0.024622075,-0.0335817,0.0020174787,-0.06280279,0.08621966,0.04448644,-0.03220021,0.003465019,0.013185021,-0.016496079,0.066718295,-0.0077387276,-0.0042347605,-0.026169844,-0.011701684,0.019816285,0.032397844,0.01919532,0.04550641,0.0020302457,0.022864548,0.012790483,0.015352529,0.055100515,-0.013762613,0.03911833,0.016399717,0.0027671352,0.047771905,-0.025856027,0.013884139,-0.035736296,0.03522955,0.12889273,-0.23381282,-0.08880868,-0.041714743,0.013454868,-0.018478984,0.17430104,0.1690805,-0.07426939,0.07312274,-0.11967973,0.029730441,0.06461243,0.045921966,-0.061154876,0.00895687,0.09403844,-0.0056200023,-0.14886744,-0.18177791,-0.12798344,-0.036829945,0.17780744,0.012391813,0.36475188,-0.21615325,-0.08932332,0.4087915,-0.60975456,0.34647718,-0.22357187,0.0063747917,0.016992178,0.025413368,-0.017327415,0.06975056,-0.0072537726,0.0013003409,0.016970681,-0.018755503,-0.02204791,0.015932951,0.0071731005,-0.0016671316,0.02413405,0.0415917,-0.040370643,0.008229961,0.035077132,-0.027416963,-0.0049611465,-0.03269685,-0.042162403,0.04511447,-0.007821613,0.0072749993,-0.030796366,0.037436377,-0.052506935,0.0030440083,0.01581307,-0.011397968,0.01949581,0.040026356,0.003785377,0.007836055,-0.056336395
