A,-0.1736142,0.13642372,0.16845585,0.21986522,-0.048806436,0.040458005,-0.069169,-0.2201083,-0.030521391,-0.052516446,0.073357835,-0.031891175,-0.17272712,0.0005733021,-0.16765283,-0.21744049,-0.062481,0.311756,0.13201706,0.04811468,0.012316931,-0.21628456,0.008477242,-0.04884759,0.067235455,0.059552938,-0.28417453,0.28230733,-0.19980752,0.21865323,-0.27252704,0.02701442,-0.02948999,1.970887,-0.0075726067,-0.00032895934,-0.064063706,0.019838978,-0.008745437,0.058525585,0.013690856,-0.08327991,0.119449794,0.051916644,0.016605679,-0.067022376,-0.044178408,-0.034408085,0.002462238,-0.09725498
R,-0.1432652,0.030275522,0.11522737,0.2396378,-0.021576054,0.0219541,-0.10694511,-0.1319404,-0.049147014,-0.026528398,0.1255576,-0.024848787,-0.19399427,-0.015330355,-0.06482135,-0.23961303,0.04982787,0.21363972,0.08953855,0.13042374,-0.05602601,-0.069805056,0.07328311,-0.038524766,0.23514864,0.19913058,-0.23830189,0.33089703,-0.007295182,0.2122288,-0.06758396,0.10155666,0.006195496,1.9193019,-0.06452362,-0.04411435,-0.018318327,-0.02692104,0.11733066,-0.03517372,0.0020794852,-0.052531525,0.06805524,0.04014842,-0.0576797,-0.10174163,-0.20883046,-0.06420402,-0.058288362,-0.07519158
N,-0.036261432,0.009862393,0.070738874,0.061308336,0.034259424,-0.023283672,0.16547088,-0.11462139,-0.056265008,0.09687542,0.0065998393,0.04683976,-0.19516885,-0.0095733665,0.13222116,-0.28247288,-0.0190145,0.21150419,0.10980648,0.23717353,0.025919978,-0.12004409,0.019571204,-0.021021584,0.29798388,0.1843867,-0.11268802,0.29199547,-0.07637034,0.2799178,-0.2893051,0.049217317,-0.21474165,1.9720619,0.058439497,0.09363435,0.13688283,-0.034670074,-0.00068367535,-0.09711709,-0.003439034,0.07594199,-0.12128237,-0.11941047,-0.015190425,0.10584262,0.0115998825,0.029442312,-0.03858766,-0.02831543
D,-0.10961535,0.009427677,0.10020333,0.15340328,-0.093083404,0.07371112,0.014966276,-0.18379153,-0.033607334,0.018992316,0.056902867,0.05493362,-0.18423289,-0.013718603,0.10982589,-0.22973402,0.07276563,0.2516572,0.06861938,0.21369526,0.003105355,-0.09790511,0.08275531,0.011533865,0.19196118,0.09232827,-0.23795368,0.2794006,0.00621714,0.17636225,-0.17881826,-0.011249359,-0.06683691,1.9909784,0.08757536,-0.052102074,0.023426855,0.024315564,0.0629805,-0.029948631,0.0054950924,-0.043616302,0.014657645,-0.051461194,-0.025788585,-0.003544288,-0.027642006,-0.07534939,-0.049030993,-0.008633672
C,-0.18882877,-0.057742335,0.14935449,0.4359589,0.104846016,-0.0072027748,-0.049326174,-0.21974087,-0.14861538,0.1453683,-0.11193253,-0.16336557,-0.3048743,-0.024595888,-0.077759065,-0.27285406,-0.26798743,0.17977862,0.10702913,0.36228868,0.014405903,-0.11142703,0.113501236,0.0074649854,0.26174763,0.25903404,-0.03864063,0.2495271,0.046813194,0.14216387,-0.040620532,0.19738148,0.079935305,1.8771766,-0.21058062,0.033011414,0.09381295,0.07064773,-0.03103294,-0.07998998,0.049325306,0.1800431,-0.23273936,0.056191087,-0.0057943463,-0.0385143,-0.14471038,0.16369048,0.0075286995,-0.016691359
Q,-0.09868018,0.07342828,0.033621337,0.08420501,-0.14085966,0.12943673,0.015293686,-0.061407454,0.02371773,0.034832522,0.09878293,-0.034006543,-0.09695764,-0.020394681,-0.039215732,-0.27613315,-0.14107324,0.3028276,0.07406552,0.122668654,-0.08919195,-0.118898034,0.15475403,0.028130122,0.20443992,0.30526182,-0.24011774,0.23047107,-0.14615051,0.36056882,-0.19553886,0.009999433,0.00829001,1.9636421,0.17605716,-0.0021833046,-0.05285257,0.06553952,0.04209315,-0.024073254,0.022265285,0.03729559,-0.06567145,-0.02128971,0.026567847,-0.07231277,-0.11284334,0.13502192,-0.01767788,-0.06095318
E,-0.03198547,-0.030422138,0.08256559,0.14286722,-0.14924465,0.08938869,0.009043114,-0.13386439,-0.016421577,0.016079765,0.0027702628,0.0030024939,-0.15220276,-0.015060794,0.07176897,-0.17811906,0.079476565,0.27772877,0.041325726,0.21788827,-0.013260047,-0.09575252,0.1048608,-0.0032874434,0.21472225,0.11879078,-0.3132109,0.30725083,0.07040882,0.15745573,-0.18145624,-0.04428165,0.050352473,1.9489082,0.05216623,-0.12178142,0.05545749,0.040961176,0.13180089,-0.033548698,0.020679386,0.0013617823,0.025067572,0.026070043,-0.005704529,-0.08396294,-0.12430241,-0.023895634,-0.042886693,0.027211653
G,-0.19599798,0.15774521,0.19390011,0.2277274,-0.041143745,0.008752563,-0.00780126,-0.28019428,-0.07200375,0.039992917,0.01739581,0.009531106,-0.1447101,-0.032113556,-0.06063664,-0.18681996,-0.11120964,0.25104696,0.098309696,0.18660307,0.064436264,-0.18567479,0.041006923,-0.004027569,0.10948794,0.14586057,-0.24819206,0.30283833,-0.07051413,0.2123164,-0.15386814,0.21109304,-0.03246778,1.9602283,-0.09191011,0.113408566,0.019028194,0.064286344,-0.078411385,-0.004667161,-0.08474854,-0.06633746,0.057480857,0.057978045,0.017868187,-0.012218203,0.043827094,-0.077137016,-0.014631765,-0.04660239
H,-0.064191125,0.12700267,0.048774257,0.29958108,0.11495736,-0.05090309,0.020295061,-0.21174717,-0.100982845,0.19896662,0.06162327,-0.07325918,-0.20930804,-0.04051363,0.086473465,-0.16161935,-0.115258805,0.1345462,0.0958272,0.3262757,-0.08840789,-0.05609493,0.10843819,-0.009818812,0.20618773,0.3303833,-0.20440751,0.24505624,-0.06970636,0.20068777,0.017988231,0.20826204,0.06649187,1.969868,-0.044832066,-0.03390605,-0.029757207,0.037629884,0.0072316295,-0.058311794,0.023007093,0.05639976,0.043734,0.0069123446,-0.01146746,-0.015709966,-0.10350197,0.04106123,0.014496503,0.05964937
I,-0.07387158,0.10827808,0.14568469,0.13671449,0.052066922,0.03474577,0.061198033,-0.18821341,-0.02512191,0.034632538,-0.1148187,0.052794874,-0.13451007,-0.03819032,0.03413192,-0.13725747,-0.04431048,0.26281962,0.13519475,0.22136086,-0.0743888,-0.08848561,0.08349678,-0.008549642,0.18337485,0.2062259,-0.054087907,0.32298508,-0.018129935,0.2214901,-0.282341,0.028183697,-0.14466247,1.9550791,-0.014740805,0.046074864,0.026023762,0.048308767,-0.10439168,0.05550118,-0.0013584393,-0.005006342,-0.006714007,0.02099762,0.005132154,0.06689312,0.02365639,-0.023342868,-0.019758627,-0.020602664
L,-0.13102593,0.121429205,0.13510703,0.1718338,0.005741016,0.05148209,-0.025296755,-0.14402987,0.0018902844,-0.023069303,-0.040739983,0.009790123,-0.11474228,-0.02731425,-0.07530581,-0.16504541,-0.024090193,0.2791251,0.13760775,0.18730524,-0.08375877,-0.10291383,0.0729314,-0.028891385,0.1930772,0.22507381,-0.15133761,0.34906605,-0.040934343,0.24412876,-0.20186207,0.08258149,-0.08039799,1.9728696,0.037938096,0.03328479,-0.04472909,0.056261413,-0.09155892,0.076999836,-0.00872101,-0.05358542,0.028841626,0.036640406,0.015601569,-0.02031139,-0.04078973,-0.008096372,-0.014094905,-0.05288412
K,-0.059586298,-0.07805549,0.06877505,0.12439615,-0.038622852,0.04418781,0.04110353,-0.115323186,-0.020489115,0.01366422,-0.0774664,0.01873183,-0.14158311,0.013011075,0.049339145,-0.1595876,-0.0052566538,0.22647619,0.10663542,0.3290267,-0.03520387,-0.054668475,0.11957923,0.05281072,0.19366574,0.19130462,-0.1426368,0.28881404,0.073457405,0.2231969,-0.29708448,-0.059886985,0.0018639473,1.9306481,-0.02496749,-0.058037568,0.07439197,0.09033186,0.0028079369,-0.020778148,0.017017627,0.060515977,-0.08781494,0.010580481,0.00615143,-0.01732974,-0.028814651,0.04998506,-0.032926694,0.05798977
M,-0.11463057,0.11083399,0.12648633,0.16328517,-0.09736672,0.05658607,0.09042759,-0.11113795,0.019141918,0.04455055,-0.039021432,0.026170693,-0.09648067,-0.0002831205,-0.019374503,-0.18728378,-0.081601255,0.26674458,0.13510574,0.097308025,-0.03696972,-0.088741556,0.068513766,-0.06571083,0.09274977,0.22862741,-0.17632796,0.43374538,-0.066830836,0.21722342,-0.2437088,0.075153224,-0.16118753,1.9430306,-0.04407088,0.066216275,-0.034773547,0.1440334,-0.037333153,0.058278807,-0.0051318584,-0.0011229271,0.10555354,0.12025898,0.009291084,-0.05059781,0.003288568,-0.00081619574,-0.05401063,-0.06665847
F,-0.13067688,0.051265504,0.12585646,0.2335144,0.055225328,0.0068098833,0.020167932,-0.22566049,-0.033187576,-0.018092897,-0.02833563,0.039461855,-0.12549503,0.014420009,-0.010761394,-0.19691278,-0.09161502,0.24460919,0.11026728,0.22383922,-0.102533534,-0.020724501,0.14483409,-7.721419e-05,0.19802779,0.27901617,-0.036571793,0.3720541,-0.022442508,0.20695044,-0.13375849,0.109843776,-0.19433591,1.9633566,-0.028183045,0.057368074,0.023141239,0.09901232,-0.19784734,0.06846684,-0.018534172,0.05188697,-0.059341922,0.041732643,0.0024594376,0.020298831,-0.019994464,-0.026394991,-0.022032125,-0.030512737
P,-0.06918892,0.0065698004,0.11664549,0.14817485,-0.09040264,-0.008740485,-0.0590009,-0.19700702,-0.034133002,-0.11967717,0.13194212,-0.060963303,-0.16630796,-0.0055642934,-0.1325364,-0.30516326,0.024410788,0.35382453,0.08519765,0.16663179,-0.051870424,-0.1026934,0.18167718,-0.0077395975,0.18398157,0.21647242,-0.3521453,0.27995718,-0.24988285,0.22740681,-0.10271455,0.2629403,-0.043163892,1.9666681,-0.08786858,0.021289907,-0.017123848,-0.03875242,0.03579717,0.040846236,0.14087537,0.062161054,0.07533422,0.010907137,0.059269134,0.073860206,0.021184573,0.036676724,0.015835194,0.019677544
S,-0.10260108,0.02451173,0.07119372,0.23858029,-0.108118385,-0.005347774,0.0021666593,-0.095544934,-0.021851886,-0.069727205,0.03923881,-0.053779613,-0.1309103,0.070437096,0.011985323,-0.22011206,0.022056216,0.2131789,0.0605099,0.2799913,-0.050312363,-0.056731272,0.100849874,0.043685056,0.19655806,0.17245121,-0.24957827,0.2450446,-0.094194576,0.2649494,-0.24832729,0.15577663,-0.13535708,1.9597274,-0.059720576,-0.0130453305,0.038712144,-0.20509742,-0.075590596,0.029894546,-0.039111882,0.034822688,-0.0603515,0.007389147,5.9608057e-05,0.12581675,0.026394043,0.025654668,0.031491887,-0.0020971836
T,-0.1303761,0.10543728,0.12288285,0.13238975,-0.037276864,0.0051136487,0.013237106,-0.17691793,-0.039462216,0.015646279,0.00411553,-0.056176584,-0.17526366,-0.023363678,-0.031879358,-0.2263339,0.009315098,0.24244383,0.11901462,0.25444537,-0.013764812,-0.12508924,0.0906534,0.024090312,0.121512614,0.19103546,-0.21352328,0.19847001,-0.070614934,0.23311745,-0.30183637,0.13817854,-0.103752494,1.9634575,-0.07060535,0.045961168,-0.019450767,-0.08374843,-0.016076356,-0.013039645,0.08169136,-0.0035422218,-0.012888636,-0.067676745,0.07318395,0.12387295,0.05913056,0.056882948,0.015871126,-0.03144652
W,-0.21823868,0.21083795,0.1802413,0.21877515,0.034733094,0.0026569865,-0.054511946,-0.28747272,-0.028352764,-0.10905221,0.061214756,0.010334779,-0.21746972,0.014521221,-0.16176537,-0.19580714,-0.07473431,0.19729097,0.13291325,0.047223903,-0.052258484,-0.07403369,0.06332812,0.00071119505,0.1447216,0.3235375,-0.136009,0.37989202,0.023357736,0.27522188,-0.014967857,0.09378604,-0.0371001,1.9438148,0.045953885,0.07296017,0.021428544,0.1050288,-0.14923471,0.0053218408,0.0060102968,-0.04741803,-0.07120781,-0.025150787,0.060140148,-0.0133431945,-0.027920537,-0.06877311,-0.043311935,-0.08827523
Y,-0.14076449,0.03897544,0.10014957,0.19870494,0.06185882,0.004710058,0.044811677,-0.20657645,-0.04981688,0.051345028,0.00086595933,0.056431286,-0.17372204,-0.022114342,0.076699905,-0.2450552,-0.028127253,0.22662342,0.08082286,0.19284055,-0.08329039,-0.008128403,0.1408022,0.0039714836,0.17492992,0.30578172,-0.08703761,0.2708433,-0.030368635,0.23005007,-0.13753867,0.060196843,-0.170947,1.9646362,-0.013155641,0.06656172,0.06609794,0.14864136,-0.057360917,-0.0031465162,0.028458664,0.029629827,-0.09006784,-0.01318923,0.0059189647,0.04104185,-0.018074574,-0.063306935,-0.09004311,0.018133434
V,-0.12424511,0.09691336,0.17809829,0.19782045,-0.058249526,0.039225902,-0.0026539122,-0.24405432,-0.03656126,-0.015342753,-0.039456237,0.027519044,-0.12535606,-0.0039101336,-0.06340319,-0.19161645,-0.032438952,0.25337803,0.10407221,0.15842895,0.002541209,-0.14444405,0.042315666,0.011843713,0.11711275,0.11292412,-0.20929725,0.3057951,-0.044830017,0.20777711,-0.26705444,0.09264223,-0.069461584,1.971196,0.022639733,0.038657725,-0.012039043,0.03281273,-0.04751843,0.021087674,0.020786593,-0.014529755,0.056962363,0.008142596,0.028812397,0.034982722,-0.026379216,-0.087031506,-0.04194896,-0.053275753
