A,-0.044471834,0.016778583,-0.00031397943,-0.12674856,0.07263176,0.11583943,0.05649417,-0.27042794,-0.057483066,0.013771311,0.027226154,0.05222646,0.031204868,-0.15309507,0.020978913,0.00014355624,0.06437452,0.12758078,0.11929795,0.028755462,0.011325122,0.06214182,-0.034610614,-0.014398763,0.15903816,-0.049557343,-0.015176244,0.04919318,-0.0896977,0.027002772,0.038334273,0.083548844,-0.08282973,0.071843155,0.027997142,0.059055023,-0.022893993,0.009725338,-0.0028631734,-0.004213211,0.036135945,-0.030702978,0.016078938,-0.014002352,0.006937586,0.021238603,0.006625881,0.018390382,0.0044864756,-0.0035747786,0.0083168885,-0.019519707,0.031621467,-0.035003074,-0.004451689,-0.0124158515,-0.063443564,0.06697864,-0.0053389003,-0.029515684,-0.059166655,0.053675856,0.058846653,-0.06928035,0.043705374,0.0489841,-0.08133199,0.09471436,-0.0013203169,-0.010057344,0.040825043,9.3556024e-05,-0.017855763,-0.012522652,0.060460564,0.025504699,-0.018843038,-0.026386488,-0.015445513,-0.04653803,0.0494364,-0.08805535,0.030251238,-0.061897222,-0.03268303,0.02114526,0.021980079,0.00328608,0.04701537,-0.016358325,0.022555206,0.02729182,0.0013974825,-0.009352,0.050887976,0.0107875895,-0.019831708,0.06638891,-0.16794996,0.2178813
R,0.018366933,-0.036075193,-0.04141238,-0.016333882,0.015509734,0.08279826,0.0841315,-0.055151038,-0.031533115,0.080388926,0.0106404135,0.092523135,0.06954022,-0.24774049,0.0281403,0.05677022,0.028730605,0.142829,0.09115213,0.06978064,0.023859886,0.00082938565,0.011843546,0.039609972,0.16598867,-0.22255631,0.044955924,0.006934854,0.14926235,-0.06445409,-0.10387546,-0.006963051,0.0006323388,0.052502103,-0.025941841,0.048820283,-0.07467366,0.045745354,0.023135956,-0.04416915,0.015608514,-0.020817436,0.024527872,-0.02044454,0.004834707,0.011662823,0.0038873986,0.015026719,0.013891467,0.038225815,-0.013145929,-5.4215856e-05,0.072644904,-0.012589265,0.012555612,-0.038546707,-0.002522665,-0.015234025,0.0021680829,-0.0065277773,-0.05088954,0.025199471,0.0133191785,-0.11605903,-0.018435922,0.027818834,-0.16130738,0.13496755,0.015442431,-0.02319349,0.06448009,-0.06969637,-0.065526195,-0.05959475,-0.0017712543,-0.07754583,-0.017296322,0.056588776,0.037679084,0.024223806,0.04711095,-0.09434307,0.02244447,-0.051894598,-0.011719423,0.05049811,0.049358968,0.01651812,-0.0020895011,0.03391792,-0.053532,0.022177989,0.062574655,-0.05635219,-0.059873134,0.091753855,-0.14868715,-0.0367436,-0.21194327,0.094149336
N,-0.03799409,0.035408877,-0.0070242933,-0.18690863,0.0026973872,0.04243093,-0.10482247,-0.11376484,-0.02470977,0.05677602,0.047550097,0.031875726,0.096895345,-0.19343208,-0.06661255,0.06124027,-0.045087703,0.12151931,0.05500201,0.10432176,0.08631298,-0.01906164,0.07842403,0.07752055,-0.027846074,-0.19027005,-0.040148742,0.023499236,0.14225203,-0.02144281,0.05070105,0.010348446,-0.14246637,0.05291481,-0.14397356,0.07778318,-0.029771643,0.11730296,-0.026687726,0.07805635,0.04485326,0.0096970545,0.032577544,0.012702552,0.007100197,0.0039458484,-0.0356387,-0.028392069,0.021140927,-0.07375821,0.023984738,-0.013828866,-0.00851941,-0.03294576,-0.014222705,-0.006041955,-0.11330866,0.045122474,-0.019432131,-0.03303408,-0.010163407,0.14308909,-0.023979554,-0.0680419,0.091475084,0.046312135,-0.2483561,0.046384472,0.046955146,-0.08005293,0.031144116,0.0146379825,-0.013375853,-0.022693131,0.18817323,0.051912546,0.0029974785,0.0322654,0.0664137,-0.06484143,0.082077645,-0.09103103,-0.049215812,0.0088175535,-0.023465943,-0.0025847317,-0.011234919,-0.00266371,0.014126956,-0.028283989,-0.029581634,-0.012587515,0.04771667,-0.029641878,-0.028080255,-0.08808072,-0.22999628,0.17332968,0.01954042,-0.18710305
D,-0.01754376,0.092781365,-0.009518022,-0.11068479,-0.031494714,0.06502105,0.09749838,-0.06501925,-0.024375511,0.021624552,-0.023096751,0.070018664,0.07267027,-0.22145884,0.008740536,0.057052452,0.01855975,0.074586116,0.09158089,0.026033852,0.025787482,-0.0008329093,0.014400583,0.038349558,0.14857051,-0.17584316,0.009575437,0.010618709,0.030226553,0.0013168129,-0.02538131,-0.018096102,-0.059166342,-0.009880922,-0.103789985,0.030030906,-0.022958947,0.009438272,-0.024623178,0.036636937,0.04011856,-0.02445145,0.05364354,-0.023116551,0.0009759978,0.024867723,0.0360671,0.032602224,0.026442416,0.0126353195,-0.01882161,0.01311926,0.05856491,-0.0006093672,-0.005072466,-0.045990195,-0.015949506,-0.04585139,-0.0026301488,-0.0043894164,0.04107463,0.053116076,-0.047590453,-0.09470078,0.0023453436,-0.017081225,-0.17038192,0.068166785,0.075969346,-0.04523755,0.047201905,-0.06207029,-0.04591153,0.059385758,0.06305836,0.0016004092,-0.073190846,-0.01717643,-0.044925362,-0.10239299,0.022792269,-0.07072514,-0.00022843265,-0.0122617595,-0.011798912,0.024679037,0.013707875,-0.005496719,0.09573777,-0.031803295,0.020229708,-0.061299503,0.105883405,0.0009903105,-0.08676716,-0.032800224,-0.15183382,0.13225654,-0.13054748,0.050280795
C,0.041574806,0.0037911518,-0.040406246,-0.32719702,0.05562654,0.15701345,-0.017481823,-0.028475473,0.043759853,0.10300843,0.032690533,0.089825906,0.05215595,-0.13608691,0.03880179,0.13159151,-0.029006997,0.100215375,0.008965892,0.08930469,0.014220393,-0.060418572,0.10286408,0.0033686208,0.058689684,-0.16206762,0.0868518,-0.041287992,0.039932944,-0.0020939521,0.008035636,-0.025234196,-0.18620144,0.15457657,-0.004800422,0.15200116,-0.01426809,-0.06459685,-0.05166147,0.05327137,0.23267788,-0.17911154,0.10258602,-0.06453322,0.04077841,0.10532605,0.100802414,0.0886229,0.0027800074,-0.0114860535,-0.008643158,0.010716333,0.15094773,-0.088004686,0.09710545,-0.008579405,0.03395406,0.009165283,-0.00041224252,-0.01381896,-0.034372523,0.013483614,0.05007332,-0.17129618,0.13756904,0.082029946,-0.025227334,0.33357802,-0.05155358,0.0036715833,0.03123804,-0.028883772,-0.09606886,-0.02838035,0.039796665,-0.056605082,0.037672658,-0.042658567,-0.008158912,-0.06546376,0.12897243,-0.113157116,0.00029202338,-0.03717462,-0.072474346,-0.019273313,0.093968384,-0.0711452,0.1664143,0.07989942,0.018143112,-0.22999792,0.0652475,-0.11557101,0.036261432,0.104603946,-0.14516756,-0.1441339,0.09111857,0.08561639
Q,0.025768299,0.057975058,-0.094686,-0.18909475,0.073669516,0.20345834,0.12636568,-0.06916134,0.0042251754,0.0318853,0.020300956,0.03719614,0.06617192,-0.09528373,-0.044671983,0.04981853,-0.044245522,0.18377703,0.1497523,0.12414067,0.082901284,-0.012625374,0.07410628,0.057400066,0.03545814,-0.22220674,-0.01592036,0.029699987,-0.036465608,0.0032717646,0.036394715,0.033094905,0.08509242,-0.020245472,0.027531892,0.023375226,-0.037914462,0.033406902,-0.01777649,-0.013111372,-0.046790365,0.020716619,0.011165161,-0.013368437,-0.037696738,-0.017339408,0.021025846,0.045149714,0.016385308,0.05305501,-0.013121723,-0.00073500024,0.107670054,-0.13016748,0.051893637,-0.008928029,-0.14167282,0.14892927,-0.026703753,-0.07081266,-0.094115935,0.10863615,0.07570655,0.0048347227,0.0819457,0.06456189,-0.2345415,0.12124299,0.0113372095,-0.0010568225,0.1254278,-0.122581646,-0.088375986,0.07295809,0.060442418,0.0106599955,-0.080061555,0.025464276,-0.019658975,-0.107855596,0.09938161,-0.027051201,-0.057145398,-0.082661875,0.011717964,-0.002661207,-0.021104744,0.052557006,-0.119773395,0.004789433,-0.047775254,0.07561322,-0.04098252,-0.027410887,0.074646786,-0.05178842,-0.11693732,0.045367613,-0.027627658,0.16414174
E,-0.009123382,0.055088684,-0.043283083,-0.12333797,0.048793793,0.14596184,0.19310102,-0.023694927,-0.028051816,0.025094317,-0.0096648075,0.05482576,0.089890026,-0.23167637,-0.0141878165,0.07206296,-0.008189674,0.13544354,0.12298923,0.07543037,0.05007178,0.03652524,-0.002430761,0.05154504,0.063241005,-0.1497559,0.031003471,0.0049426225,0.09349727,-0.0069390237,-0.07476208,-0.044855572,-0.0578618,0.03818331,-0.09070336,0.083110176,-0.065020114,0.050128955,-0.009834164,-0.0015813092,0.031111164,-0.023250734,0.045171518,-0.024571095,0.014003238,0.05127734,0.043135345,0.05610676,0.013124425,-0.013187852,-0.0018211144,0.011216851,0.037236262,-0.00073468307,-0.0049211374,-0.029082997,0.021554846,-0.06839738,0.005163488,0.0085131265,0.046533678,0.05284546,0.0168245,-0.109231904,-0.0041976767,-0.0031144123,-0.26555955,0.10799781,0.065743245,-0.038799345,0.11549817,-0.051927287,-0.053623687,-0.075527,0.10256348,-0.07053969,-0.1417649,0.024233699,-0.045346603,-0.10202661,-0.01325538,-0.07832522,0.025611497,-0.02974351,0.015225435,0.10893262,0.0039777067,-0.0066079968,0.07846633,-0.034300573,-0.017506184,-0.04770564,0.06568738,-0.0671079,0.024384366,0.0535038,-0.12489931,0.055757005,-0.047676325,0.11874798
G,-0.012773958,0.10685614,-0.030847443,-0.2633258,0.048092037,0.0829463,-0.05014522,-0.2364901,0.021003349,0.11393439,0.046713125,0.023053315,0.06794898,-0.1808388,-0.016477631,0.0741928,-0.005684597,0.086295806,0.053933773,0.051724695,0.025072861,0.006170662,0.030732952,-0.010403588,0.040940072,0.018891828,0.01665434,-0.000844225,-0.09236145,0.049247768,0.0671423,0.060651973,-0.16438596,0.056013316,-0.07376858,0.044151295,-0.049732875,0.02868966,-0.02197453,0.06313751,0.079218425,-0.058710046,0.034883976,-0.021577299,0.0038332152,0.027362892,0.013899255,0.0028193127,0.015103218,-0.034277283,-0.0016346112,0.014902544,0.06928226,-0.017342787,0.035418745,-0.018039359,-0.0136579415,-0.0037668801,-0.010237659,-0.015245432,0.0130938655,0.013073567,0.03128362,-0.10426534,0.01894889,0.022194354,-0.07485673,0.097121306,0.0015256063,-0.00794031,0.014894894,-0.0028149616,-0.026405653,0.03580401,-0.040658478,-0.003380103,-0.014725337,0.0074850274,0.008093872,-0.017131422,0.059529543,-0.09187323,0.03451403,-0.059344795,-0.013797151,0.082670934,0.0714026,-0.036154408,0.034884196,0.009396492,0.0011374264,0.038960174,0.059146777,0.018672118,-0.05447419,0.020209111,-0.11220727,-0.021019382,-0.25351566,0.10620364
H,-0.005195009,0.018530905,0.039626226,-0.22961769,0.040156923,0.07148153,-0.005978432,0.039280586,0.022406932,0.022898579,0.053557657,0.00151468,0.10405514,-0.12125406,-0.092082456,0.14002353,-0.01825639,0.1578387,0.13361445,0.07979646,0.097696915,-0.15594697,0.19157133,0.12106936,0.16716857,-0.25158644,0.08053782,-0.0013855115,0.0034780044,-0.01701644,-0.056575622,0.015229784,-0.055671364,0.07497046,-0.05903837,0.059287105,-0.07644353,0.05534279,0.025464563,0.004598852,0.18825787,-0.08376528,0.0814318,-0.005830514,0.04557807,0.06758224,0.03848578,0.053446252,-0.017718812,0.0060409955,0.012563866,-0.018309867,0.028619042,-0.02350756,0.029634964,0.0075648567,0.019990776,0.026094897,0.019270418,0.01668345,-0.019982077,0.02631142,0.04248403,-0.09208322,0.12573187,0.14572524,-0.15571135,0.21547341,-0.09260676,0.023953136,0.041982032,0.054958295,-0.069099106,0.025476225,-0.04070053,-0.019503227,0.044625133,-0.07962236,-0.023384891,-0.062032003,0.1086858,-0.07936124,0.04957709,-0.106410444,-0.044862088,0.041902214,0.07859944,0.0038822242,0.085788876,0.05300497,0.022128463,-0.060540464,0.04650831,-0.09820955,0.008483371,0.038852807,-0.13381338,-0.10106826,-0.060235903,0.08449928
I,-0.06131754,0.052414317,0.04210459,-0.12524676,0.031391636,0.021260675,-0.030438958,-0.13836595,-0.01831991,0.09061041,0.049952704,0.01229974,0.10291298,-0.17858103,-0.08903525,0.06601523,-0.031944085,0.0620321,0.104123674,0.037905015,0.058851447,-0.012975341,0.05771023,0.02649599,0.09924604,-0.1600571,-0.020180816,0.03898523,0.044299286,0.03369558,0.053094372,-0.01174908,-0.18776442,0.036604226,-0.15754905,0.043360624,-0.02924349,0.09056787,-0.032245528,0.096784525,0.106056444,-0.023371495,0.05148998,0.010550003,0.030549152,0.051462956,0.01368654,0.008347056,0.0060116057,-0.08864401,0.022846876,0.0021267212,0.056643497,-0.07123233,0.051427167,0.010787332,-0.043235138,0.02339195,-0.015723618,-0.021819161,0.07428833,0.06465983,-0.0043452317,-0.122613735,0.0374313,0.0039404854,-0.10453283,0.06478215,0.011781942,-0.01754594,0.027471345,0.009984737,-0.019692546,0.027679833,0.008372213,-0.00417099,-0.04617141,0.024040198,-0.005481941,-0.059629958,0.020711005,-0.047765438,0.00882208,-0.029329224,0.010316521,0.11686176,0.03291411,-0.044399034,0.06347943,-0.045408558,0.007170674,-0.004853259,0.041928396,0.00045464438,-0.020298481,-0.0587633,-0.18545382,0.062382594,0.04102223,0.023791034
L,-0.044434275,0.045730885,0.013806423,-0.119384415,0.032962542,0.07021123,0.026239235,-0.10232111,-0.03367087,0.056024082,0.030434016,0.027045486,0.08156762,-0.17082533,-0.0640078,0.024985217,0.013239845,0.087396905,0.12103088,0.027711961,0.047945432,-0.016383566,0.0342857,0.04843701,0.15572444,-0.14508075,-0.03472746,0.054237287,0.032451555,0.0005243218,-0.013563924,0.012518894,-0.09343102,0.046668295,-0.08883175,0.061957404,-0.042509556,0.05291826,0.0035278865,0.009348693,0.05215029,-0.028600655,0.048759896,-0.019183882,0.02043652,0.012661596,-0.0116748195,-0.012679696,0.028544078,0.014010256,-0.01096923,-0.012982416,0.074236706,-0.07274752,0.02868682,-0.014634704,-0.0867407,0.071169406,-0.022717549,-0.046256535,-0.011041288,0.06301192,0.03159868,-0.0755098,-0.0018067549,0.025417563,-0.12491162,0.03303089,0.006422863,-0.00065782416,0.033218596,-0.015380145,-0.021012168,0.016248992,0.047631267,0.025638858,-0.048101805,-0.0017494176,0.0018241471,-0.042977203,0.034397587,-0.053686094,0.0050381543,-0.02846307,-0.006256597,0.031877533,0.029147789,-0.0002353465,0.04176521,-0.006894388,0.004178431,0.011178929,0.00982663,-0.046854757,0.009104578,0.01482765,-0.0680746,0.05599148,-0.029173657,0.15939176
K,-0.029498463,0.05784929,0.0058231154,-0.2144415,0.030288124,0.111364864,0.05738929,0.019786976,-0.00880892,0.118233465,0.027676037,0.054805014,0.11004037,-0.20247635,-0.04458962,0.1136317,0.0024243393,0.124588184,0.16569598,0.051169053,0.05639537,-0.0143735865,0.0646365,0.055530373,0.010814762,-0.20046008,0.032416318,-0.023213172,0.03209724,0.024463778,-0.009259724,-0.09648593,-0.13445,0.014787941,-0.09962082,0.024864133,-0.03830259,0.09437571,-0.04655113,0.09662002,0.017086895,-0.008665867,0.023925895,-0.010701646,0.014168145,0.071789265,0.06776098,0.08258587,-0.00797538,-0.063783415,0.016575368,0.021184865,0.06950729,-0.07496356,0.06590303,0.012666745,0.011676164,-0.061760366,-0.0026655847,0.005317591,0.064659335,0.06606471,0.045642246,-0.09576569,0.041823015,0.0045555285,-0.30830503,0.13907866,0.06721837,-0.05087625,0.10192851,-0.07199611,-0.056148402,-0.020704411,0.11528016,-0.05336027,-0.12523459,0.11260927,0.009476931,-0.052959945,-0.019158915,-0.026599105,0.0022195359,-0.016304433,0.034885403,0.14033024,0.013706773,-0.038101994,0.110036284,-0.032726154,-0.0240605,-0.0917673,0.023755165,-0.10511671,0.0714628,0.02027785,-0.1689185,-0.00039191786,0.02549367,-0.008638933
M,-0.048696414,0.040652316,-0.019611556,-0.07081668,0.11152067,0.08023687,0.058124088,-0.21211733,-0.0383412,0.017092718,0.023615755,0.0025599413,0.0608964,-0.1200634,-0.061872054,0.006756598,-0.028027497,0.015564232,0.08106496,0.0063972026,0.029759947,0.068430714,-0.016993906,-0.048583936,0.15211128,-0.12645352,-0.02565007,0.064898595,0.024154397,0.014136132,0.04511885,0.026169289,-0.14994828,0.04902124,-0.1494403,0.077575944,-0.0070618805,0.07197766,-0.018976673,0.047902633,0.1309783,-0.041279174,0.061821718,0.004575859,0.02797296,0.023374472,-0.024644207,-0.024765914,-0.002455319,-0.036084235,0.012440009,0.0031346418,0.09065782,-0.1235608,0.06985375,0.014987119,-0.0852629,0.10122051,-0.019543605,-0.043526687,0.002473411,0.08271554,0.013928395,-0.12929341,0.085848,0.0066095553,-0.116646014,0.052322946,0.0037601371,-0.02248304,0.03908581,0.0030979307,-0.002249485,0.01989136,-0.0015859776,-0.004106481,-0.027822727,-0.032946996,-0.01880851,-0.08769221,0.030300666,-0.04087261,-0.05199382,0.014169373,0.021260498,0.07675998,-0.0093944715,-0.0048049134,-0.020985793,-0.0033907474,-0.03313627,0.0018634499,-0.052175153,-0.016039824,0.09134632,-0.032765184,-0.13324356,-0.033229038,-0.090283334,0.09908149
F,-0.04561768,0.055346005,0.008712047,-0.2290875,0.013297036,0.059441,-0.075738154,-0.04502415,-0.01220133,0.08437224,0.036114037,-0.001265794,0.11387618,-0.20360863,-0.108304195,0.060210522,-0.025419727,-0.036683213,0.030809753,-0.020489518,0.03277929,-0.030905494,0.06209451,0.001162158,0.19581917,-0.20006794,0.008106061,0.023299215,0.0127550205,0.019425865,0.027709842,-0.004984185,-0.12018109,0.07685193,-0.1489758,0.1156514,-0.034853123,0.06569542,-0.011782268,0.04846463,0.11559361,-0.04850085,0.07346179,-0.012474327,0.030688433,0.039932694,0.023567429,0.015957993,0.01465503,-0.02489293,0.004590399,-0.010627862,0.07236886,-0.09928762,0.054902058,0.0072425664,-0.06070041,0.06190623,-0.017130272,-0.030248644,0.020873208,0.04340198,0.0018436376,-0.060087945,0.07026967,-0.012715144,-0.04317986,0.039263774,-0.0098286,-0.011631673,0.02455868,-0.0064311866,-0.031448476,0.061806533,0.023977173,0.002683034,0.014950471,-0.0019390011,0.05995609,-0.10590936,0.07340549,0.0025035744,-0.052258987,0.0040287967,0.014065326,0.06985159,0.047237217,-0.01655523,0.11823707,-0.002238094,-0.027890133,-0.03317726,0.020614836,-0.10494556,0.017164351,-0.017051747,-0.1551547,-0.020418935,-0.015100212,0.040327877
P,-0.010613161,0.0034236866,-0.031221252,-0.2647983,0.080752686,0.18417597,0.05973873,-0.075409405,0.026123054,0.043570764,0.033093706,0.016795697,0.0142201055,-0.07372708,0.055330344,0.050807472,0.065720744,0.17605108,0.13439427,0.060518086,0.030436728,-0.020350289,0.06989541,0.008582485,0.19548202,-0.07055034,-0.004220137,0.040642876,0.042447664,0.0057238457,-0.09252391,-0.05083796,-0.06913052,0.0207163,0.07247915,0.0074059977,0.027872346,-0.014218715,-0.030928627,0.034915797,0.032188505,-0.036605116,-0.0006017303,-0.011896223,0.002437176,0.01507482,0.0062552625,0.0094995145,0.00036815283,-0.06085384,0.02381004,-0.018445848,0.014240808,-0.07805954,0.035534967,0.03444789,-0.057534177,0.07426548,-0.003254598,-0.0137052005,-0.036802262,0.005245074,0.05470454,-0.025240418,0.09382902,-0.015526217,-0.033600103,0.059650384,-0.0058834655,-0.007752859,0.059504475,-0.047006592,0.0042726765,0.006031464,0.054612834,-0.021774875,0.025694037,0.016369376,0.090144426,-0.143883,0.08808559,-0.027362673,-0.013013232,-0.04979884,-0.013900925,0.06066056,0.06867084,-0.054476757,0.09738303,-0.024527261,0.0067817178,0.12930542,0.019424068,-0.03256292,0.014924905,-0.05793526,-0.059981767,0.13792086,-0.30819437,0.25110105
S,-0.06391035,0.099492304,-0.0092334235,-0.23256692,-0.00015600225,0.095577955,0.0016973536,-0.0061999247,-0.0058355615,0.060541824,0.03839272,0.046422146,0.08449392,-0.14960556,-0.03549905,0.08994362,0.008393297,0.12359404,0.094654486,0.066581234,0.035394344,-0.041099712,0.078021504,0.0320148,0.076565884,-0.13790713,-0.050427847,0.048091732,0.03130342,-0.019181684,-0.034204647,-0.038598396,-0.11245191,-0.022226555,0.0068778237,-0.07632727,-0.02998826,0.11291188,-0.0072000367,0.057290956,0.019855494,-0.047379803,0.011344122,-0.033927288,-0.004889531,-0.0052877087,-0.029889338,-0.015976593,-0.0023611416,-0.03761124,0.0093950275,0.01597283,0.03673369,-0.06541161,0.042559475,0.016978608,-0.020732986,-0.01354792,-0.01009908,-0.015581371,-0.05881064,0.035805643,0.08922095,-0.1155823,0.07840663,0.029845579,-0.16842178,0.06201358,-0.05122937,0.015464451,0.028609091,0.0049596913,-0.016721308,0.011124131,0.07219696,0.036985427,0.034067616,0.07746979,0.17277917,-0.046344038,0.1291253,-0.1274122,-0.067062154,0.05668422,-0.043011747,-0.029862942,0.06976148,-0.05491079,0.112958826,0.0641235,-0.03172537,-0.032185633,0.06795696,-0.09988079,-0.046488613,-0.015164912,-0.15714769,0.023483573,-0.08727299,0.2206115
T,-0.031849284,0.040522568,0.047203146,-0.2616388,0.04938855,0.08686164,-0.017910138,-0.12680519,-0.019160576,0.033408023,0.033495046,0.0049961475,0.060634598,-0.106855884,-0.03364313,0.07078934,0.0042667724,0.12097238,0.11260389,0.055817112,0.055690203,-0.018618897,0.079321586,0.03170496,0.07428444,-0.121105246,0.004658826,0.016270453,-0.0040624053,0.013991733,-0.010515947,-0.027095914,-0.11952961,0.05074662,-0.067265645,0.05442816,-0.001306955,0.05500328,-0.0051307585,0.02270104,0.05781368,-0.011553382,0.015533289,0.011800009,0.028101014,0.035328887,0.0032846744,0.0116377855,-0.0088755675,-0.054083537,0.024681209,-0.007865408,0.020404529,-0.06456709,0.023674155,0.016983636,-0.03468799,0.017385336,0.0049533504,0.0011949217,-0.011226187,0.05902848,0.048539698,-0.059197385,0.14279029,0.03983599,-0.14591664,0.050304808,-0.0074569546,-0.011745171,0.03566841,0.013984579,-0.0031639354,0.02624522,0.04886518,0.022173716,0.033161193,-0.050854024,0.036601603,-0.12881123,0.10106866,-0.07146066,-0.051681478,0.007940709,-0.020496747,0.03279774,0.033942796,-0.037626754,0.053678107,-0.0126908375,0.020403694,0.016468069,0.022839265,0.010319667,-0.013212553,-0.08119381,-0.14490528,0.014462896,-0.109252274,0.13637204
W,-0.06553156,0.05244093,-0.01998247,-0.12770699,0.00067640434,0.0015650833,-0.044528197,-0.21385929,-0.03622248,0.055992547,0.022146633,-0.0061274865,0.098450065,-0.20887199,-0.09387524,0.06950786,-0.051338926,-0.044165637,-0.0013637235,-0.008420779,0.013874301,-0.027013123,0.004808209,-0.00026180258,0.20980917,-0.20745525,0.0251503,0.06287333,-0.08448734,0.0069575594,0.06917192,0.13398428,-0.05286518,0.09538225,-0.1781609,0.14029755,-0.0542731,-0.03517342,0.017950254,-0.06529675,0.00091387343,0.07011421,0.022425808,0.044644214,0.080003895,0.0916845,0.07253728,0.058600944,0.05948342,0.061280202,-0.032827508,-0.041354362,0.10662165,-0.08493324,0.04236986,-0.024002684,-0.11578542,0.17733821,-0.024109025,-0.056787346,0.03933828,0.016963266,0.006768176,-0.052108917,0.058818404,-0.03714581,0.02869022,-0.04954406,0.017846385,-0.0127038015,0.03795635,0.011325272,-0.0017613636,-0.0077084987,0.00968943,-0.03806227,-0.0006338026,-0.09627561,0.010514487,-0.094379,0.18663266,-0.025625685,-0.102954894,0.0061040656,0.028520226,0.06359514,0.08143508,-0.020430751,0.06764918,0.038894508,-0.003955898,0.029849377,0.015774077,-0.10617847,-0.05656614,0.045185786,0.12552242,-0.052370954,-0.09818244,0.08547666
Y,-0.022675332,0.070055865,-0.051991373,-0.13537978,0.034807485,0.05011823,0.000110727604,-0.0013554229,-0.009113311,0.119714946,0.055182803,0.037434004,0.13488536,-0.23611322,-0.08849953,0.11578798,-0.030533846,0.038357407,0.08818126,0.024147462,0.05133838,-0.038577985,0.082085274,0.018172586,0.1073015,-0.219329,0.0012601475,0.008092397,0.082558595,-0.0006331838,0.034444343,-0.03286824,-0.11157222,0.09074521,-0.16873924,0.13497142,-0.0316371,0.049043316,-0.035250712,0.07506468,0.09478247,-0.02719688,0.052550364,0.003413331,0.028439851,0.057755966,0.055002775,0.04242546,0.020607468,-0.04324694,0.0041055367,-0.00065583165,0.06440208,-0.044903837,0.043320175,-0.011430635,-0.04621415,0.024544887,-0.017240265,-0.02259441,0.0493968,0.055024236,-0.011710449,-0.0151497815,0.09257283,0.002767735,-0.06562952,0.09467802,0.044114962,-0.054740224,0.0026797242,-0.028076587,-0.039106764,0.068523146,-0.0014953404,-0.026490167,0.030135978,0.002164126,0.0027541618,-0.09798821,0.070200995,-0.0037984268,-0.06822434,0.0054336274,0.0051532765,0.049694184,0.0069379937,-0.0035000434,0.060249936,-0.021196198,-0.03216164,-0.047411207,0.028519653,-0.031669434,-0.024033925,-0.054915875,-0.18420476,0.022887627,-0.056009095,-0.003030898
V,-0.04560165,0.10289752,0.0045942147,-0.20539387,0.044366334,0.051787913,0.0110880975,-0.14452378,-0.009221721,0.042417645,0.01631604,0.013010073,0.059556447,-0.18860331,-0.024294332,0.021711046,0.0012668063,0.06568783,0.042772993,0.038404737,0.0220507,0.031129982,0.007136968,-0.013445852,0.14184323,-0.086230345,-0.0069150412,0.034376223,0.009079715,0.029758232,0.023070097,0.032960348,-0.15034108,0.040082894,-0.09994745,0.048192546,-0.026234057,0.015721777,-0.013495538,0.03229229,0.039936397,-0.017241001,0.032371875,-0.009094733,0.016240919,0.028595302,0.0063473005,0.00069343945,0.025066618,-0.0048017497,-0.009546552,-0.0010083562,0.058725208,-0.031036144,0.0014652577,-0.028941529,-0.039036807,0.025821635,-0.01476147,-0.029121406,0.015512019,0.043610126,0.001499528,-0.14223555,0.031251047,0.00743157,-0.07903951,0.0422048,0.017594874,-0.02674958,0.018930636,0.029031325,-0.0043300013,0.03728532,0.0428458,0.047546644,-0.04078856,-0.041824237,-0.0017947714,-0.058564212,0.046408784,-0.085734665,0.023779856,-0.03956798,0.004575539,0.08047904,0.034007765,-0.014032536,0.07719869,-0.014462401,0.026995702,0.045344997,0.04312896,0.0063388185,-0.028974539,-0.010062663,-0.032662664,0.062256422,-0.14391968,0.10068322
