A,0.1696674,-0.21737887,-0.027832473,0.06316992,-0.019576775,0.015348349,-0.33037868,0.15465158,-0.0321569,0.027434688,0.078951165,-0.0401751,0.02107466,-0.02119325,-0.13859072,0.1566304,-0.13839886,-0.524126,-0.12062097,0.051117804,0.09412769,-0.0024599715,-0.22664782,-0.0049930476,-0.057480525,-0.41491017,-0.010050319,-0.0138963,-0.21978877,0.083473586,-0.20767367,0.277622,-0.07324893,0.09383789,-0.11526841,0.1759495,0.08378384,-0.007576357,0.011982749,-0.032001827,0.04822617,0.43886924,-0.22955728,0.38427556,0.12502994,-0.26482964,-0.19261697,-0.23093665,-0.7480232,0.36547267,-0.28429508,0.27778134,-0.016693437,-0.03201803,0.026492542,0.012183659,0.085219726,0.1739353,-0.05932375,-0.027800879,-0.066661395,-0.0034069354,0.057272024,0.058049817,-0.026073968,0.00793797,0.017190805,0.01299401,-0.016870312,-0.046824444,-0.0073745917,0.022152754,0.0011661116,-0.028963964,0.011882618,0.009322586,-0.059305236,-0.033764374,-0.05082087,0.0145128155,-0.05776071,-0.018471126,0.011926222,-0.03760579,0.017678095,0.045713585,0.011263678,-0.012372818,-0.013770104,0.03622556,0.019582534,-0.032184146,-0.04385663,-0.046109546,-0.001688039,-0.0808803,-0.010465595,0.08576548,-0.0430967,-0.027692933
R,0.20027408,-0.24514116,-0.009991693,0.04992152,-0.088355936,-0.012016453,-0.3759288,0.034097947,0.04102433,-0.026999999,-0.042963285,-0.0045065843,-0.040674217,0.025235863,-0.2539262,0.18963817,-0.05785317,-0.44946897,-0.09617915,0.07340147,0.09749775,-0.0077796485,-0.18876232,-0.0017375142,-0.03236174,-0.38908586,0.0012254973,-0.01792201,-0.10113356,0.09267733,-0.21219634,0.24822104,-0.17053185,0.09571948,-0.17388986,0.35195705,0.13306181,-0.01756912,0.056470037,-0.056573056,0.041380774,0.4343356,-0.23998986,0.40237045,0.11377052,-0.22770043,-0.13795115,-0.22524929,-0.7201615,0.35307896,-0.2878303,0.2843772,0.002509217,-0.05392957,0.06713243,0.04999961,0.09716853,0.11654401,-0.050669696,-0.016693085,-0.061281838,0.0012359292,0.057367593,0.05322922,-0.049343113,-0.005640538,-0.027560102,0.08135887,-0.031282946,-0.049418297,-0.016765535,0.003863721,-0.021301366,0.0021669106,0.012830193,-0.011315856,-0.06789824,-0.058402374,-0.06005632,0.0061804797,-0.08389535,-0.016982654,-0.017813817,-0.043363616,0.021762118,0.0067472286,0.0093646655,0.024146352,-0.019815886,0.07262994,0.023994094,-0.061033346,0.011512918,-0.028492197,-0.0039137914,-0.010021931,-0.06632209,0.017058684,-0.024400236,-0.07501446
N,0.06917619,-0.085945636,0.019335834,0.060401212,0.006964925,0.068370074,-0.14227286,0.12148885,-0.0029014838,0.010180507,0.03788376,-0.1210662,0.07715754,-0.08416072,-0.103331,0.22187151,-0.10932951,-0.47072738,-0.11722427,0.036034368,0.06782277,0.043185435,-0.2182904,-0.040848628,-0.09040291,-0.30526823,-0.063069254,0.0048749633,-0.05704609,0.14801446,-0.23770966,0.2822133,-0.019347643,0.15777981,-0.2819085,0.15778248,0.16323073,-0.073357984,0.1387715,-0.16163561,0.05723966,0.4214863,-0.3017481,0.47270638,0.102193296,-0.29414394,0.14655596,-0.35197887,-0.694923,0.35718194,-0.2618123,0.2822906,-0.05302674,0.032892164,0.09088845,-0.10602168,0.13301809,0.16368316,-0.104893476,0.036749072,-0.07399959,0.053526703,0.09240231,0.097453296,0.021492817,-0.005057545,-0.03729925,-0.005792895,0.04126955,0.05281706,0.008739332,-0.021335308,0.012932448,0.019956559,-0.006704502,0.0037132355,0.014745582,0.007948252,0.015884638,-0.022526138,0.11135279,0.030866927,-0.01638267,0.021605343,-0.022408357,0.062775396,0.026419658,0.015630292,0.004321359,0.024015795,0.00035565233,-0.011643389,0.042278923,0.026396284,-0.0019372483,0.009842533,-0.021872431,0.022774944,-0.004937312,-0.022509834
D,0.12122128,-0.19312136,0.032520674,0.06765082,-0.03884784,-0.0026998662,-0.17513175,0.057883564,0.025545215,0.0025272637,0.054130122,-0.042554338,0.07159902,-0.06534133,-0.14468175,0.21781997,-0.13327488,-0.47355875,-0.12843266,0.024242,0.04508725,-0.03433298,-0.15385261,-0.0307917,-0.03834187,-0.36859736,-0.0032746068,-0.10237229,-0.06302926,0.09314063,-0.16761424,0.23271172,-0.10614595,0.09385543,-0.13958773,0.22547081,0.13672306,-0.063762486,0.06969048,-0.08814471,0.0718609,0.45457932,-0.3023899,0.45442557,0.10797543,-0.2514042,-0.02517594,-0.23764293,-0.6863132,0.33617306,-0.25852534,0.3094019,-0.028978366,0.013718429,0.06866814,-0.038977936,0.104456365,0.14849937,-0.08196286,0.0007412304,-0.08267471,0.034431603,0.093966,0.078387156,-0.024344066,-0.00021845345,0.015979283,0.007589441,0.0004714661,-0.025286967,0.011023934,0.06460574,0.0035550343,0.0008021731,0.0017287569,0.015724702,-0.048216004,-0.035710774,-0.04638934,-0.0016500744,-0.036653515,-0.005964868,-0.0017164852,-0.033115767,-0.012147753,0.059991647,0.012310811,-0.032851666,-0.0077644433,0.03475009,0.013319356,-0.010954209,-0.020617593,-0.02503572,-0.011672169,-0.009425597,-0.00015570481,0.05029391,0.084386215,-0.074225575
C,0.060021885,-0.12656368,-0.06587586,0.09940875,0.04386237,0.14991808,-0.38047698,0.20820002,0.01743655,0.016427888,-0.07234636,-0.053945452,-0.00601663,0.041874215,-0.18642537,0.2070289,0.06395917,-0.4340137,-0.05620862,0.19163923,0.085768625,0.0144209275,-0.028114116,-0.038101077,0.01879167,-0.208659,-0.05783639,-0.028717779,-0.005368446,0.1502319,-0.33897766,0.3283881,-0.19531816,0.14850146,-0.27447718,0.43357378,0.17839327,-0.052374702,0.06025319,-0.12867935,0.06855066,0.38357434,-0.20503503,0.24605347,0.08512038,-0.16739956,0.07997741,-0.19653977,-0.7824721,0.38097072,-0.27723244,0.35604593,-0.023602733,-0.05054339,0.022736542,0.015026159,0.06203676,0.041896857,-0.025793627,-0.012135964,-0.00059369503,0.05298473,0.04010928,0.012964942,0.019529836,-0.02788348,-0.05060661,0.021567237,0.014142389,-0.026133556,-0.0985179,-0.1061922,-0.016732236,-0.032403342,0.04791178,0.0182365,0.0017585662,0.029868992,0.057478826,-0.0849791,0.009839701,-0.0076820916,0.080334425,0.042855136,0.02317468,-0.103645585,-0.047432303,0.02259296,0.02015116,-0.04384397,-0.029485462,0.09641084,-0.050495755,-0.008616268,-0.03672587,0.09776103,-0.004351594,-0.027719136,-0.12653035,-0.020418605
Q,0.14316595,-0.20214687,-0.010174885,0.044950698,0.046462927,0.17014892,-0.2585627,0.06503638,0.010082483,0.02470976,0.05069639,-0.024352495,-0.04345361,-0.014689698,-0.14467159,0.11817534,-0.13537143,-0.4970127,-0.103810385,0.011053205,0.07881787,0.021942012,-0.2807571,0.034057856,-0.05443766,-0.36380666,-0.041579243,-0.124734744,-0.0673643,0.12615462,-0.15797949,0.20719121,-0.046350047,0.14078723,-0.21936457,0.18826985,0.15781584,-0.039831847,0.07175888,-0.108688064,0.06393425,0.455058,-0.2945777,0.43482703,0.13682795,-0.32881504,-0.09901886,-0.3333224,-0.76574445,0.3811476,-0.29321682,0.2911242,-0.04954135,-0.09433315,-0.02563511,0.02801826,0.0569414,0.25531137,-0.075901374,-0.082027964,-0.075412035,-0.007104935,0.11667195,0.036832914,-0.003407067,-0.0069351336,0.011685163,0.0037639746,-0.0022960086,-0.04087852,-0.10427158,-0.09107743,-0.0076400377,0.0247337,0.027959084,0.049098846,-0.0054143984,-0.0013550402,-0.02791287,0.03761328,0.07225711,0.0072487984,0.056305252,0.0027620355,0.013889911,-0.005958946,-0.01020336,0.023420427,0.0023522286,-0.0019324566,-0.0020514773,0.013780912,-0.0747811,-0.051440027,-0.008237304,-0.106049,-0.034646958,0.028190099,0.030079473,0.08973829
E,0.13178311,-0.16973186,0.0019017189,0.07428994,-0.057740245,-0.010116055,-0.18561564,0.058535166,0.05063075,-0.013211859,0.020471217,-0.06669051,0.05592096,-0.05337282,-0.15344496,0.20593807,-0.1363864,-0.45489222,-0.115082674,0.00030562514,0.047437724,-0.020457331,-0.20076455,-0.008800002,-0.039776422,-0.36886922,-0.03177669,-0.08293864,-0.1018129,0.08780875,-0.17677855,0.2368669,-0.12370166,0.10792707,-0.17877653,0.29940352,0.18074295,-0.06405422,0.091281995,-0.0951009,0.068566054,0.48330167,-0.29342994,0.43676892,0.10735359,-0.25627285,0.0098337205,-0.25962204,-0.7341711,0.37031972,-0.28297445,0.3004013,0.006165541,-0.023231009,-0.0062465174,0.034570236,0.087013215,0.14683063,-0.06386115,-0.017922904,-0.05278291,-0.00016947703,0.05694015,0.040784884,-0.023852006,0.014115337,0.007711974,0.024860503,-0.0068351757,-0.03100677,-0.02152518,0.018992573,-0.011155251,0.026422316,1.7581779e-05,0.0016960225,-0.04127365,-0.019651176,-0.035955112,0.027171042,-0.085602604,-0.023198763,0.05604454,-0.014590248,0.008958413,-0.029620184,0.0010352217,0.00018942343,-0.0009785484,-0.015625944,0.008043944,-0.0024259603,-0.096683,-0.050137036,-0.013340053,-0.038876634,-0.012889607,-0.005998194,0.023729868,-0.0074373824
G,0.15796632,-0.18355894,-0.039148133,0.108496375,-0.027428325,0.039959714,-0.32949218,0.21981965,-0.04071047,0.015419286,0.050260495,-0.021726921,-0.027771575,-0.012246524,-0.18630418,0.21183732,-0.094873354,-0.50186795,-0.09549623,0.10224906,0.07141648,-0.004165617,-0.14124599,-0.05337641,-0.058373746,-0.37366423,-0.018675515,-0.01634996,-0.16775538,0.09522491,-0.23983341,0.30924338,-0.11532741,0.10938029,-0.1610106,0.25970826,0.12777369,-0.031998094,0.040439155,-0.050136242,0.041742492,0.44016156,-0.2077075,0.35859326,0.0863888,-0.18415244,-0.13045423,-0.16068898,-0.7543045,0.36647555,-0.27856827,0.30498666,-0.021634972,-0.0037122506,0.07826175,-0.027872082,0.12589855,0.15322648,-0.07749829,0.0051067015,-0.07288128,0.0302494,0.07845642,0.07635651,-0.017278783,-0.0015041471,0.016499452,0.0085386075,0.0022004542,-0.019535633,0.006522036,0.045978837,-0.00043696293,0.030158175,-0.0008668252,-0.0001778611,-0.008377962,-0.03348555,-0.020846294,0.0043724743,-0.01684158,0.0058378316,-0.06317264,-0.03329728,0.0134038525,0.010871155,0.019314073,-0.0107538095,-0.023716029,0.03780842,0.007708864,-0.021295378,-0.025469238,-0.06309923,0.009304072,-0.06342609,0.00744786,0.0021484613,-0.08966594,0.0025977332
H,0.15568668,-0.27567202,0.0036882595,0.044488955,0.020638388,0.117999524,-0.44221,0.13540089,0.09708602,-0.00475669,-0.07777977,-0.080555506,0.018962987,0.0068420195,-0.14999948,0.1320621,-0.026521796,-0.34103376,-0.026545722,0.0876913,0.043981142,-0.044549372,-0.16312014,-0.027135246,-0.014021529,-0.35725197,-0.08580437,-0.05153149,-0.07946148,0.16048779,-0.25128916,0.3171159,-0.16362227,0.092441045,-0.15057996,0.3843392,0.107960865,-0.036660273,0.030176666,-0.09216804,0.10356128,0.4226936,-0.29294717,0.32398584,0.13403332,-0.24567689,0.088793896,-0.25625965,-0.7896121,0.398235,-0.301788,0.32984704,-0.05054744,-0.03401798,0.05665991,-0.023249324,0.051920094,0.11422606,-0.036553133,-0.046056215,-0.03506742,0.0064885793,0.055150993,0.01785807,-0.012673789,-0.0070884456,-0.053708933,0.048243318,0.021179141,-0.015458457,-0.060706556,-0.05894317,-0.015236034,0.010877525,0.027905775,0.03044529,-0.02488983,-0.029242462,-0.015299522,-0.020050868,0.022666622,-0.008397761,0.052921556,0.009246032,-0.021355627,0.0010547874,-0.00093779416,0.016632289,0.017381355,-0.024639366,-0.011556018,0.046159692,-0.08356992,-0.01769609,-0.03329715,0.039500467,-0.02745566,-0.030765712,-0.13099815,-0.03777701
I,0.106621064,-0.15360016,-0.03093217,0.083488464,0.0005185772,0.05054052,-0.244718,0.20697433,-0.015330182,0.01226139,0.038856126,-0.019251714,0.05320857,-0.024359427,-0.11298047,0.17459723,-0.08824703,-0.43544862,-0.0848241,0.06741119,0.089748256,0.040040214,-0.15076348,-0.005557575,-0.04072751,-0.32396123,-0.019112473,-0.057481546,-0.09964082,0.13814645,-0.23652858,0.31057772,-0.06409659,0.09231739,-0.1631412,0.16884568,0.19597438,-0.068140246,0.10446239,-0.13386711,0.04491369,0.491753,-0.23950832,0.41529083,0.10393207,-0.3112259,0.07516146,-0.32129067,-0.72779095,0.36053085,-0.2675423,0.28660625,-0.07572234,0.05824869,0.12511347,-0.14473101,0.07421833,0.12104916,-0.050113227,-0.0024408745,-0.059882116,0.03562125,0.06553879,0.06847681,0.007340364,0.0011985131,0.005303375,-0.009218624,-0.02376744,-0.03305592,-0.029817851,-0.049620144,0.010840614,-0.018180532,0.012227297,0.020697994,-0.040428482,-0.006689053,-0.011244642,-0.029470643,-0.014551878,-0.00760051,0.023158357,-0.0072069704,0.012088258,-0.017199852,-0.03447693,-0.028046222,0.00023263085,0.0053009978,0.012255233,-0.015039325,0.026188198,-0.021274291,-0.004876111,-0.031459674,0.0037405603,0.013297741,-0.02630338,-0.005061021
L,0.13539577,-0.17378569,-0.025750663,0.057936255,-0.06823484,-0.015413515,-0.29884243,0.12574248,0.011010588,0.019289771,0.04728483,0.010925791,0.012505496,-0.00600721,-0.13569036,0.12173612,-0.09578262,-0.43924028,-0.08379918,0.058317166,0.11100806,0.025375247,-0.19439352,0.015001452,-0.046268027,-0.436547,0.0024991224,-0.04353803,-0.116378315,0.12262435,-0.23672168,0.27953944,-0.0780695,0.0738734,-0.12493796,0.15774864,0.16251229,-0.04725269,0.069064476,-0.07835987,0.038768094,0.45655015,-0.23299295,0.41309974,0.119224355,-0.32021737,-0.08137724,-0.30611116,-0.7058587,0.3422742,-0.2708071,0.28704715,-0.033778287,-0.0007566559,0.058335207,-0.030840186,0.054200806,0.11031072,-0.039871857,-0.019795736,-0.07065854,0.022944495,0.07257653,0.0691092,-0.01776944,-0.008096721,-0.022089629,0.038137965,-0.040233936,-0.059392117,-0.0336879,-0.046498068,0.006005909,-0.036492288,0.011811404,0.008431659,-0.069549024,-0.015420803,-0.041646898,-0.0011716001,-0.055987414,-0.019971557,0.040193513,-0.026287595,0.01563386,0.017233444,-0.022675037,-0.019274121,0.0007439222,0.047349814,0.019186115,-0.028635459,0.005217797,-0.04364089,-0.020744992,-0.016531743,-0.021229053,0.07287121,-0.015440955,0.014523511
K,0.070545696,-0.124406196,-0.0039013713,0.08760617,-0.0006927836,0.063676685,-0.20657702,0.14863847,0.031080741,-0.0047781155,-0.009565584,-0.027398234,0.039947677,-0.027876131,-0.11007992,0.17452769,-0.077861354,-0.45500058,-0.09697782,0.058538634,0.051415473,0.014287839,-0.14609317,-0.02084292,-0.032799687,-0.34781054,-0.0652286,-0.0873702,-0.0063353423,0.1187933,-0.2103163,0.27000093,-0.11562111,0.1368726,-0.23696838,0.31607202,0.20807497,-0.074047096,0.09755116,-0.13641773,0.072414935,0.51279247,-0.27312487,0.3959315,0.097187065,-0.27736008,0.15594174,-0.30176264,-0.7469359,0.37304616,-0.267829,0.3148937,-0.021015588,0.02598246,0.0012216468,-0.03998305,0.083235525,0.115173556,-0.05032905,-0.0038941335,-0.02376923,0.015890934,0.03306798,0.018552301,0.003628447,0.02393921,0.0019819613,0.002324403,-0.004714648,-0.02516103,-0.026027542,-0.019164372,-0.002211499,0.004339896,0.0020052092,-0.0026387312,-6.6234126e-05,0.034701966,0.019914838,0.02691068,-0.03820174,-0.013399695,0.036020346,0.0024430605,0.02452416,-0.04619828,-0.019712115,0.004668866,0.021750715,-0.03882506,0.0063475557,0.014929215,-0.019436087,0.041754834,-0.009092739,0.014712814,0.004439327,0.0050563803,-0.011125279,0.04153075
M,0.12851007,-0.15941401,-0.00044543305,0.06864697,-0.06461609,-0.012977106,-0.25822693,0.21530426,-1.7865634e-05,0.011945728,0.07685227,-0.004087945,0.017019562,-0.008305477,-0.12951982,0.139808,-0.14696684,-0.49548066,-0.0685809,0.062604085,0.10817838,0.031535972,-0.18807244,0.020726629,-0.02769506,-0.37092078,0.0063832775,-0.063803315,-0.1643063,0.09370463,-0.18573949,0.2752387,-0.039085172,0.09430309,-0.14387769,0.111002065,0.16979516,-0.050687067,0.077701226,-0.06263935,0.025420427,0.42836544,-0.2012676,0.39364275,0.12412607,-0.34879652,-0.11767426,-0.32203373,-0.72100616,0.35089704,-0.26936102,0.27847114,-0.076306455,0.045621052,0.106340684,-0.13144383,0.016459335,0.08246655,-0.020887421,-0.01062976,-0.08440479,0.031576943,0.083863035,0.08839933,0.012832292,-0.017774453,0.015822481,-0.015380313,-0.035887204,-0.03917151,-0.024183799,-0.048155524,0.019507984,-0.0026546367,0.0039837942,0.028580396,-0.05490672,-0.006702384,-0.03631888,-0.00042403964,-0.04633564,-0.02751685,0.07304358,-0.0035050747,0.010725145,-0.0012541717,-0.03980509,-0.045482088,-0.02327933,0.012439706,0.0043497025,-0.012754161,-0.02527813,-0.10933673,-0.030184407,-0.090663485,0.039986268,-0.023159642,-0.04781447,0.022412984
F,0.09231651,-0.16515034,-0.06611206,0.14656533,-0.027876567,0.030994242,-0.31925493,0.20851092,-0.03071894,0.017360546,0.010407845,0.036697954,-0.029527932,0.03368643,-0.15148142,0.12561345,-0.049610108,-0.43230894,-0.05971242,0.109371185,0.106043644,0.0050225398,-0.14114213,0.0049742325,-0.057177648,-0.4229797,-0.018583426,-0.02361939,-0.07320512,0.08339018,-0.2346395,0.26050845,-0.12773016,0.07737971,-0.13992286,0.23047481,0.1879254,-0.049416553,0.06778606,-0.09084484,0.0501583,0.4932698,-0.22533587,0.3662675,0.11954523,-0.31488207,0.0021876746,-0.31427324,-0.7200115,0.3421949,-0.2588701,0.31578338,-0.08431206,0.032496024,0.12541601,-0.11607942,0.07534551,0.09167818,-0.047053773,-0.011067816,-0.06270093,0.042214636,0.079272695,0.05995587,0.008150077,-0.03038571,-0.01340244,0.008196876,-0.02370988,-0.05731774,-0.049535856,-0.06036034,0.0029860192,-0.055890948,0.02989461,0.018692352,-0.041496232,0.0013666959,0.00249897,-0.057842456,-0.013599403,-0.004633266,0.030572152,-0.004105618,0.019069677,-0.0111199245,-0.043963987,-0.024997158,0.0012005845,0.022417175,0.0048960824,-0.0005859646,0.0382808,0.0072126295,-0.005590445,0.028166218,0.014796575,0.0055402955,-0.10469323,0.019435113
P,0.12987287,-0.15461586,-0.07055529,0.10094576,-0.041113645,-0.044363152,-0.27722508,0.16783889,-0.008911164,0.03010089,0.03381608,-0.038645748,0.007539733,-0.009649589,-0.13230616,0.10467109,-0.15747556,-0.5321788,-0.11551411,0.0047629145,0.06392276,-0.04262227,-0.30137607,0.025272192,-0.016750026,-0.45440066,-0.043451104,-0.010760089,-0.18532926,0.10084655,-0.110080525,0.23850669,-0.124236286,0.09868787,-0.16182221,0.3098282,0.1109938,-0.0070412233,0.024589147,-0.06364854,0.068858564,0.29036552,-0.2071677,0.23201443,0.15030357,-0.2764359,-0.20214786,-0.26249593,-0.784985,0.39688525,-0.32402244,0.2876406,-0.026519591,-0.09359057,0.040768947,0.04327752,0.12337239,0.22455414,-0.09374531,-0.03759001,-0.055583555,0.037739873,0.077121325,0.06367381,-0.01192556,0.008850587,-0.027485024,0.03175195,0.012667101,-0.006297165,-0.027874885,-0.042082317,-0.00022533878,-0.004978347,0.0033270947,0.009493801,0.017798463,-0.008553696,-0.017162174,0.049898133,0.06404193,0.00806128,0.025089553,-0.0082841115,-0.009644827,0.07619406,0.025098696,0.035604008,0.01591501,0.019202925,0.009245721,-0.017282147,-0.04090853,0.05892379,0.044773817,-0.08697785,-0.04596405,0.018217016,0.007403814,-0.08475315
S,0.06949593,-0.06180129,-0.08890788,0.07272726,-0.027060818,-0.015763825,-0.29847687,0.20861372,-0.03341832,0.03918825,0.026713973,-0.033901844,0.00670469,-0.0069838823,-0.108477555,0.11000063,-0.08202964,-0.44707713,-0.07897899,0.08187379,0.06161411,-0.029893387,-0.17137894,-0.035740186,-0.023569789,-0.3676605,-0.012871312,-0.018353533,-0.064626016,0.12820524,-0.20652437,0.24843013,-0.10747455,0.11324802,-0.21177098,0.23408635,0.12664583,-0.029281756,0.044513863,-0.099035494,0.059612114,0.4259202,-0.23753487,0.35447282,0.123528965,-0.30553657,-0.005842588,-0.3223118,-0.7365598,0.36502695,-0.287117,0.2983283,0.020246457,-0.055415507,0.010295252,0.060759157,0.19833575,0.19542287,-0.12780377,0.042467292,-0.0721622,0.08832265,0.09245677,0.11338831,-0.0021727749,0.010809784,-0.04664101,0.02884413,0.02148513,0.013814408,0.006061878,-0.013097924,0.0038769012,-0.007906368,-0.0047907797,-0.010042062,0.011163863,0.014812068,-0.0020136745,0.043635484,0.03612511,0.0065562627,0.006078096,-0.011417493,0.00519097,0.055685572,0.024495764,0.03980544,0.040543295,0.014066638,0.013531177,0.0002933459,0.026645863,0.071588054,-0.0013365347,0.053757217,-0.036017343,0.08571748,0.07317186,-0.096345976
T,0.10740184,-0.1643694,-0.046444744,0.06444489,0.03326829,0.02779771,-0.29980338,0.22420602,-0.025420832,0.046042662,0.05558228,-0.08160854,0.08199825,-0.04334436,-0.09724224,0.16705279,-0.08976804,-0.43934777,-0.07786197,0.06428254,0.068926476,0.0006561541,-0.18544397,0.0025651404,0.008294453,-0.32864243,-0.067868315,0.03574689,-0.13841298,0.124939844,-0.17550449,0.29847464,-0.07123537,0.13820069,-0.21451762,0.2003984,0.1700438,-0.060961198,0.068697795,-0.16226381,0.08639632,0.46688047,-0.27686268,0.3766922,0.12914123,-0.2671568,-0.033451967,-0.2539917,-0.7802257,0.3945949,-0.29747632,0.29781738,-0.026783312,-0.01436623,0.0051149474,-0.019558739,0.12191908,0.20098789,-0.09181884,0.00011124448,-0.044250853,0.04057199,0.05533692,0.051179286,-0.015219018,0.026667489,-0.022273865,0.014631399,0.017804665,-0.02658685,-0.017421898,0.0037291055,0.011432086,-0.022880677,0.003573923,0.019823318,-0.011338372,0.0022421593,-0.017458504,0.03783967,0.021152053,-0.0038876475,0.03228142,-0.020104608,0.0022777787,0.088967994,0.012532939,0.012060085,0.044558566,-0.0026138977,0.012724751,0.025856085,-0.029024562,0.06944897,-0.012450408,0.009681304,-0.00023856778,0.109375,-0.014611329,-0.00054743164
W,0.10415588,-0.17303818,-0.041682553,0.06532383,-0.07259347,0.033399038,-0.39684123,0.16852659,0.07053853,-0.011658929,0.02265967,0.097137116,-0.016762264,-0.027174134,-0.14584981,0.12564833,-0.09108421,-0.39365953,-0.084299386,0.06315022,0.14304636,0.07093037,-0.18790345,0.02449814,-0.12049104,-0.4407631,0.049437813,0.046468157,-0.06591677,0.10487155,-0.30340824,0.24041389,-0.093417056,0.056282826,-0.07539213,0.20121844,0.18023454,-0.0662433,0.057826675,-0.052053504,0.050643466,0.4077092,-0.2331003,0.37546277,0.103383616,-0.29908836,-0.21852495,-0.2555021,-0.6815728,0.3257447,-0.2536432,0.29559737,-0.06040283,0.06699578,0.064529955,-0.10546169,0.09135198,0.17131315,-0.0702317,-0.013713176,-0.088779025,0.021966469,0.09104482,0.08868536,-0.019647295,0.011311929,0.021328446,0.006719368,-0.04407132,-0.08389546,-0.021722708,0.03074987,0.0003387567,-0.059171747,-0.0012299877,-0.0031231535,-0.094655894,-0.018458683,-0.05721791,-0.02636561,-0.13058841,-0.007110134,-0.00485198,-0.056524515,0.036219664,-0.053249273,-0.052442286,-0.08733837,0.019815437,0.0042056544,0.047706928,-0.012928462,0.03571619,-0.023276892,-0.024394022,0.024942216,-0.0018577274,0.069611,-0.005246123,0.08330576
Y,0.09335619,-0.1751514,-0.015875252,0.10456642,-0.02019515,0.07080998,-0.31539544,0.1502911,0.02782234,-0.021087645,-0.031283516,0.05204899,-0.01968289,-0.015660964,-0.16790889,0.17827503,-0.087851815,-0.4536743,-0.08385981,0.064976834,0.0480756,-0.018490322,-0.17498003,0.0017973374,-0.075497754,-0.36723125,-0.03438526,-0.0067266845,-0.054338194,0.10130968,-0.19349661,0.23074163,-0.10225693,0.107477255,-0.20093,0.26994,0.2090573,-0.08085607,0.11761525,-0.13883528,0.06472364,0.4416067,-0.26906958,0.39117658,0.104682304,-0.2755435,0.050821554,-0.2860102,-0.7305196,0.36423698,-0.27788424,0.3240269,-0.07980676,0.019951448,0.14051983,-0.11046223,0.065030776,0.11121031,-0.05265558,-0.024327887,-0.0344461,0.03530222,0.047008958,0.039908037,-0.01748551,-0.01250003,-0.036347274,0.024922768,0.038924523,-0.015509714,-0.017188717,0.023861079,0.010503577,-0.014037201,0.007813793,0.029407933,-0.019451378,-0.023531614,-0.0010916437,-0.06283157,0.019744579,0.012230781,0.04096871,-0.0011728226,0.00087428314,0.0260321,-0.022184081,-0.02415874,0.022235878,0.035503667,0.011699379,0.008550285,0.053553015,0.05392544,-0.012848501,0.056890156,0.034058616,0.021597635,-0.0964501,0.028711086
V,0.14186731,-0.16349573,-0.051638644,0.07242001,-0.032580275,0.010526782,-0.28707713,0.19081841,0.013893377,0.021304093,0.06121782,-0.07680109,0.034882676,-0.017206125,-0.14562257,0.1806302,-0.093797125,-0.4529715,-0.097368814,0.053995527,0.10168478,0.030187676,-0.18487258,0.0172483,-0.043938454,-0.36315754,0.0019023734,-0.010809546,-0.19176641,0.08235949,-0.18320857,0.28046235,-0.081081174,0.07189462,-0.09713944,0.16241021,0.15538633,-0.045969907,0.048721384,-0.061463565,0.044840906,0.503422,-0.22734328,0.40025368,0.09543479,-0.26137584,-0.06833592,-0.23152028,-0.7576483,0.3689573,-0.27947676,0.29904535,-0.030900124,0.0181746,0.06582743,-0.047019005,0.10306838,0.17038508,-0.07102049,-0.012757092,-0.069755755,0.022264402,0.07266341,0.06946741,-0.019695478,0.008592451,0.02161917,0.0034622015,-0.021210825,-0.04677128,-0.024140552,0.0057163974,0.0062093516,-0.007926558,0.008786104,0.017694345,-0.040217094,-0.022276493,-0.033167627,0.0043368996,-0.03826713,-0.010923355,0.001006318,-0.03198327,0.011931137,0.015707947,-0.011677899,-0.023888055,-0.0016639786,0.013631497,0.009433823,0.0066885413,-0.024626723,-0.060602214,-0.014556193,-0.045817804,0.011076743,0.06485827,0.041467227,-0.015244916
