A,0.06417642,-0.047578722,-0.061625607,-0.117994234,0.013752022,0.08544125,0.035245776,0.037021395,0.0013483864,0.004223554,0.0063324543,-0.007559216,0.050923396,-0.11310006,-0.13618992,-0.047491834,0.022574812,-0.0011262955,-0.122405685,-0.03419336,-0.051349003,-0.03157311,0.030507648,0.04815526,-0.026420237,0.009950437,0.0028303857,-0.015075827,0.090359874,-0.39844146,-0.4115192,0.26594138,0.009607412,-0.03835021,-0.02492747,0.029377101,0.011835351,-0.0018383429,0.0002320693,0.015491317,0.017380295,-0.031766783,-0.08225246,-0.03298261,0.001675869,0.014638171,-0.0078492,0.0030295432,0.018132789,-0.010813491,0.0047579035,-0.014680398,0.017429192,0.0025644982,-0.03084373,-0.0078075156,-0.015185246,0.020680979,-0.01195513,-0.033137664,-0.053159583,0.042745795,0.017197741,-0.064306706,-0.03145954,-0.004373708,-0.0118335355,-0.07080697,0.0034199296,0.04717337,0.040581558,-0.034425385,0.022215433,-0.002637565,-0.0022164055,0.020451643,-0.04775124,0.009482524,-0.004332979,-0.001494128,0.0165967,0.021563634,-0.00074150803,-0.023146227,0.020166157,0.004957996,-0.018461142,0.016776746,-0.011293785,0.036647007,0.087938465,-0.018750854,-0.02265934,-0.0061108405,-0.0013071541,-0.01692372,-0.0021886774,0.0059447945,0.025900742,0.010288009,0.033095587,0.03863178,0.041606415,0.008146253,-0.06320849,-0.020051565,0.0073410054,-0.0012652731,-0.0056051216,0.016940333,0.0024742042,0.019538194,0.033767194,0.006083911,0.009110244,-0.010559202,0.013099304,-0.04341453,-0.014141303,-0.0045966725,0.01309337,0.026470847,0.0062000826,0.00569933,-0.005202714,0.01810096,-0.0055202725,0.023081472,0.0009795628,-0.001820609,-0.009862877,-0.0049793418,0.0041464665,-0.005855127,0.0041940482,-0.004561834,0.008760908,0.026846088,0.00096633856,0.0043912153,-0.021104293,0.02025387,-0.068811476,0.010792593,-0.019405462,-0.006774923,-0.0020758954,-0.03167042,-0.004133989,-0.010939935,0.013195623,0.023651982,0.005213857,0.013948543,0.0059108627,-0.00436828,-0.018914506,-0.010875913,0.022856046,-0.039068285,0.012011816,-0.0067157014,-0.00017272953,-0.014979427,-0.010089187,-0.007601682,0.0024627538,0.021394368,-0.0016832352,-0.017900197,0.021890653,0.03018045,0.013580473,-0.0073285904,-0.013043986,-0.014803155,0.0052641374,0.016178746,0.0026436946,-0.0051136017,0.0369069,0.028632639,0.009176959,0.041261863,0.023100024,0.033131395,0.057804074,0.031855315,0.025123322,0.042778224,-0.007701121,-0.0047024246,-0.02067757,-0.058165625,0.0020967866,-0.014508491,0.040421348,-0.01538895,0.029509787,0.039040994,0.029172584,-0.009807016,-0.011871471,-0.004550238,-0.004810586,2.6920925e-05,-0.00066139933,0.0020144605,0.036322966,0.019152852,-0.0062800115,0.019284634,-0.02359089,0.012161351,0.02456671,0.032094803,0.016320162,0.021410307,0.013618788,-0.0071116965,-0.01541774,-0.033824347,0.00028651973,-0.021771496,0.03498549,0.039490897,0.026780287,-0.021257125,0.013531201,-0.017054167,0.036860283,-0.015037657,0.005191802,-0.019940918,-0.011900632,0.023710353,-0.015360421,-0.026083488,-0.02129204,-0.030717956,0.025806298,-0.032387134,0.0109143155,-0.027923001,-0.012039615,0.0020395229,0.011713727,0.010649984,0.0013103355,-0.010517707,-0.007087222,-0.0059130387,-0.0048898333,0.006649598,0.091611244,-0.042867634,-0.010650263,-0.012466046,0.0048535513,-0.010289773,-0.0017654824,-0.0036846232,-0.0110702235,-0.0044728266,0.00073346606,-0.060809504,-0.0016089582,0.00053986686,-0.009381814,-0.027713403,0.008760862,-0.009143278,0.00076373783,0.0077101463,0.0121290805,-0.007817201,0.024222072,-0.0012698956,-0.0022519473,-0.00087013806,0.003079708,-0.0064021116,0.022527812,0.018006625,-0.05003408,-0.010682706,0.00073396077,-0.05422216,0.022743924,0.006683184,-0.015305117,-0.000115264294,-0.025377505,-0.01575132,-0.0021812718,0.0014894104,-0.024291657,0.021568261,-0.005861946,0.018529858,0.008983342,-0.053598575,0.016254377,-0.019482281,0.05434943,0.020647928,0.021761848,-0.021924425,0.024595445,0.00974662,-0.027291497,-0.030797312,-0.016211849,-0.004170241,0.0019712064,-0.013209195,-0.09351976,-0.043840673,0.068343416,0.019671017,-0.005905781,0.013341933,0.037667755,0.013123543,0.010242613,0.029303534,0.052141216,-0.05587464,-0.044913497,0.06065655,-0.0114044035,0.05698964,-0.006361371,-0.0060385047,-0.046898644,-0.018145941,-0.0029708808,-0.00062729715,0.0040667406,0.017641934,-0.015976889,-0.008365753,-0.01321734,0.028593713,0.009335485,-0.024022533,0.04340099,-0.035476286,0.0073296344,-0.021982964,0.0013670827,-0.004951491,0.16504686,0.06309318,0.012792185,-0.0859241,-0.010424735,-0.14240998,0.0017463134,0.08272177,-0.08810757,0.052277785,0.003288199,-0.00250735,0.023955984,0.022787506,0.008545841,-0.00025681016,-0.052495785,0.055582218,-0.052404568,-0.04359801,0.024742894,-0.024666987,0.017327873,-0.013930821,-0.08483648,-0.04811245,0.08419033,0.06366066,-0.10598825,-0.08947908,0.045713186,-0.006457161,0.0012312081,-0.09685417,-0.01818481,-4.703622e-05,-0.018665854,0.030916955,-0.003797087,0.016069807,0.016399886,-0.056119468,-0.005171721,-0.056125246,0.033692576,-0.078289896,0.072814435,-0.06553736
R,0.040222075,-0.024550492,-0.027815703,-0.054662533,-0.018274924,0.025326343,0.021995813,0.039562277,-0.03553623,-0.014410413,-0.0069463286,0.009326129,0.010309118,-0.03255498,-0.03265122,-0.01451162,0.0007020157,-0.003228529,-0.059550982,-0.013793885,-0.023742355,-0.013076909,0.011496874,0.026177764,0.010585222,0.032554287,-0.053706624,0.038979586,0.038760234,-0.3943151,-0.38511345,0.30566925,-0.008654819,-0.05061,-0.034482628,0.018781267,0.018383324,-0.016071716,-0.0038734444,0.026084034,0.0004911476,0.0056251683,-0.056250088,-0.00077782996,0.015274701,0.016858546,-0.026182031,-0.0011099863,0.012147978,-0.0059234914,0.0013248128,-0.010036772,0.0088526225,0.0025697812,-0.020016132,-0.004509609,-0.014793249,0.013988252,-0.013008095,-0.0031083236,0.014465788,0.006145987,-0.00810196,0.0004743056,-0.011909149,0.018372107,-0.021750625,-0.037888907,-0.010809434,0.04149382,0.027358383,-0.019521134,0.009343018,-0.015798714,-0.038869523,0.019311374,-0.018665249,0.005062683,-0.0018839682,-0.002208036,0.005052659,0.006182375,-0.001062658,-0.0064103142,0.001995409,-0.0037024398,-0.005943112,0.004824782,-0.0032916677,0.004496226,0.004762684,0.0023344976,-0.07024447,-0.021439485,-0.019690437,-0.011799893,-0.016894354,-0.021850146,0.012457756,-0.00047445754,0.0010799826,0.0063895676,0.03203656,0.0040722415,0.0182521,0.00039826613,-0.023955192,0.004459104,0.0072599626,0.02032006,-0.016184628,0.021035435,0.020381702,-0.0020949526,0.004988592,-0.004540323,-0.001954476,0.0071315067,-0.0007043608,-0.005895901,0.02004391,0.06661481,0.02341255,0.02118006,-0.03191042,-0.0075126383,-0.024625123,-0.015763039,-0.01898629,0.030346317,-0.046150055,-0.026771352,0.0229012,-0.004351908,0.0071440726,0.012679125,0.004518375,0.013075944,0.0012538799,-0.0013896268,-0.00690383,0.010892123,-0.031113543,0.0037686266,-0.0040011196,-0.015151392,-0.012433001,-0.015804825,-0.0037779592,-0.017151168,0.019401696,0.015352331,0.012924928,0.035341598,-0.0028838313,-0.0023015467,-0.02405032,-0.0034551257,0.013909795,-0.035552256,0.030734114,-0.01913167,0.0068126265,-0.02603198,-0.02193316,-0.018374627,-0.0017972883,0.061493095,6.6161716e-05,-0.022219295,0.011476499,0.025292808,0.039793283,-0.014482687,-0.023612475,-0.020662256,0.017854277,0.00094888883,-0.014358151,-0.016033147,0.0041527157,-0.0018594107,0.008193774,0.016021874,0.019524368,0.028986352,0.05871945,0.033513762,-0.042043943,-0.0067431647,0.023817118,0.049052145,-0.010384207,-0.04563021,0.0017191055,-0.016416568,0.032266628,-0.015140695,0.027394243,0.03831621,0.015245125,-0.0091564935,-0.011757085,-0.0050251205,-0.0047000507,-0.0008582298,-0.004495017,0.006169549,0.07380513,0.03906652,-0.008744178,0.04283204,-0.043452606,0.027115207,0.051226914,0.06264133,0.04011889,0.032982174,0.04172856,-0.032507624,-0.0548596,-0.020760851,0.07418924,-0.07489907,0.019371666,0.020572983,0.015529949,-0.009507976,0.005638313,-0.00936383,0.018733855,-0.0070508523,4.4417524e-05,-0.0019105244,-0.0020586005,0.009280727,-0.0051934742,-0.0047321,-0.0050805,-0.025029615,0.03072861,-0.04079348,0.008806209,-0.03620409,-0.013700975,0.0035083094,0.013143958,0.013122448,0.00097633956,-0.010913783,-0.012423868,-0.024772959,-0.006762732,0.006167284,0.021920577,-0.00741761,-0.0340557,-0.03222655,-0.010909642,-0.0033069076,0.001587496,0.0030803077,-0.03659333,-0.010245392,0.011484859,-0.099690095,0.0121750245,-0.017768988,-0.0057931426,-0.035429277,0.017702563,-0.0146672,0.023800215,0.019634847,-0.023525188,-0.027603485,-0.024230685,-0.013230492,-0.0263654,-0.0011210451,-0.008222767,0.012961444,-0.0060174633,-0.015998797,-0.04129987,-0.053386893,-0.107439384,-0.0760146,0.005363077,0.01861682,-0.030748686,-0.013768524,-0.026462814,-0.053818136,0.037024815,0.006542016,-0.05130698,0.047024157,0.001276652,0.04092484,0.010312298,-0.10948405,0.018907765,-0.010487862,0.08510026,0.03403442,0.028418615,-0.030413551,0.04497234,0.011763514,-0.043483857,-0.048234258,-0.0129809575,0.00022492706,0.007372016,0.004812772,-0.10758951,-0.037839506,0.0882724,0.048126176,-0.022531364,0.0014766282,0.0017595583,0.012723905,0.014703128,0.017447975,0.044889245,-0.05150658,0.0067685116,-0.00066117634,7.471894e-06,0.010615716,-0.022268686,-0.0038801357,-0.049165096,-0.0026577774,-0.005317482,-0.0015334742,-0.0009161405,0.013121662,-0.0093078,-0.004118397,-0.007962965,0.015242868,-0.0029912456,-0.0075689917,0.022175333,-0.017960642,-0.0028909354,-0.03570129,0.015430111,0.064275734,0.09164808,0.062372647,0.013980283,-0.035120025,-0.013881979,-0.10491574,0.00091866945,0.047905035,-0.015329992,-0.024238018,-0.00292242,-0.047424223,0.026897935,0.014577294,0.0009510056,0.0022575085,-0.02870563,0.025319565,-0.008020669,-0.017317176,-0.01770093,0.0077340994,-0.021576207,-0.017931294,-0.04223658,-0.056580827,0.05249843,0.06840162,0.008929293,-0.06181668,-0.0078069544,0.056465633,-0.019100573,-0.118855014,0.025411531,0.024313062,-0.058586262,0.017795397,0.0011059209,-0.0023600955,0.010229179,-0.02113098,-0.0006157579,-0.07969103,-0.037664138,-0.008595127,0.05619097,-0.08338411
N,0.027948743,-0.013242004,-0.014833444,-0.031127444,0.0072628967,0.029188449,0.013079405,0.0145954965,-0.0682289,0.026291251,0.03584693,0.0014157161,-0.013764761,0.005755889,0.028285408,0.002313515,-0.019110681,-0.004807025,-0.0032730023,0.003852386,0.0015524218,0.0035639268,-0.0062044426,0.0067625316,0.046856873,0.04884907,-0.09651539,0.08065422,0.12781367,-0.3542481,-0.38623962,0.20231406,0.016780823,-0.019232525,-0.010538167,0.038075656,0.0027899875,-0.00020836649,0.0013844356,0.0010348556,0.018294482,-0.040470563,-0.023047095,-0.0328836,0.03616424,0.043776713,-0.023011621,-0.023268102,0.025870625,-0.04538564,0.0059096706,0.029308442,0.045398373,-0.010137801,0.024279596,0.011546908,-0.027402794,0.025726147,-0.009331377,-0.057433013,-0.07920132,0.04257393,0.029099299,-0.07736078,-0.010388419,-0.0011009328,-0.0037277136,-0.023916803,0.0026487978,0.013596279,0.01171488,-0.010058338,-0.00544339,-0.02083501,-0.057729706,0.010708254,0.012876209,0.014082015,0.0034099366,-0.022069061,-0.009080945,-0.015563169,0.0010493033,0.007068961,-0.022544261,-0.020455306,0.0015117807,0.034756366,0.018008735,-0.004620774,0.04101461,-0.038772177,-0.042859413,-0.0065341177,-0.010443104,-0.010604462,-0.012045909,-0.024427822,-0.029248178,-0.008918343,-0.04260105,-0.038545426,-0.041063786,-0.00077529514,0.09907847,0.009676309,-0.040515337,0.005517186,0.0041564074,0.026248913,-0.011979079,0.026319947,-0.05650335,-0.000526342,-0.014328108,0.014962748,-0.0058810916,0.016520359,0.010256428,0.013520867,0.011936816,0.04425465,0.015940044,0.0091184825,-0.029318582,-0.028975107,-0.02023639,-0.044785917,-0.013556899,0.020542875,-0.058257584,-0.03353627,0.021624735,-0.009954029,0.013683492,-0.00042028306,0.007750476,0.017183794,-0.00020258065,0.0021179481,0.037035797,0.00647683,0.036025394,-0.01615805,0.0006987326,-0.0056880545,-0.0047736787,-0.0027085491,-0.001192389,-0.00565783,0.0061987145,0.0032527444,0.0070039844,0.019543469,-0.009521148,0.0026022524,-0.004271707,-0.0027929244,0.0058132336,-0.009336049,0.055960175,-0.04132979,0.023278657,-0.033215098,-0.039122764,-0.03312336,-0.014380577,0.12155146,0.0014928617,-0.012619495,8.506408e-06,0.007224117,0.024679048,-0.010667134,-0.017514765,-0.017106138,0.007953739,0.0013830176,-0.005985745,-0.0068343324,0.0037325593,0.00047571425,0.0042274254,0.008333172,0.011844633,0.018820055,0.04748027,0.027891379,-0.009330526,0.043588795,0.009264049,0.035763077,-0.031719983,-0.11090076,0.0029284032,-0.020451065,0.07493781,-0.017864583,0.06225256,0.08047556,-0.038819227,-0.0014342379,-0.0041645267,-0.0051843836,0.039897952,0.0020473034,0.0075390283,-0.035281118,-0.016283404,-0.009889521,0.004305352,-0.010883444,0.012634443,-0.0061186813,-0.0123883225,-0.016425679,-0.01633531,-0.00047029834,-0.021483505,0.025796723,0.040039964,0.055365115,-0.0007553112,0.03363542,0.025325857,0.023269769,0.02943637,-4.2849835e-05,0.0025234106,-0.011443439,0.017129611,0.0079816,0.0041921707,0.0021155311,0.0045564873,-0.026887482,-0.005082992,-0.013631564,-0.00986473,-0.005323563,0.009222476,-0.017794808,-0.004827826,-0.01871262,-0.002630009,0.0028578606,0.005641603,0.003469605,-0.0018881761,-0.006016598,-0.003266597,0.0021116456,0.0051198765,-0.0035730454,0.013551072,-0.009288314,0.026913704,0.025070392,0.01118017,0.00029764668,-0.0012581726,-0.002891079,0.029166164,0.00830995,0.0043077376,0.043788068,0.008034436,-0.009538354,0.008116399,0.039487287,-0.016995905,0.014561155,0.012710802,-0.027543176,0.0038274126,0.005226171,-0.06059385,0.026189258,0.01624343,-0.0044566924,-0.012622241,0.039558563,-0.06398585,-0.07291499,0.024796028,0.066343114,0.058415104,-0.06678272,0.018398704,0.0062390193,-0.020770954,0.014051358,-0.012765187,0.0056428127,-0.027403722,0.013561391,-0.033774287,0.030207807,-0.008032259,0.025176132,0.013537839,-0.017750682,0.019464191,-0.041257117,0.06883306,0.041739393,0.0036226322,-0.021054916,0.008650006,-0.023449987,-0.034470104,0.00049170444,0.018435728,0.011688722,0.013155244,0.027150122,0.03922611,-0.02648327,-0.0062156175,-0.12590602,-0.039008185,-0.013620191,-0.047891945,-0.008033299,0.0025755265,-0.007073333,0.030382665,-0.034137826,-0.028431015,0.06499441,-0.007074009,0.08124249,0.03585642,-0.0051663024,0.05643218,0.005810537,-0.04022922,0.0014510257,-0.03280956,0.036319103,-0.0032149618,0.0060872342,-0.009022337,-0.0077582905,0.011428687,-0.027266225,0.040626258,-0.028851695,0.0048328927,-0.031423002,0.0183576,-0.02770347,0.07124194,0.039529644,-0.0011681292,-0.017534904,-0.0022773212,-0.05534943,-0.008196782,0.030746398,-0.09801569,0.055759866,0.007922191,0.0005041507,0.0032261314,0.013259651,-0.015576539,0.026242642,0.003127909,-0.00928856,0.0059241145,-0.01314047,-0.02359574,0.021428797,-0.019453118,-0.012640799,0.009170957,0.013447873,-0.013765485,-0.014100405,-0.110792734,-0.0051535526,0.11329644,-0.025050504,0.021987343,-0.09624017,-0.015516494,0.01578886,0.017162211,0.03585614,-0.0015284439,0.043618053,0.0035199416,-0.028496506,-0.06542214,-0.0020334343,0.036225136,0.064302765,0.03042196,-0.09656177
D,0.03141522,-0.016923798,-0.021683168,-0.041236598,0.0020986907,0.029843155,0.014464742,0.018908486,-0.010438573,0.025176713,0.035481133,-0.031515192,0.0021495991,-0.052898336,-0.031826355,-0.020726701,0.016752169,0.0039121546,-0.051571243,-0.020771364,-0.020407049,-0.015637837,0.011719337,0.01989543,0.04041735,0.060023572,-0.09682719,0.07091848,0.06996954,-0.38610348,-0.39052302,0.27234194,-0.010586006,-0.037244678,-0.025255024,0.0031820126,0.019291189,-0.010176873,-0.0064517152,0.021763528,0.016847005,-0.03193088,-0.079840414,-0.031763837,0.021458492,0.015029624,-0.02166213,-0.01002882,0.0066034137,-0.00035053058,0.0014142356,-0.010979703,0.0034820584,0.0025882334,-0.018607404,-0.0051710205,-0.011998607,0.014570177,-0.006252586,-0.03031055,0.04866488,-0.028307565,-0.017019028,0.011602808,-7.624388e-05,0.034624826,-0.027669294,-0.019129714,-0.014750811,0.030483978,0.012751371,-0.0053901332,0.019232586,-0.01826091,-0.043548845,0.03061179,0.027031777,0.027479967,0.008912914,-0.044628456,0.003791259,0.0046548545,-0.0023492344,-0.0022869396,-0.0030538081,-0.007400707,-0.0029040219,-0.0072158924,-0.008549751,0.01267665,0.017805068,0.0032446994,-0.05951346,-0.015726909,-0.015233709,-0.0129391225,-0.020466466,-0.029139444,0.002703318,-0.0013755551,-0.013195453,0.0027709652,0.014009292,0.006663711,0.05404404,-0.005090826,-0.034152288,0.004247362,0.0009919148,0.02200287,-0.0069925003,0.023023192,-0.021298679,0.0006773703,-0.004785395,0.0053524976,-0.0014462796,0.0019174725,0.0028246779,0.0052253148,0.017316062,0.062479775,0.022444854,0.01617988,-0.040988322,-0.04166344,-0.027854374,-0.06358931,-0.013972453,0.0199123,-0.07710406,-0.04506384,0.02303932,-0.012076198,0.01946557,-0.0076456824,0.016094012,0.013549199,-0.006358758,0.008170572,-0.005198224,0.016752107,-0.04066968,0.0034309484,-0.010632271,-0.011562363,-0.007820458,-0.022578953,-0.003962024,-0.014394144,0.016580464,0.018744718,0.004048536,0.011134503,-0.00073899835,-0.00087995717,-0.01686646,-0.00084309216,0.008150491,-0.02305597,0.023440529,-0.0160355,0.006861239,-0.018152526,-0.017152853,-0.014188905,-0.002995518,0.04827995,0.0025471281,-0.013273565,-0.0015298887,0.002310486,0.032166444,-0.00909228,-0.012736439,-0.0065832175,0.0104667535,0.005840604,-0.0061367033,-0.009670162,0.014230497,0.008876948,0.006854011,0.022020869,0.016218826,0.022698347,0.036506824,0.019988326,-0.0135561945,0.01018948,0.008829971,0.022766577,-0.0036984228,-0.012614405,0.00070431083,-0.010124342,0.009635904,-0.01070116,0.006625947,0.011269148,0.0003199402,-0.010118734,-0.015028547,-0.009481526,-0.016972877,0.001380375,-0.00059693813,0.0024170144,0.010470713,0.005520527,-0.0025277527,0.005030333,-0.007595044,0.003123388,0.0069393357,0.009745197,0.014974633,0.008756546,0.017561203,-0.014217219,-0.022047983,-0.010472047,0.035601176,-0.036953658,0.02293997,0.017202476,0.032770816,0.013195536,-0.005950243,-0.00931315,0.0030548873,0.021985514,0.00825251,-0.023952724,-0.011971713,0.012942036,-0.0029041558,-0.009564804,-0.006382952,0.0011526217,0.009127008,-0.027950983,-0.015818922,-0.031746067,0.00023992619,0.005314696,0.0018629873,0.0013293627,-0.00016742546,-0.0024489204,-0.0014868331,-0.0012300035,0.041500967,-0.012117137,0.019993708,-0.012670491,0.009634273,0.004958374,-0.0047869156,0.02049272,0.002747252,0.024041452,0.02061269,0.016014898,0.007655195,0.007822255,-0.0035381888,-0.007242438,-0.0027814198,0.017146768,-0.0140479235,0.007724799,0.022612823,-0.013569168,0.0037587793,-0.014140516,-0.05176407,0.01817738,0.0037154886,-0.0027372458,-0.004267828,0.016285101,-0.035648555,-0.035095114,0.0058308714,0.019004982,-0.006674184,-0.06358647,-0.013439026,0.013701107,-0.024309767,-0.0037345635,-0.00011544291,-0.028011678,0.020808695,0.014225161,-0.04541339,0.041225567,0.0070397574,0.03661925,0.006896466,-0.00933718,0.00920373,-0.020093434,0.063805506,0.031455874,0.015465684,-0.024631724,0.013988268,-0.005129685,-0.032059126,-0.015966363,0.009911972,0.0075484198,0.009052665,0.010724568,0.061200194,0.010271429,-0.033951398,-0.061203066,-0.016246894,-0.0019124647,-0.00070968864,3.7153197e-05,0.0008268095,0.013543043,0.033388674,-0.040121403,-0.030065272,0.051585842,-0.007531336,0.057118185,0.0048076212,0.001784978,-0.033440866,-0.029269842,-0.049755342,0.00075007865,-0.045440167,0.034887806,0.0059958706,0.013954485,-0.0025334812,-0.029085942,0.04017521,-0.049277555,0.030382974,-0.013015388,-0.005638061,-0.064061314,0.048854187,0.042256787,0.08762411,0.045077357,0.01542464,-0.04795437,-0.012455414,-0.09638087,0.005910869,0.04759833,-0.07884993,0.028862748,0.0030070269,-0.024701605,0.010528958,0.025317334,-0.01807735,0.036189765,-0.027936792,0.024639105,-0.022334643,-0.033297792,-0.0033545785,0.0029254102,-0.007476411,-0.01739461,-0.058434695,-0.025952205,0.057077885,0.042735543,-0.08674544,-0.012313854,0.07130884,-0.022949368,0.008212288,-0.17690475,0.019418988,0.016019626,-0.013887186,0.03673557,-0.004594559,0.032022867,0.0012533235,-0.04392038,-0.031499013,-0.0388674,0.0048883767,0.029974658,0.028294478,-0.08976679
C,0.08303033,-0.0037697423,0.0072463574,0.007255439,-0.07538303,-0.033128075,0.0293349,0.09196715,-0.029241288,0.050886963,0.030887503,0.037657034,-0.016676672,-0.0076445867,0.0150337815,0.00014196338,-0.0056357123,0.00010116831,-0.029754885,-0.011246803,-0.008438762,-0.005761687,-0.0008447033,0.016483933,0.05297929,0.07620535,-0.15854368,0.13566212,0.10368173,-0.36541894,-0.39686498,0.2763843,0.05868392,0.07519161,0.054974124,0.049464148,-0.047838755,0.03189526,0.019675689,-0.0597939,0.03613387,-0.080487125,-0.03515983,-0.06549194,-0.026668238,0.01658245,0.030099958,0.012446551,0.025624042,-0.055981062,-0.0027632432,0.05800162,0.043000814,-0.013806901,0.067438304,0.028378317,0.0054554855,0.001373163,-0.004347472,0.00729913,-0.040981036,0.029078718,0.014946753,-0.061919224,0.013666801,0.0005871353,0.0051751253,0.031588826,-0.0047586747,-0.015166711,-0.013631579,0.011917176,-0.019252878,-0.0026831876,-0.005147194,-0.015364763,-0.08444099,-0.04846973,-0.019839538,0.08700025,0.028231774,0.039887965,0.0010095999,-0.038665198,0.05344404,0.03366508,-0.026120996,0.007950368,-0.030124601,0.03235284,0.01270621,0.032697774,-0.05066441,-0.046064883,-0.031659994,0.030346403,-0.002559189,-0.006410831,-0.0031925014,-0.0013197013,-0.010167891,0.0014696338,-0.007604037,0.00089883,0.026105154,-0.02877818,-0.017538292,-0.0014538142,0.01474758,-0.0010240366,-0.02051017,-0.002349714,0.038083576,-0.008093969,0.008537645,-0.007370253,-0.009718923,0.035749856,0.003889283,-0.013236577,0.010930999,0.021434242,0.005307454,0.009236568,0.021592466,0.012918739,0.015362988,0.021729745,0.0041784258,-0.007812558,-0.007910847,-0.004697858,-0.0016778327,-0.003619018,0.004285043,-0.009294264,0.01814678,0.001961379,-0.012839291,0.019464739,-0.021002159,0.013510349,-0.054730203,0.010468117,-0.025992159,-0.008173952,-0.002114287,-0.042022582,-0.005248007,-0.014334342,0.017021522,0.031428486,-0.0025625937,-0.0062970226,-0.0009830222,0.0010769401,-0.022291511,-0.02670961,0.040959768,-0.06402472,-0.016242754,0.016855022,-0.016251426,-0.003528476,0.009945638,0.008481112,0.014017442,-0.043819122,-0.0013448105,-0.0106105525,0.024399167,0.019877976,-0.02648316,-0.00046025426,-0.0080121895,-0.023918884,-0.013550424,0.006738209,0.0140404245,0.012740358,0.013598058,0.0136277145,-0.002295578,0.0022257746,-0.00029177743,-0.0008458373,-0.0036975706,-0.002231741,-0.019664155,0.012498153,0.01912325,0.036950585,-0.034784835,-0.09955141,0.0028208122,-0.00946311,0.06701937,-0.009047284,0.051679596,0.063178495,0.05207214,-0.02026669,-0.026208427,-0.009856183,-0.04783983,-0.0033878176,-0.005827536,0.036825154,0.07397495,0.03911686,-0.009016896,0.042544145,-0.043719634,0.027097544,0.051014338,0.062973104,0.04840351,0.034329012,0.05282477,-0.044559427,-0.042975016,-0.0011130343,0.06936067,-0.058533397,-0.0127469525,-0.040406592,0.035270806,0.0822894,-0.042998496,0.01122379,-0.06072319,0.08879351,-0.0043493984,-0.031077998,-0.028051894,0.07645789,0.000512552,-0.0020052048,-0.00039054197,0.003115088,0.006093149,-0.037665356,-0.030792769,-0.04536995,0.005514839,0.008229472,-0.006554637,-0.0033834216,0.0041073654,0.010646096,0.008034034,0.0021312924,-0.007412086,0.0035103704,-0.024780095,0.014436514,-0.052017547,-0.040141497,0.0033705763,-0.024639616,0.018192036,0.021478489,-0.0386565,-0.004274828,0.021214943,-0.08322195,0.016053898,-0.031203765,0.0008475515,-0.0071412395,0.0065748836,-0.0050336216,-0.014881654,0.014655929,0.0029911478,0.0025421765,0.04948745,-0.015322637,-0.005171957,0.003722194,0.0028017382,0.010137123,0.0038410528,-0.008469823,-0.011340202,-0.006003859,-0.009112105,-0.008285869,0.013374436,-0.0076599466,0.015216221,-0.002482697,-0.008661273,0.008380389,-0.0053754584,-0.013464284,0.016438937,-0.017105253,-0.015190206,-0.015204412,0.014637194,-0.076388724,0.02443918,-0.03398097,0.17319927,0.110432826,-0.008118235,-0.03729987,0.046284482,-0.07089458,-0.087356694,0.0004423451,0.01548061,0.022809474,0.035015248,0.05561274,-0.14500539,-0.10377351,0.12087712,-0.06341627,-0.063482784,-0.024340097,-0.096741624,0.010851772,0.029872254,-0.028480334,0.016354322,-0.01821928,0.06989846,-0.045215555,0.026376352,-0.022314487,-0.04410775,0.005186923,-0.040582255,0.015706021,-0.0043054526,-0.0016283917,-0.0027737624,0.0051691416,-0.0017045753,-0.0007314663,-0.0018667505,0.0020127967,-0.056483265,0.044258133,0.009635535,-0.020931005,-0.04989489,0.12293465,0.011442916,0.1480277,0.09037868,0.083668604,-0.0019941651,0.006227949,-0.009883961,-0.08635918,-0.019839955,0.03635733,-0.093261786,0.045603003,0.0038068024,-0.050524645,0.15051486,0.010567149,-0.093448155,0.07809964,0.011038666,-0.011750287,0.016407704,0.011713099,-0.023115233,0.01239959,-0.016197015,-0.0031547628,0.07335402,-0.015437517,-0.053884573,0.0023350911,0.06973729,-0.06872116,-0.10315365,-0.0076252017,0.03800015,-0.025909485,-0.011678654,0.020560918,-0.037124027,0.0060314634,-0.004615695,-0.008744422,-0.0096833585,0.009361465,0.035448372,-0.05345527,-0.06343929,-0.03806557,0.124325365,-0.002696795
Q,0.032085188,-0.040697508,-0.05580654,-0.10368485,0.027492953,0.078636155,0.021849465,0.009435659,-0.02777641,0.04153669,0.040506903,-0.003182791,0.03685849,-0.08802272,-0.08814014,-0.038409512,0.04390392,0.006582583,-0.109933004,-0.039987043,-0.047867123,-0.03387848,0.032728765,0.038389396,0.022630952,0.021602636,-0.032855477,0.023553815,0.10354337,-0.37218237,-0.39205045,0.2500703,-0.024559481,-0.018998176,-0.01613275,-0.031709783,0.010750935,-0.008872079,-0.0029772485,0.020979824,-0.009534275,0.023558544,0.0005479902,0.017308809,0.029986896,0.06494922,-0.00033323042,-0.028082624,0.015732914,-0.034924485,0.004369494,0.029238898,0.03343694,-0.009524193,0.029759437,0.011659379,-0.017438246,0.014616971,-0.010812001,-0.014162245,-0.09391923,0.093188144,0.025892245,-0.086978935,-0.027988724,-0.006849548,-0.009556078,-0.06141803,0.00069970754,0.045096934,0.039742637,-0.033649307,0.022951027,0.0013424396,0.00725991,0.017126255,-0.025114395,0.0026317942,-0.0034264019,0.0023428677,0.0016457542,-0.0010989031,0.0013365123,-0.008593353,-0.0053147334,-0.0122641,-0.010154555,0.04545478,-0.002294764,0.022789473,0.06862465,-0.021852314,-0.038424533,-0.017338043,-0.010095826,-0.010134656,-0.018722335,-0.028385507,0.020681247,-0.00030322472,-0.0042618713,0.032709,0.0359258,0.0069620158,0.031721,0.005305213,-0.015531761,0.0027307703,-0.02707658,0.055546146,0.021251727,0.06330886,0.019119797,0.0032644048,0.0045927702,-0.005652969,0.008062289,-0.02708625,-0.00889916,-0.0017974513,0.024026126,0.0400521,0.007077151,0.0071146693,-0.018541371,-0.031067219,-0.010259612,-0.046107437,0.01144399,-0.020293288,-0.0069229654,-0.004114055,-0.008327566,-0.0049775816,0.0072591314,-0.02120025,0.020772647,-0.007433503,-0.017631337,0.025271744,0.009866471,0.009626798,-0.0054092025,-0.0033974845,-0.013420542,-0.0036477207,-0.0010647199,-0.02139801,-0.0024731546,-0.00669542,0.00828473,0.016044015,-0.005978639,-0.01724758,0.016582083,-0.0059930324,-0.014894917,-0.007597627,0.016698407,-0.029184446,0.022440404,-0.014618744,0.009810045,-0.011813939,-0.014831875,-0.00985252,-0.0056599416,0.04953977,-0.014104164,-0.023194892,0.054595057,0.09902964,0.06431792,-0.017797729,-0.023651961,-0.009965652,0.027127659,-0.00045655484,-0.022730466,-0.024597306,0.0015625559,-0.0055023446,0.011134133,0.021318465,0.022509653,0.036098167,0.092334256,0.054196384,0.016103737,-0.025454825,-0.019952748,-0.042960025,-0.011900996,-0.05331662,0.0019462426,-0.0016087776,0.03701165,0.0014516696,0.033564813,0.040579375,0.04703544,-0.03148238,-0.043234646,-0.021027276,-0.024668466,0.004545236,-0.004154784,-0.00836068,0.023440903,0.012031585,-0.0009359402,0.014429727,-0.011684749,0.009083192,0.016633399,0.018241717,0.02249834,0.01636122,0.025164412,-0.019278906,-0.003809915,0.012558747,0.03375054,-0.021892168,0.021454815,0.029907038,0.0039249156,-0.03128306,0.015989138,-0.011867131,0.03186983,-0.030239236,-0.0033931455,0.019309746,0.011165244,-0.014520503,0.0035242545,0.01290553,0.008238112,-0.016193792,0.03754788,-0.015850559,0.050655384,0.000159975,-0.026220202,-0.0051698796,0.02474094,0.021238329,-0.005015344,-0.05399934,-0.048637822,-0.060103796,0.070920266,-0.010966359,-0.064004496,0.040858738,-0.005010421,-0.011411646,-0.016128603,0.024727095,-0.0014223646,0.01886777,-0.001358771,0.0073174452,0.0030186267,-0.03839905,-0.0081337495,0.00096527627,-0.019585583,-0.036763262,0.0063713295,-0.0085375635,0.01352767,-0.0118305255,0.024586322,-0.010255837,-0.016600942,0.020821093,0.010637985,-0.0037179184,0.0034810463,0.0054616323,0.011048827,4.6938378e-05,-0.00493936,0.030957114,0.08641497,0.0232787,0.017470237,0.0061725727,-0.018590875,0.010916471,-0.012783879,0.0017720215,-0.020814788,0.011311765,-0.0400393,0.037735406,-0.009535604,0.030484444,0.01941207,-0.095326334,0.032978527,-0.045267362,0.035199992,0.011802734,0.016186383,-0.014713042,0.019003808,0.009775324,-0.017956575,-0.024412047,-0.019578679,-0.008349774,-0.0021048805,-0.016268652,0.016905468,0.016364746,-0.02281566,0.021229805,-0.09242955,-0.008310736,-0.037157197,0.04699921,0.058831412,0.0392431,0.13176751,-0.15372202,-0.0070038107,0.026821138,0.0022366466,0.02907767,-0.03321924,-0.0016617283,-0.054477133,-8.9279405e-05,0.015167567,-0.0030646534,0.02152834,0.0070209266,-0.020317022,-0.015229626,-0.01370243,0.04346589,-0.03740688,0.03150391,-0.0035527323,-0.0028755662,0.0057731173,-0.047069106,0.01957611,-0.017313126,0.11318342,0.100828126,0.039068464,-0.052437704,-0.036720615,-0.17925575,0.012983668,0.06771613,-0.105031125,0.056959927,0.0076553244,-0.047278814,0.022568855,0.0009713136,0.030193705,-0.04200358,-0.006496795,-0.0013836183,0.006911236,-0.011570616,-0.033202246,0.025411043,-0.027981043,-0.016279709,0.013080031,0.013728058,-0.01765274,-0.00982187,-0.060267963,-0.037152115,0.07393253,0.027977182,-0.058482133,-0.067749515,0.04179478,0.0010774026,0.008455725,-0.005599958,0.0064442144,-0.0016895349,-0.0043172054,0.006445886,-0.0029447775,-0.04123182,0.04289269,0.030423217,0.0028107737,-0.056302022
E,0.047811907,-0.020745672,-0.022635145,-0.045054704,-0.022110574,0.020039141,0.022708006,0.0445394,-0.032887373,0.025644641,0.02515504,0.0062515214,0.011597742,-0.052100725,-0.039401352,-0.022222921,0.029521422,0.007289247,-0.060106866,-0.027373286,-0.024971446,-0.02041319,0.016604718,0.020750906,0.024878684,0.042127438,-0.06922288,0.051312808,0.08156868,-0.37456983,-0.3878905,0.2731751,0.008254149,0.018305521,0.012788417,-0.007845953,-0.0051490753,0.012645931,0.0018620002,-0.009368425,0.0021591845,-0.0034503655,-0.014329697,-0.0042033996,-0.0028886723,0.00877354,0.006857521,-0.00022715295,-0.0014324761,0.0049383165,-0.0011271265,-0.0045962273,-0.0052185548,0.0018572187,-0.0049603786,-0.0016316976,0.0061559426,-0.00010149454,0.00027840768,-0.0032165903,0.028106607,-0.0036797745,-0.011923032,-0.0058848187,0.01074108,0.042725716,-0.030261653,0.0019522926,-0.023261175,0.026853258,0.006527774,0.0014819413,0.016153214,-0.011619803,-0.026080642,0.022560172,-0.01700593,0.012742576,0.00036887903,-0.013454654,0.0131015545,0.019954111,-0.003105726,-0.011051938,0.018327791,0.010588511,-0.006492344,-0.03223942,-0.019373965,0.025803814,0.030223306,0.0095993765,-0.09772172,-0.040613372,-0.032831483,-0.004174694,-0.021011226,-0.032592308,0.0049973647,-0.0022874372,-0.018081807,0.011743432,0.0135522485,0.0069766515,0.063497536,-0.003284906,-0.033038877,0.0037268498,0.005411016,0.015897447,-0.010813269,0.015811596,-0.021959566,0.0012800914,-0.0053727254,0.0053941803,0.0001152098,-0.0022577248,0.0018992043,0.006105657,0.01605581,0.046398114,0.014760161,0.009603942,-0.046545565,-0.046497587,-0.03131773,-0.07112613,-0.015333242,0.02089731,-0.09407862,-0.055445693,0.02519938,-0.013838761,0.024191445,-0.0123364115,0.01737209,0.012686923,-0.0076855416,0.010560805,-0.00023645085,0.0237568,-0.048295703,0.0017290795,-0.020689888,-0.010202801,-0.005086054,-0.035987094,-0.0048939297,-0.015443089,0.018111795,0.027948853,0.0032163658,0.009138741,-0.00139795,-0.00031591748,-0.0173395,-0.00027499814,0.008024327,-0.02298222,0.029251069,-0.018560544,0.0077622742,-0.023034014,-0.020577822,-0.01691806,-0.0028369823,0.05964104,0.0002642074,-0.0145606315,-0.0010918608,0.0146125145,0.061488174,-0.016521491,-0.02230825,-0.009318288,0.020620126,0.003293158,-0.015731102,-0.01878802,0.00962211,0.0022512116,0.010201059,0.024240937,0.016920635,0.02548174,0.054547045,0.031425666,-0.03441249,-0.006043035,0.016099263,0.036438107,-0.0085026445,-0.03322514,0.0010971562,-0.009528288,0.023141287,-0.008733252,0.019306513,0.026263438,0.013319248,-0.011397737,-0.015837,-0.0077266186,-0.007961114,0.0020665915,-0.0036252784,-0.006617554,0.02575674,0.013408531,-0.0032724577,0.013980874,-0.015185592,0.009100212,0.017365586,0.021794628,0.022441275,0.013501952,0.026372068,-0.02115533,-0.034913424,-0.029169919,0.037565295,-0.049959958,0.01358634,0.0116026215,0.015281444,0.0020634262,-0.0012395113,-0.005966014,0.005562667,0.004997948,0.0035001086,-0.009908196,-0.004791908,0.009195178,0.0013460089,0.00026054573,0.0005964742,0.0005041139,0.0009265258,-0.017908975,-0.01850905,-0.022936508,0.004112407,0.00435991,-0.0032998808,-0.0028805183,-0.00067102077,-0.010680563,-0.009472977,-0.012933081,0.0475207,-0.013696333,-0.019541547,0.008122867,-0.027775826,-0.018338254,-0.010394302,0.0074172453,0.018686846,0.037081826,-0.010780614,0.010133383,0.026120823,0.004360798,0.0055653495,-0.033002503,-0.0154897,-0.0030713826,-0.009291588,0.00068615377,0.020314574,0.010198356,-0.01753332,-0.019717477,-0.029361807,-0.005497359,-0.017328342,-0.0018450003,0.0027737028,-0.017309554,-0.0007550786,0.016643617,-0.0482684,-0.015384178,-0.013379632,-0.054694187,-0.0049154977,0.013177649,-0.023302805,-0.005270081,-0.008336567,-0.03057921,0.020560823,0.010425539,-0.03842025,0.03527266,0.008027144,0.031478245,-0.00018743717,-0.007533444,-0.0016452848,0.0044313567,0.07459749,0.027507061,0.03177988,-0.03278183,0.03041212,0.01533408,-0.037885226,-0.042609256,-0.00037638142,0.0037189326,0.007855421,0.0008368839,0.036618434,0.023112884,-0.023187079,0.0053751213,-0.070680484,0.0011527033,-0.008539446,0.03650638,0.044340618,0.041667026,0.124035664,-0.14028905,-0.0028375315,0.023072263,0.001711256,0.031520415,-0.018551193,0.0029086529,-0.0787156,-0.03671555,-0.043902747,-0.00058747607,-0.03553383,0.04056297,-0.004866153,0.00593543,-0.010299581,-0.006344403,-0.011298009,-0.00860254,0.044444982,-0.038836643,-0.02677883,-0.028698886,0.06746295,0.09897419,0.06532848,0.0636744,0.023948861,-0.028281074,-0.021266295,-0.1088038,0.008489293,0.03987796,-0.077471025,0.0059333374,0.0043859268,-0.051958624,0.0070099365,0.019440822,-0.0061389823,0.018604632,-0.029628303,0.019202929,-0.0014756629,-0.029802663,-0.035008557,0.027464041,-0.040449966,-0.0286729,-0.040492333,-0.04026058,0.04218148,0.055659447,-0.061853938,-0.040250324,0.05605035,0.0101972595,-0.025421156,-0.08677149,0.004744307,0.0092057735,-0.02285889,0.03562592,-0.0007819771,-0.0054026963,0.0058426745,-0.018269328,-0.0074988147,-0.07718813,0.002414684,0.13490048,0.04805675,-0.1493675
G,0.06901627,-0.031393114,-0.03702832,-0.072990775,-0.01233968,0.04623895,0.031945456,0.05186119,-0.023758275,0.030710623,0.024594797,0.012127003,0.02389444,-0.0646136,-0.06615845,-0.027387884,0.013306351,0.0005700388,-0.07674938,-0.023895474,-0.030796546,-0.019955238,0.016742863,0.031246707,0.0001551138,0.034697715,-0.052322656,0.034179535,0.08618111,-0.40185866,-0.41320297,0.27825707,2.426509e-05,-0.0012206477,-0.0011831045,8.096711e-05,-0.00066369,-0.00012494036,0.0009451474,0.00084518275,0.014669142,-0.030489039,-0.04004732,-0.027683733,0.00084819336,0.0078084497,-0.0012417546,0.00013116476,0.0046344153,-0.0016523177,0.00021475575,-0.004445481,0.002577455,0.001349303,-0.008360677,-0.0018913979,0.004397329,0.0013962884,-0.0011545552,-0.003017613,0.0006406478,-2.5785497e-05,-3.1141666e-05,-0.0040598745,0.005431073,0.018942522,-0.013157239,0.0023646408,-0.010578349,0.011327037,0.002296349,0.0012091025,0.009287703,0.0006732234,0.004468241,0.007364305,-0.03588868,-0.0016875373,-0.0050474987,0.011031763,0.009513037,0.012996568,-0.00017711909,-0.012615192,0.015200359,0.007958445,-0.008992526,0.0030408774,-0.008423921,0.019054538,0.038802143,-0.0054971306,-0.03391264,-0.009709773,-0.0074699153,-0.011054654,-0.0006307812,0.0020196817,0.009061538,0.0023313465,0.011645968,0.008181406,0.016805809,0.0009968822,-0.028246708,0.0027306103,0.010048818,-0.0005606248,0.014365099,-0.0052649826,-0.017950963,-0.0074535348,0.009081859,0.001491121,0.0022451137,-0.0027985945,0.0034647796,-0.010709881,-0.0035309119,-0.0012277218,0.00527711,0.009963125,0.002155763,0.0019618026,-0.0019905672,0.019701155,-0.003445695,0.026132675,0.0036200145,-0.006293973,-0.0034528582,-0.0017022063,-0.0009240505,-0.003378114,0.002918588,-0.0067724506,0.00065931055,0.0058942237,0.0012019607,-0.0006172953,-0.010510163,0.0027974313,-0.01956196,0.004897897,-0.0017209296,-0.0019379178,-0.0014974904,-0.0038043011,-0.00060493697,-0.002665631,0.003060196,0.0033521776,0.0054894495,0.015019359,-0.0011801482,-0.0010304617,-0.0027627219,-0.0027238764,0.004108833,-0.007132325,0.0011137372,-0.00019493506,-0.00074964995,-0.002188797,-0.0008556381,-0.00089946744,0.00085177104,0.00136993,0.0017334897,-0.0018678431,-0.0038048176,-0.0063918144,0.011064256,-0.005914419,-0.010549004,-0.011967575,0.0022438588,0.0071871667,0.0012495907,-0.0019365486,0.016370282,0.01230036,0.004272514,0.017405888,0.008582833,0.013769382,0.034029637,0.019773755,0.005346751,0.03366281,0.0024657713,0.014662409,-0.013206043,-0.043968163,0.0013015829,-0.008033203,0.029937675,-0.007292259,0.024288835,0.031254835,0.0007162994,0.003018573,0.0052143405,0.004389598,-0.011034675,-0.0008281627,0.0013974586,0.00870224,0.017620908,0.009144081,-0.00064094184,0.01119834,-0.008937981,0.0070475037,0.012597254,0.013893512,0.0014230188,0.0044276263,-0.00035799912,0.0014098379,-0.0065621305,-0.017686894,-0.005197864,-0.006454523,0.01957387,0.02041846,0.018017817,-0.0073202495,0.0054587317,-0.009204431,0.018458972,-0.003427799,0.000800694,-0.0027557577,-0.0017280377,0.0063253,-0.008785968,-0.011260079,-0.010342195,-0.027255015,0.018525852,-0.015231967,0.016915223,-0.009365918,-0.010798029,-0.00060378667,0.008749026,0.008998816,0.0029040403,0.004715011,0.0041055344,0.002321587,-0.0313215,0.013304631,0.05869256,-0.025368724,-0.014803069,-0.011851367,0.009740187,-0.022461079,0.0006302008,-0.011684333,-0.017602604,-0.00981331,0.004825458,-0.04544569,0.0079647545,-0.008943705,0.004577865,-0.011947155,0.011012692,-0.0053908764,0.001186162,0.00025010604,0.0037421412,-0.003464605,0.0020677012,0.00060877553,0.0002894444,0.0011758214,-0.009488487,0.026035015,-0.009623911,-0.030884437,-0.012168134,-0.020771168,-0.023035675,0.0019170055,0.0021238162,0.006312944,-0.008866182,-0.008271022,-0.011580426,-0.023355268,0.019074926,-0.0007841136,-0.013820373,0.013681736,0.0030583232,0.0113298455,0.01771098,-0.09033647,0.030264622,-0.041481312,0.11318586,0.06430865,0.008158475,-0.030019756,0.03626894,-0.02836289,-0.057064854,-0.017268686,-0.0032602232,0.007521786,0.01565606,0.015113819,-0.11815879,-0.06478179,0.08645704,0.0016233244,-0.012215715,0.010460312,0.024343217,0.01788875,0.017202828,0.022717658,0.047345683,-0.05004746,-0.014973561,0.03275871,0.000108349894,0.03224718,-0.018092046,0.0013690641,-0.06270376,-0.025576139,-0.020578358,-0.00010596897,-0.01814351,0.016228937,0.0004973356,0.004860163,-0.0025540271,-0.00856376,0.024846446,-0.031287204,0.021845328,-0.011437082,-0.0047136885,-0.027386036,0.026233006,0.028740684,0.13576607,0.05512377,0.018587146,-0.07868938,-0.014769445,-0.13295735,0.007352235,0.07180045,-0.085987076,0.05202081,0.0037533282,-0.00808006,0.031881705,0.009814393,0.002732463,-0.0045243856,-0.023728956,0.027457813,-0.026131352,-0.015890894,0.01610444,-0.017365795,0.013668714,-0.0031398146,-0.0362279,-0.025064405,0.04018878,0.03296873,-0.041528393,-0.07075284,-0.01265707,-0.017271386,0.021122377,-0.13680185,-0.004048666,0.015498014,-0.027797785,0.027449535,-0.009570407,0.031897936,0.007998278,-0.04894218,0.008111742,-0.06357933,-0.0038790775,-0.08756143,0.06522113,-0.022181502
H,0.045337766,0.0021196394,0.0071837716,0.011622872,-0.035791993,-0.020016357,0.013082631,0.04433848,0.054394014,-0.037188675,-0.039542895,-0.0056030573,0.022621505,-0.083630875,-0.062028416,-0.036234476,0.02070166,0.0023954252,-0.10374924,-0.03483112,-0.04108538,-0.02769485,0.022053506,0.042074032,0.04609012,0.09303488,-0.16174811,0.121937655,0.10467658,-0.36883968,-0.3929474,0.23891038,-0.008744362,0.0104183415,0.0058952207,-0.0021471677,-0.008845207,-0.010873538,0.0016204185,-0.005300566,0.031530898,-0.074814506,-0.0071120067,-0.05870038,0.05102356,0.071905054,-0.025506916,-0.036319822,0.048246555,-0.11005287,0.0019811105,0.10591016,0.09349048,-0.02910799,0.118828654,0.047749586,-1.6019354e-05,0.0009186099,-0.0002032851,-0.0036472473,-0.06329862,0.017980758,0.026695658,-0.035237942,0.019125622,0.020468092,-0.00955886,0.033611707,-0.016886303,-0.0020412132,-0.009200067,0.011646673,0.006753096,0.0071808523,0.022907024,-0.0008494489,-0.05686917,-0.04852499,-0.016621849,0.080960006,0.008672588,0.013564809,-0.0011005552,-0.00803945,0.016468937,0.012284509,-0.0040360736,-0.021023236,-0.009603806,-0.0048076245,-0.048114136,0.032054618,-0.05705627,-0.031893585,-0.025287665,0.011667647,-0.007222196,-0.013877371,0.008412919,-0.0036226765,-0.006762316,0.008100519,0.015409075,-0.00079001026,0.00301766,0.008897176,0.00466674,-7.425385e-05,0.02486229,-0.019695718,-0.027676236,-0.024387084,0.055038832,-0.0025005678,0.012751478,-0.013333473,0.0013914743,-0.00015634923,-0.0063445517,-0.013788293,0.016808337,0.046422116,0.015296784,0.021008763,0.028951587,0.038974293,0.018273406,0.058263015,0.007790226,-0.014104485,0.0031885924,0.00067263044,-0.010653408,0.0019561918,0.0014370431,-0.011808381,-0.0037101742,0.0033701174,0.0032268993,-0.0032332807,0.012540702,0.023023497,-0.029580653,-0.0038175604,-0.04530599,0.0029702948,0.010581705,-0.062015068,-0.0052326727,-0.006926892,0.009499513,0.042511486,-0.008544478,-0.022739831,0.0045759934,0.00028804087,-0.020990228,-0.014520656,0.024258664,-0.04606849,0.0067311237,-0.0019921646,-0.00065729185,-0.0075538256,-0.0038965105,-0.0034980136,0.0016302444,0.011780209,-0.005051662,-0.015302986,0.026852405,0.043381892,0.019666187,-0.011543097,-0.0213518,-0.025419306,-0.0022174031,0.00962448,0.0059783165,0.0022353567,0.02134968,0.01723076,0.0035351838,0.018730704,0.012855921,0.017860962,0.027324902,0.014782967,-0.012627018,0.013882802,0.014403923,0.028725164,-0.004764862,-0.021695524,0.001486323,-0.014819785,0.016764553,-0.015005006,0.012837112,0.020163612,0.02238505,-0.00883216,-0.010800216,-0.0030837099,-0.035835437,-0.0031682525,-0.00029875032,0.030596508,0.04608312,0.024416564,-0.003973084,0.028402202,-0.025796387,0.01785345,0.032627568,0.038307294,0.033837993,0.030351195,0.03382597,-0.026268754,-0.038769167,-0.015945317,0.05069917,-0.052170698,-0.012940607,-0.02379415,0.004837054,0.032686964,-0.018190272,0.007900735,-0.029477231,0.03306431,-0.0063335462,0.00951217,0.0023109172,0.008092584,0.004776443,0.0148658315,0.010498051,-0.010502961,0.03327773,-0.033855546,0.02081427,-0.02552005,-0.017703211,0.0011882687,0.015816437,0.016689131,0.0016395006,-0.0035501262,-0.008557572,-0.025553985,0.0031476158,0.0032696314,-0.0696635,0.040702023,-0.022204414,-0.025387783,-0.02926324,0.033735443,0.0029982736,0.030976381,-0.016314255,0.0065491176,0.0067113647,-0.05204827,0.001639772,-0.0074344156,-0.004466616,-0.021392718,0.009141811,-0.008758177,0.012406301,-0.00022362497,-0.0059115407,-0.008587898,-0.023915717,0.003235986,-0.004842836,-0.002507056,-0.0065045594,0.0070871403,-0.013370096,-0.01415129,0.029571123,0.0077798013,-0.016719058,-0.0056115924,0.014465817,0.009325523,-0.017125959,-0.0057560187,-0.023470147,-0.02725568,0.0125383325,0.0013550773,-0.014033432,0.013842811,0.0012049121,0.011472329,0.001607311,-0.026278093,0.0014713985,0.0018504161,0.1149391,0.059856832,0.01856226,-0.03582783,0.037522912,-0.016388807,-0.057956453,-0.028144905,0.0052075246,0.011321849,0.019442389,0.029895764,-0.099342376,-0.073080525,0.097085916,-0.054403443,-0.026149953,0.019256974,0.015181668,0.029217426,0.037756264,0.012334888,0.06439156,-0.05577452,0.018557087,0.006654192,0.0072971964,0.026641004,-0.030026358,0.0049427166,-0.04521423,-0.00029435227,-0.013447545,-0.0010357692,-0.01161779,0.010329664,0.0007000696,0.0026194481,-0.0012704455,-0.0057632797,-0.03432266,0.029732745,-0.0011156185,-0.0068209595,-0.022169644,0.016922694,0.024847178,0.08906959,0.09041432,0.092701465,0.009622155,-0.0031896303,-0.016974822,-0.111704014,-0.0108212745,0.0426771,-0.0923673,0.030946076,0.005028027,-0.07114089,0.039650097,0.01113996,-0.009967883,0.009234551,-0.0074442215,-0.001336832,0.022171222,-0.0029560376,-0.048958924,0.03361303,-0.047809552,-0.02146011,0.014307971,-0.043561075,0.0009114984,0.046941616,-0.006484219,-0.03734607,0.00064342655,0.03189294,-0.035664935,-0.06320925,0.011698361,0.021028398,-0.015053611,-0.004208447,0.0029837317,-0.033047497,-0.022180239,0.009754393,0.030592859,-0.078074634,-0.032529484,-0.008083253,0.102093905,-0.060824733
I,0.043541655,-0.023225456,-0.03340129,-0.061883632,0.022070978,0.056367,0.017944453,0.012674356,0.024467135,0.03954563,0.03657577,-0.026500653,0.029382741,-0.082500145,-0.081839725,-0.03533797,0.041760854,0.009321991,-0.06210301,-0.029387256,-0.028092118,-0.023321917,0.022375686,0.017680168,0.01011394,0.021736948,-0.025158966,0.012936931,0.15542246,-0.34624004,-0.3898786,0.16900155,0.024722524,-0.012233559,-0.005157176,0.039932974,0.0013808499,0.0076193986,0.0020430998,-0.0039232373,0.027348937,-0.059911285,-0.051572703,-0.05172953,0.027050663,0.033013843,-0.013871809,-0.019341724,0.014234367,-0.015875792,0.0036136776,0.00064870104,0.018876756,-0.0014165568,-0.0076699494,-0.0006789403,-0.00033191088,0.009105623,0.0021830518,-0.04289835,0.0069448054,-0.03480111,0.0036634165,0.005275838,0.026754549,0.053058542,-0.03030865,0.03367827,-0.027074251,0.007200009,-0.01296278,0.018997211,0.011292089,-0.010300296,-0.026833715,0.01836805,0.015458976,0.035040095,0.008369182,-0.051985815,-0.0029393984,-0.0045022485,-0.001730538,0.00682404,-0.010823611,-0.008729589,0.00440545,-0.011469135,-0.0015947154,0.009902452,0.029736202,-0.0100700185,0.008802135,0.01999774,0.009550844,-0.0125020435,0.00021420607,0.0017370088,-0.009530551,0.00014447318,-0.002921414,-0.015246768,-0.012228831,3.0634896e-05,0.009915823,-0.0112092635,-0.016743211,0.0016596385,0.00024449147,0.004869581,-0.0020400912,0.0053345435,-0.017554767,-0.0018781724,-0.0040147877,0.005034247,-0.0053339475,0.015861925,0.0057240915,0.0026939386,-0.0041303486,-0.0033588356,0.00044404244,-0.002112422,-0.014734246,-0.0196277,-0.009658856,-0.029031679,-0.015219371,0.0240575,-0.03263406,-0.019702362,0.014831713,0.00023532067,0.003794128,0.011175404,-0.00018404477,0.0077066617,0.0024520964,-0.002238574,0.012145459,0.004653698,0.006520055,-0.005169689,-0.011167961,0.0019038215,0.003607077,-0.014453981,-0.0010318152,-0.0003575117,0.00087785977,0.009550362,-0.0040015234,-0.010985215,0.004268967,-0.00087595085,-0.012597014,0.0011392285,0.0037950398,-0.014983642,0.05173534,-0.039720282,0.023736859,-0.02773066,-0.03598467,-0.03089288,-0.015745845,0.11432224,0.0058893794,-0.0038660218,-0.019032761,-0.025299683,0.032884106,-0.01169929,-0.017829487,-0.014229088,0.0022206581,0.014302755,0.0043313913,-0.002193134,0.032140836,0.025601497,0.0070712985,0.03413172,0.013544317,0.019781528,0.037189506,0.020732371,0.027625367,0.03687817,-0.013848928,-0.015015456,-0.024636673,-0.071398914,0.0017286052,-0.01372195,0.047840886,-0.013822923,0.03667169,0.04727748,-0.019140847,0.010490918,0.01448239,0.007190274,0.056036513,-0.0008785902,-0.0010174068,-0.025490861,0.021407174,0.010931238,-0.0017224295,0.011662924,-0.0113471635,0.007813307,0.01431497,0.017180074,-0.0037374063,0.0048352107,-0.006840354,0.009880125,0.00055844075,-0.017587416,-0.017995577,0.0042611337,0.0077687125,0.005545517,0.012620479,0.0062444396,-0.002505884,-0.0029703963,-1.937717e-05,0.010443588,0.003954253,-0.008946754,-0.0033070599,0.00013029623,-0.0029741565,-0.0051059444,-0.004117883,-0.005216324,0.0030759738,-0.002022819,0.0028160238,-0.0010266288,-0.0019782176,-9.9638404e-05,0.002145974,0.0020820936,0.0008894925,0.008164668,0.007844912,0.010816184,-0.0014509019,-0.0027203222,0.010185864,-0.008558577,0.0026185499,0.0042339433,0.0050412905,-0.004939969,0.0019754851,-0.00025557002,0.0043836776,0.0012548964,0.0062418156,0.0061451513,0.0056368276,-0.010086056,0.004653884,0.021687532,-0.009271473,0.007555978,0.0073760287,-0.0007901781,-0.0058797677,-0.0053832424,-0.01752576,0.0010315223,-0.0031744195,-0.00018109001,-0.0031328895,0.005815548,-0.016202249,-0.014276117,0.013474129,0.037441686,0.02039769,-0.05991706,0.0018735946,0.0097620115,-0.022103954,0.0049603437,-0.0058668987,-0.011108319,-0.0029302335,0.0137539925,-0.021319143,0.021069963,0.012028675,0.01833263,0.012892171,-0.016083675,0.018261662,-0.039229162,0.13184755,0.06881603,0.024426714,-0.046310805,0.0302728,-0.019363098,-0.06622491,-0.026309434,0.01991966,0.016852815,0.022231538,0.028265886,0.007539543,-0.04791122,0.020635694,-0.13625729,-0.037144493,0.0015434605,-0.008185807,0.022461286,0.027990842,0.0170143,0.059784606,-0.066233754,-0.02582028,0.076211795,0.0042394605,0.08062819,0.013005121,6.417725e-05,-0.0076526096,-0.022082552,-0.02868323,0.001297559,-0.028019091,0.0156107405,0.008242657,0.01070248,0.002172528,-0.025546283,0.015402856,-0.02074979,0.017844573,-0.010616878,-0.023206938,0.025206316,0.03794157,0.039627284,0.036441974,0.011812525,0.0053838757,-0.024172422,-0.0031889323,-0.034726344,0.0032715416,0.019670406,-0.06438711,0.029374665,0.0058976375,-0.0010337296,-0.0057448586,0.0034030739,-0.008431417,0.014091563,-0.0031738698,0.0012208453,-0.0038800694,-0.009652391,0.0005722141,0.0031589936,-0.0014359268,-0.0035494962,-0.005293171,-0.0005256801,0.005055384,0.00370142,-0.096104205,-0.021728978,0.07045926,-0.023641665,0.0292339,-0.0656546,0.0009067208,0.0047398214,0.0034240459,0.02027921,-0.004459825,0.031370927,0.013241467,-0.026531935,-0.02368088,-0.024840772,0.009169945,0.048060518,0.03426282,-0.07226922
L,0.038444754,-0.03380827,-0.048805088,-0.08966764,0.031497758,0.075182214,0.019920692,0.006928102,0.03892001,0.024642091,0.021588674,-0.026566742,0.041510165,-0.08845602,-0.10346684,-0.038021587,0.048015125,0.006494922,-0.11261071,-0.040028077,-0.050338365,-0.035125155,0.036041327,0.037619006,0.0030390313,0.0011208794,0.0020373957,-0.0030096679,0.13834801,-0.36862865,-0.40384153,0.20354533,0.013188547,-0.033441186,-0.020705884,0.03693111,0.009366396,-0.0023038618,7.0849e-05,0.010259022,0.023341885,-0.04978653,-0.05336775,-0.04406075,0.03757386,0.04133864,-0.02582209,-0.023532959,0.021870531,-0.024544442,0.0060343374,0.00034928258,0.029836971,-0.0022764024,-0.012958406,-0.0017069913,-0.011409795,0.014336364,-0.004318729,-0.0365419,-0.014811918,-0.006112338,0.00782468,0.0073440704,0.0032575633,0.02048359,-0.015819563,-0.00341018,-0.0115452865,0.016153893,0.006432846,-0.0020333717,0.02653597,0.0039850255,0.013495247,0.01954771,0.013177523,0.021457883,0.005261488,-0.032785457,-0.0075367903,-0.01357813,0.0007869727,0.0053119566,-0.021237934,-0.020554088,8.913855e-05,0.034095567,0.007906358,-0.00079325587,0.019391894,-0.0140393,-0.0073300195,0.0056156865,0.003950995,-0.015210908,0.0005702467,0.0034873094,0.010467857,0.0015498549,0.013284664,0.006816921,0.019692175,-0.0005812444,-0.0412737,-0.0018646731,-0.0050795274,0.0031576224,-0.004798499,0.018682342,0.00093451235,0.020916209,0.022454556,0.0014028087,0.0050038313,-0.005999988,0.005129804,-0.014953647,-0.0060723615,-0.0037767666,0.010054981,0.024391826,0.007068569,0.007836013,-0.011009827,0.0002861195,-0.008372015,-0.0016950944,-0.0051741,0.008241695,-0.011118936,-0.0067239343,0.0050547505,7.617267e-05,0.001306983,0.0037306775,0.002700349,0.0040784325,-0.0006380454,0.001158026,0.00480565,0.0032865913,3.5794053e-06,-0.0018008613,-0.0034948043,-0.002596837,-0.001662339,-0.006622352,-0.0010336369,-0.003455334,0.0041542994,0.005345228,0.0036949664,0.009426338,0.0058632204,-0.0037732373,-0.019837258,0.004111261,0.00261652,-0.020071603,0.037922252,-0.028346717,0.015378933,-0.023697654,-0.027745524,-0.022102127,-0.009236915,0.082074285,0.0008959082,-0.015364727,0.014051315,0.014461906,0.02813894,-0.011684358,-0.018426627,-0.016959058,0.0077157896,0.011116868,-0.0014856694,-0.006905477,0.025506686,0.018645812,0.008038689,0.030950094,0.015728436,0.02514465,0.06234009,0.036196955,0.021771783,0.01309996,-0.010417286,-0.018833555,-0.00964559,-0.023770148,0.0009444906,-0.008359345,0.016698454,-0.009471738,0.01093375,0.015187234,0.012699946,0.001968471,0.003973112,0.0036350237,0.019254565,-0.0011280035,-0.0029202704,-0.0033404988,0.032507204,0.017307729,-0.0040338314,0.019305164,-0.019560685,0.011942873,0.022896858,0.027839284,0.012603083,0.012273154,0.012375269,-0.008706919,-0.013680937,-0.027562419,0.0004769193,-0.017657466,0.022140676,0.031657223,0.005106897,-0.032959703,0.018595524,-0.012049183,0.036621634,-0.032566607,0.004834271,-0.00728478,-0.0019135315,0.00046111384,-0.009997464,-0.011603249,-0.011453793,-0.03259351,0.0061949776,0.0050240513,0.017700808,0.010185779,-0.0064112144,-0.0030607658,0.004257243,0.0043964954,0.0015900902,0.0017171354,0.002198426,0.0026097358,-0.008313527,0.0021364668,0.023601,-0.012401948,-0.016359868,-0.009977871,0.008216594,-0.024675492,0.0022373311,-0.015530978,-0.021512069,-0.01281296,0.0059120497,-0.030756366,0.0076990495,-0.010299519,-0.0040846844,-0.018207407,0.00982653,-0.0068213013,-0.0039047685,0.015110413,-0.002756702,-0.0056642885,0.028107826,-0.013573294,-0.010046491,0.0022623246,0.0005823014,0.0009334876,0.021025412,0.010123911,-0.041510034,0.0027850212,0.012327974,-0.05901089,0.012895545,0.016659439,-0.034539573,0.00014578989,-0.02353435,-0.0321128,0.007476473,0.0144249275,-0.04158392,0.039921127,0.011327533,0.03450285,0.008341346,-0.046037856,0.013425974,-0.017700607,0.07409227,0.03004494,0.026227554,-0.029334215,0.03104652,0.009091969,-0.037579905,-0.037524603,-0.00035664838,0.0050290436,0.010125865,0.005500265,-0.037648633,-0.025539076,0.03345314,-0.013621807,-0.03952727,-0.0077224737,-0.020058293,0.02422665,0.027212312,0.01763431,0.04818471,-0.062022023,-0.013740507,0.045163352,0.007007419,0.040211808,-0.006965698,-0.0039254143,-0.039663825,-0.018903686,0.0012717275,-0.00042973514,0.0064294892,0.010969178,-0.012498095,-0.007484292,-0.009932043,0.02385267,-0.01195683,-0.004116889,0.040701915,-0.038538296,-0.009621726,0.026789,0.005286559,0.01720127,0.11054577,0.052897405,0.014964424,-0.057115365,-0.013694626,-0.11183991,0.0035889866,0.057581395,-0.080539584,0.047177568,0.0045807017,-0.011381684,-0.006342611,-0.00015652123,0.008001035,-0.007611744,-0.017985359,0.01725938,-0.016172575,-0.017627971,0.006192263,-0.0041151536,0.002202366,-0.0065288125,-0.026938224,-0.016358955,0.029551677,0.024272554,-0.06842703,-0.033099215,0.044429474,-0.020859163,0.030159907,-0.077392235,-0.036466096,-0.0028566793,-0.008670891,0.038932066,-0.0056634923,0.04534311,0.0331624,-0.052198328,-0.039510414,-0.047019128,0.00342846,0.055413697,0.022907587,-0.116246626
K,0.066366516,-0.017630106,-0.012880207,-0.030254131,-0.05390362,-0.0027242608,0.030107278,0.07494616,-0.045433298,0.056013487,0.04102379,0.03223609,-0.01488309,-0.0053599225,0.017979218,-0.000985307,0.039430127,0.01216865,-0.03729705,-0.026889319,-0.016442416,-0.017784497,0.013946944,0.008837611,0.06103855,0.04775334,-0.10268165,0.09226882,0.13252252,-0.3497384,-0.38848808,0.2279161,0.01442556,0.034641076,0.02423712,0.0013035404,-0.016607143,0.012578276,0.0054537356,-0.021681707,0.0061316383,-0.013237956,-0.007747001,-0.010824375,-0.00027945108,0.019057283,0.011183585,-0.0047758655,0.0082490835,-0.021180652,-0.001764037,0.02518649,0.014872781,-0.0057705464,0.030981084,0.01257471,0.0017596326,0.0024197479,-0.0014853143,-0.0055328235,-0.028299017,0.017483536,0.01072273,-0.050807822,0.02493258,0.04927909,-0.029715328,0.031464677,-0.030022988,0.014657007,-0.0060110614,0.013197783,0.012064219,-0.0062003313,-0.012640328,0.014668434,-0.017192436,0.0043001687,-0.0017954219,-0.0020576946,0.009119733,0.013123192,-0.0009964271,-0.009978264,0.013996928,0.00793114,-0.0066630226,-0.009196518,-0.017969057,0.021969348,0.01879479,0.014200338,-0.029740047,-0.03484172,-0.023314158,0.028661959,-0.013843683,-0.023761407,-0.00097455917,-0.0030855085,-0.019552343,0.0046869237,0.00025571528,0.003954687,0.07130497,0.0074777375,-0.01021451,-0.000497102,-0.004692196,0.021230718,0.00070050167,0.023249533,-0.015917256,-0.0033842297,-0.0042777085,0.0051554344,-0.006825833,0.022007434,0.0068473197,0.0019944576,0.0043855966,0.0008758125,-0.0021613552,-0.0028393078,-0.012789143,-0.0344815,-0.006109009,-0.048916876,-0.0033499573,0.0022066743,-0.053161047,-0.031951662,0.0077011725,-0.007315173,0.01553693,-0.015913755,0.017416393,-0.0067044105,-0.0138120055,0.017296873,-0.008901763,0.013621791,-0.03907765,0.0050186324,-0.028561434,-0.0033639409,0.002229609,-0.04252511,-0.0044482634,-0.009954306,0.012280322,0.030640729,-0.007916639,-0.02140182,0.005515857,-0.00046723385,-0.020135183,-0.009975891,0.01923953,-0.03921715,0.009922746,-0.005967772,0.0016450494,-0.009121599,-0.007044482,-0.0062868586,-7.6644115e-05,0.019341633,0.0020201555,-0.0058274874,-0.002390964,-0.0035719078,0.0108974045,-0.0060573313,-0.010830861,-0.012487866,-0.0037684515,0.0045937514,0.005041164,0.003568062,0.009795131,0.00860397,0.00054621283,0.0065129516,0.0033953302,0.0041311323,0.0035461877,0.0017320213,-0.016547618,-0.004478122,0.009644537,0.018012982,-0.022346634,-0.069862604,0.0021513265,-0.0082478775,0.047566794,-0.0073744105,0.03785527,0.04693519,0.026253568,-0.008777851,-0.011182272,-0.002866865,0.010595356,-0.0016311159,-0.0045767655,-0.00039190668,0.045541506,0.023652058,-0.0035216864,0.026635379,-0.024442242,0.017269172,0.03138906,0.036982983,0.02725725,0.018491926,0.030674094,-0.025106391,-0.029334148,-0.0077288044,0.044991713,-0.042708997,-0.00486232,-0.014432182,0.011109986,0.028907454,-0.015927594,0.00408837,-0.023748344,0.031606946,0.00097547367,-0.0071483226,-0.004425138,0.008530294,0.010487255,0.016672647,0.014010544,0.018060088,-0.008761237,-0.004013681,-0.020940822,-0.010161494,0.008183678,0.0032635622,-0.0074208346,-0.0062551196,-0.00017853694,0.005013532,0.0032853899,0.0011095077,0.024951091,-0.008788629,-0.06920629,0.03384602,-0.026533188,-0.017282398,-0.016335601,0.013833364,0.01712089,0.0357465,-0.012443214,0.008897073,0.02272222,0.014151258,0.009555328,-0.030982109,-0.007713901,0.018370617,-0.016389258,0.008163741,0.027046202,-0.0053752144,-0.019623451,-0.015491025,-0.06744301,0.007654863,-0.009127872,-0.0038202363,-0.0038572217,0.0011786139,-0.032885805,-0.01847144,0.004475138,0.035532977,0.011195681,-0.07995009,-0.0059179654,0.010735815,-0.020294456,-0.001375439,-0.0035084493,-0.020612294,0.011845684,0.011272569,-0.026399108,0.024470534,0.0072868974,0.021737205,0.0043762606,0.008581312,0.0022780017,-0.013008342,0.14955762,0.074853085,0.032413337,-0.054368842,0.038392756,-0.014593539,-0.07542288,-0.03782623,0.029482266,0.0235361,0.029822048,0.045780346,0.0550393,-0.00524802,-0.009548149,-0.09939803,-0.0879184,-0.006536293,-0.042841993,0.03517967,0.050323498,0.02646608,0.12136066,-0.13551283,0.0069950963,0.031078633,0.0078361,0.04799223,0.00424107,0.0027263428,-0.01657435,-0.019866865,-0.05011453,0.0007939409,-0.04522064,0.035393756,0.006004869,0.013325124,-0.0027658544,-0.028595958,-0.012291939,-0.0034493557,0.03432195,-0.030478576,-0.0403971,0.019736134,0.06961323,0.10286418,-0.01789681,0.028126454,0.008448817,0.024348443,-0.010086146,-0.019128338,0.00036888276,-0.0063348133,-0.035095643,-0.015236874,0.0033877578,-0.04780027,-0.011504852,0.010005869,-0.019556165,0.032910436,-0.0039300113,-0.0055606305,0.014508967,-0.012584024,-0.0339039,0.030250672,-0.035718203,-0.018171478,-0.00054786896,-0.016995775,0.004376158,0.023810761,-0.08198408,-0.02597457,0.075382285,-0.013606391,0.024561243,-0.060031,0.013552428,0.0073940195,-0.00043871996,0.02307931,-0.0027165213,0.026476983,0.008404452,-0.012453807,-0.016360776,-0.046982415,-0.003935461,0.121788435,0.04400639,-0.12346157
M,0.08563762,-0.05599631,-0.07331358,-0.13984378,0.020240605,0.10640936,0.043394327,0.04560295,-0.016231857,0.08589706,0.07441066,-0.0071389102,0.04643532,-0.11368312,-0.13053182,-0.046790794,0.03421832,0.0053398586,-0.08653161,-0.03148767,-0.037422407,-0.02689325,0.025687128,0.029990723,-0.028916206,-0.0035891987,0.030415114,-0.037367277,0.11461411,-0.34721494,-0.37421364,0.20664887,-0.014194591,-0.03350606,-0.023894101,-0.008260588,0.01779642,-0.008305397,-0.0053322343,0.022981312,0.013580065,-0.025650458,-0.0669223,-0.026674263,0.02652476,0.027869813,-0.018578708,-0.016435673,0.013443,-0.012428095,0.0033530248,-0.003379909,0.015767615,-0.00012026586,-0.012597252,-0.0023097727,-0.006858317,0.013978952,-0.0037038978,-0.039171755,0.014074082,-0.03410751,9.433928e-05,0.012832361,0.026703522,0.062452585,-0.038396437,0.028491654,-0.03285451,0.018458,-0.0072628306,0.015915526,0.03428377,0.006968023,0.02440691,0.024916766,-0.018420454,0.026895473,0.002306683,-0.03285335,0.0032635196,0.0022942338,-0.0011900971,-0.004156085,-0.004599446,-0.0096248565,-0.005232705,0.010620805,-0.008267599,0.03793278,0.10262249,-0.02869851,0.018882295,0.014830934,0.01217377,-0.012787254,0.0051627154,0.014139495,0.0138337575,0.006673948,0.026728148,0.015763618,0.022397416,0.0020269416,-0.053094804,-0.0028248571,0.025439898,-0.0036213472,-0.0025803258,0.012508785,-0.0013373288,0.014492181,-0.0049491976,0.0005066727,-0.00056395587,0.0010094547,-0.00013947075,-0.0009881852,0.0003601762,0.00090322096,-0.0023024955,-0.008773981,-0.0036054377,-0.006393094,-0.021122333,0.0038942818,-0.01602854,0.0006520746,0.0011437754,-0.0033617883,-0.02172633,-0.012831892,0.0022578323,-0.0049354,0.007652904,-0.010388069,0.008092079,0.005694669,-0.004331561,0.0082275,-0.019246811,0.0036448855,-0.032901745,0.00883184,-0.013993622,0.001181708,0.0035003936,-0.01888758,-0.0015737911,-0.0017188234,0.0026008983,0.012843541,-0.0019489707,-0.005588713,0.007790308,-0.0032443397,-0.007125946,-0.00590693,0.010741689,-0.017213296,0.003229586,-0.0025269012,0.0021026223,-0.00040907724,-0.0015803153,-0.0020080134,-0.0017982342,0.007734171,0.002628555,0.0036616449,-0.01804738,-0.01798738,0.036352266,-0.010978566,-0.015082821,-0.008320595,0.004639001,0.0077711726,-0.0005519983,-0.0042861216,0.017818516,0.013209826,0.0053334516,0.021196837,0.007775353,0.012220652,0.030060401,0.017539326,0.021592833,0.028241457,-0.010194038,-0.01134158,-0.029880995,-0.097844645,0.002698694,-0.010017225,0.06596056,-0.007917962,0.054175567,0.06676155,-0.010624037,0.01723523,0.02574391,0.017146071,0.08240152,-0.00078176986,0.001040333,-0.040999226,0.020029152,0.009419953,0.0028817109,0.012766036,-0.0055347537,0.008685236,0.013967448,0.012251661,-0.024824642,-0.0024749981,-0.033562467,0.03493631,0.017939718,-0.04244129,-0.063684694,0.02649646,0.017841905,0.02756846,0.0021828148,-0.03188406,0.018665291,-0.010021431,0.033943906,-0.0299686,-0.0034170968,0.02169689,0.014151309,-0.02184189,-0.008802809,-0.006667297,-0.007912616,-0.03232136,0.02383314,0.0017308228,0.04539238,0.015655844,-0.019787353,-0.0062145037,0.01751859,0.01592071,0.0025420631,0.009619546,0.00866197,0.010338775,-0.012218948,0.009878005,0.10795955,-0.0497905,-0.012722843,-0.005177611,0.02060037,-0.031028036,0.00982488,5.142192e-05,-0.0047843624,-0.0014510374,0.016648572,-0.011144628,0.0068386807,-0.022768008,-0.0075815637,-0.015116643,0.0033330673,-0.0045839073,0.017330235,0.015852077,-0.027011653,-0.018025521,-0.02564336,-0.013648493,-0.022846865,-0.0005848701,-0.0060162684,-0.010006776,0.0104303835,0.0156122185,0.008661311,-0.009410791,-0.0756659,-0.07186992,0.023605706,0.0024984349,-0.008603965,0.0030439792,-0.021434322,-0.0037856025,-0.011297565,-0.0005060677,-0.0029735141,0.0031913363,-0.0077997893,0.0010355865,0.014367964,-0.04694321,0.024153512,-0.039677076,0.0639313,0.039290614,0.0006077206,-0.015996994,0.014993551,-0.023100441,-0.03202244,-0.0015624115,-0.004003846,0.003410384,0.008553141,0.004316942,-0.037094507,-0.03245294,0.022424448,-0.026289888,-0.06867788,-0.015776135,-0.040993147,0.025968948,0.0330404,0.025834052,0.083946675,-0.105159305,-0.027891984,0.06664306,0.0033015637,0.06197813,-0.01593268,-0.0005339278,-0.0724011,-0.034462176,-0.014986736,-0.0010907685,-0.007736818,0.024069078,-0.012406907,-0.004039364,-0.012036349,0.017764565,0.00342236,-0.0150854215,0.030507337,-0.02450546,0.010910548,-0.054443236,0.009980725,-0.010177324,0.05512051,0.019364595,0.023303922,-0.05583685,-0.014504365,-0.079853535,0.01794573,0.037170775,-0.065294065,0.022304926,0.0054128915,0.004136479,0.0013806886,0.013788871,0.00059253525,0.0085014,-0.027777068,0.027168741,-0.02439064,-0.02567281,0.0039996468,-0.0053921263,0.0010713422,-0.011515142,-0.04127352,-0.02314205,0.040361274,0.032298107,-0.04848608,-0.034524236,0.003961463,-0.044945233,0.0023665796,-0.118411034,0.014102231,0.0064812014,-0.014022881,0.020311505,-0.008043831,0.025696851,4.2987813e-05,-0.042500723,0.015001097,-0.08582735,-0.015292196,0.0007812988,0.0283577,-0.073595144
F,0.061630134,-0.023185762,-0.0297895,-0.057100486,0.000636917,0.044381823,0.02467502,0.036073864,0.040605757,0.03497129,0.028343128,-0.024456028,0.019275261,-0.054806452,-0.06068628,-0.022729952,0.04444527,0.0067238454,-0.10377586,-0.038354468,-0.04588815,-0.0324641,0.03223817,0.034990456,0.02112689,0.010856604,-0.032868166,0.03456671,0.17244275,-0.3351589,-0.39158118,0.16306026,0.019995835,-0.021604024,-0.0118522085,0.047916695,0.0016995651,-0.0020937251,0.002053569,-9.4154515e-05,0.04230353,-0.0923373,-0.08023526,-0.07891925,0.033025246,0.033667963,-0.028015256,-0.017933944,0.02695045,-0.03476663,0.004039644,0.01248621,0.03596854,-0.0044832705,0.0020761113,0.005088826,-0.008500662,0.015577495,-0.0030571776,-0.046629075,0.0033986585,-0.030881397,0.004751461,0.00011006557,0.031211367,0.054711517,-0.029563999,0.043257635,-0.02805896,0.0010703804,-0.018296923,0.023719452,0.034766205,0.003372132,0.014615253,0.027443474,0.033548564,0.03463452,0.010367527,-0.056118842,-0.007982239,-0.015094131,0.00077788904,0.0052022613,-0.025078557,-0.02519324,-0.0010112715,0.041379463,0.006808949,0.0066779656,0.04028011,-0.020049777,0.016155198,0.0071569225,0.005539808,0.00031439622,0.0050481744,0.010527324,0.0017290897,0.0014908086,0.012433896,-0.0068958574,0.00606109,-0.0023443107,-0.01705463,0.0062127365,0.008705451,-0.00028124903,-0.0027162016,0.017866464,-0.0026701144,0.020040251,-0.005148177,-0.004942438,-0.0016297452,0.0028431981,-0.008763605,0.029639477,0.0075472556,-0.001565095,-0.0010377584,-0.0009498694,4.5512676e-05,-0.00077431084,-0.011249492,-0.009138958,-0.007831848,-0.014241985,-0.0052920403,0.006894033,-0.031134218,-0.018904941,0.006420757,-0.002468611,0.0075124213,-0.00410205,0.0098643135,-0.0031395885,-0.007605197,0.010149341,-0.017109195,0.0064951647,-0.03585417,0.008101397,-0.023059942,0.0015138332,0.005502966,-0.031424735,-0.002728014,-0.0033748145,0.0047756764,0.021470647,-0.0036645422,-0.01001702,0.007068822,-0.002391543,-0.018084401,-0.0055312966,0.013216104,-0.03073094,0.022223001,-0.01782361,0.009264074,-0.013785518,-0.016583031,-0.014584904,-0.0061038863,0.048236534,0.005292993,-0.0019056605,-0.008533988,-0.023804203,-0.007905447,-0.0033184,-0.009800569,-0.01895604,-0.009506159,0.011974922,0.013062873,0.008808498,0.025732344,0.022912107,0.001397385,0.018243704,0.0028357443,0.004785305,0.013241614,0.0076664034,0.021909643,0.034305736,-0.0051701036,-0.004100095,-0.022066789,-0.06628289,0.0018751868,-0.0073024165,0.04464663,-0.0066857175,0.035135817,0.043302312,0.018499358,0.003634963,0.0068732672,0.0068544936,0.043351203,-0.0036124284,-0.0027870047,-0.0061824396,0.056982208,0.030064695,-0.006204356,0.03321936,-0.032870676,0.021148786,0.03949694,0.047918223,0.015640784,0.018892521,0.013525791,-0.008323132,-0.0097243665,-0.02125725,-0.0054935743,-0.008437224,0.019187393,0.018535538,0.020899206,-0.0016882883,0.00260797,-0.00859813,0.0138188265,0.0033671868,0.005140337,-0.016413476,-0.008364714,0.012188886,-0.008333593,-0.010592739,-0.009942392,-0.022715574,-0.0030003975,0.012303822,0.00876505,0.014593123,-0.0009500481,-0.0026052403,-0.0012869982,0.00013095755,0.0038946425,0.026770355,0.024008403,0.028183224,-0.04239867,0.010884634,0.03678788,-0.018889563,-0.0025158091,0.0039498378,0.018027762,-0.02918954,0.0029769572,-0.016891692,-0.0048187966,-0.00801092,0.005499284,-0.0028246045,0.015436372,-0.014100357,0.007703743,0.010350998,0.0006929865,0.002632736,-0.0035502918,-0.0030979556,0.001448244,0.003540955,0.0012785335,0.00087284,0.0033492872,0.0014632127,-0.009816329,0.028880564,-0.020205138,-0.039214917,-0.007523404,0.005501209,-0.0021148766,-0.030482044,0.0020304243,0.006294889,-0.011404064,-0.003367092,-0.008672438,-0.016670633,0.009879323,0.003341132,-0.0064810105,0.007218815,0.0086103855,0.0063582575,0.011510487,-0.043470617,0.01788919,-0.029092383,0.12065106,0.065568395,0.015268112,-0.036829624,0.034806196,-0.023464775,-0.06087324,-0.022407971,0.012991118,0.015922436,0.023084797,0.030493554,-0.08556246,-0.06641191,0.07217472,-0.05020648,-0.04930499,-0.00399645,-0.030078793,0.023861036,0.033495665,0.008506597,0.0590723,-0.06429375,0.0073850597,0.027690914,0.010189584,0.037670117,-0.0068609146,0.0025425716,-0.02933533,-0.017207751,-0.026584491,0.00034339423,-0.023244718,0.020451335,0.0014057026,0.0060987524,-0.0029346263,-0.011893921,-0.005514669,-0.0069903745,0.031036891,-0.027739031,-0.023700511,0.021104932,0.037079647,0.056222342,0.076515116,0.036417924,0.004967077,-0.032221958,-0.0059345313,-0.06771536,-0.002125558,0.036902267,-0.08099502,0.04299021,0.005212033,-0.00982351,0.0107451035,0.002601431,-0.016619964,0.018701773,-0.009678716,0.007237231,-0.0013735058,-0.009159668,-0.010425949,0.0069882856,-0.011957818,-0.00910105,-0.004002617,-0.014960498,0.008235749,0.015577232,-0.02647976,-0.04280213,-0.008464185,-0.035090033,0.019891014,-0.040287446,-0.012247951,0.0036116368,-0.0104472935,0.014918396,-0.004072951,0.009257534,0.005400858,-0.016759891,-0.0008308184,-0.027597988,-0.042692505,0.038243786,-0.012513401,-0.021667726
P,0.063701116,-0.042165544,-0.055090323,-0.10303993,0.0037664536,0.069088176,0.031574953,0.039954513,-0.028940886,0.03568532,0.037206795,-0.0057052583,0.022768075,-0.06407769,-0.06727296,-0.026928116,0.035264947,0.0041449387,-0.11386002,-0.03852461,-0.048440576,-0.032811332,0.030730214,0.042182606,0.027980493,0.03509472,-0.06006454,0.046867613,0.12954648,-0.37168777,-0.405225,0.23244643,0.02707218,-0.015966503,-0.008745986,0.040973343,-0.00230099,0.009634261,0.00654276,-0.0013657835,0.017957171,-0.035530288,-0.05316459,-0.03409948,0.011428016,0.04551154,-0.0037377067,-0.007888619,0.025746968,-0.02814594,0.0052803825,0.002506375,0.03184294,-0.002009953,-0.011526222,0.000120563,-0.0023293437,0.014005534,-0.008817696,-0.023790674,-0.09306995,0.10174873,0.025067406,-0.13028373,-0.022265822,0.021752335,-0.029436635,-0.06389918,-0.011869689,0.0615893,0.04251193,-0.031751066,0.023544773,-0.016766263,-0.03871061,0.03210579,-0.04371778,0.02450731,-0.0017346556,-0.023789354,0.015728595,0.016946793,0.0023628504,-0.030917399,0.016261037,-0.0035968155,-0.027587172,0.07256356,-0.0116728665,0.05328344,0.14228196,-0.0388681,-0.04331843,-0.027001282,-0.012979824,-0.009044277,-0.01921994,-0.022322744,0.046154078,0.006150823,0.026089389,0.06150455,0.07936342,0.010131447,0.025498519,0.07030462,0.0518722,-0.003762194,-0.014310546,0.04175716,0.009089419,0.04602754,-0.039540682,0.0058585517,-0.009477109,0.008440182,0.0067925616,-0.025036372,-0.0014760711,0.012816025,-0.0016048327,-0.033951186,-0.017407339,-0.021022385,-0.009660653,0.013814196,-0.007948637,0.015719827,-0.014583338,0.023377433,-0.030116485,-0.017699737,0.016060581,-0.0015515969,0.0035843733,0.011611403,0.014180122,0.016130777,-0.0054823295,0.010168915,0.009091519,0.0215187,-0.031187091,-0.0025069255,-0.015496987,-0.0047935345,-0.0014372584,-0.025015092,-0.00303938,-0.00831806,0.010044897,0.018763311,-0.0014703941,-0.0042990223,0.00740482,-0.0030569017,-0.02165214,-0.008046592,0.01949677,-0.038726553,0.03323897,-0.023241226,0.012620368,-0.021202862,-0.02326897,-0.018670836,-0.0070719793,0.071199894,-0.002387999,-0.016207598,0.017893244,0.031586472,0.036833186,-0.010977359,-0.016289957,-0.0103776455,0.014301302,0.007816931,-0.0085224435,-0.012990036,0.018900728,0.011545069,0.009536162,0.029110303,0.018012282,0.029007152,0.073707305,0.043082736,0.012492415,0.014975819,-0.0094728535,-0.010600343,-0.034672957,-0.1117537,0.0030727654,-0.008620123,0.075279705,-0.006203377,0.06168567,0.075203046,0.033560656,-0.008494406,-0.009694054,-0.0012972038,0.080392525,-0.0022295166,-0.007989697,-0.03120421,0.10927486,0.057569887,-0.013005502,0.061979502,-0.06378944,0.03987071,0.07481411,0.0924325,0.04702872,0.053873286,0.0435968,-0.027464885,-0.019841166,-0.0061852913,0.023423783,-0.02343916,0.016230734,0.018654732,0.01099448,-0.011885382,0.0070218067,-0.008095215,0.018658953,-0.009943762,-0.0007763053,-3.225965e-05,-0.0010888657,0.0114754345,-0.008656415,-0.00818658,-0.00864312,-0.03361404,0.030283058,-0.01696303,0.036205,-0.0049918937,-0.019845348,-0.0029423123,0.016716493,0.016354885,0.0014363698,-0.0075920355,-0.009748812,-0.02155775,-0.05687893,0.017685084,-0.054527406,0.03244731,-0.011692889,-0.012369482,-0.018620318,0.008020359,-0.00888753,-0.018197002,-0.028300455,-0.01625221,-0.005224691,-0.029136071,0.0023950133,0.005518902,-0.0030216647,-0.040833026,0.023002733,-0.015442185,0.009810878,0.0044248686,-0.0057610855,-0.008894577,-0.012425151,-0.0010293671,-0.007156202,-0.002033682,-0.006385471,0.006871214,0.011326974,-0.0004948984,-0.075627506,-0.07777431,-0.02410378,0.06882429,0.009762404,0.008053697,-0.014881716,-0.0035138861,-0.016415577,-0.020836245,0.00933658,0.0030258545,-0.019315574,0.018862117,0.005511567,0.016200861,0.00043598353,-0.007874188,-8.010935e-05,0.0014111279,0.022478009,0.006667984,0.012949291,-0.011566279,0.0089831045,0.008200463,-0.011305284,-0.01575485,-0.0052653793,-0.0033747468,-0.0021444794,-0.0049649943,-0.10284994,-0.04038539,0.06377399,0.044884782,0.03953727,0.048116732,0.1346634,0.038008027,0.021656735,0.059410587,0.06072273,-0.057105724,-0.015203478,-0.0019836363,-0.009177151,-0.0070148944,-0.016773138,0.0046260855,-0.047726396,-0.019157434,-0.022553723,0.0022699002,-0.03218612,-0.009430969,0.028969694,0.022344356,0.019879362,-0.06283934,0.061823092,-0.044933043,-0.030650679,0.043333825,-0.026102219,-0.0075454675,0.06607307,0.05646326,0.17167136,0.10425905,0.029849255,-0.0799447,-0.028688377,-0.19654596,0.0063139815,0.091801465,-0.08361272,0.04555687,0.0014641994,-0.05150807,0.052022777,0.007590494,0.01984302,-0.03204229,-0.017127877,0.01684316,-0.009559833,-0.007940631,-0.0022334813,-0.0022521173,-0.0032932211,-0.005987955,-0.03136519,-0.023804888,0.035405077,0.03650317,-0.04342642,-0.05889008,0.02794032,0.043262944,0.023703303,-0.1066583,0.03693109,0.018859502,-0.024969636,0.008846707,-0.005848533,0.03930295,0.010308154,-0.03243011,-0.019252073,-0.038758386,0.03255593,-0.073873565,0.050873205,-0.004250565
S,0.0136182215,-0.0051913452,-0.002423668,-0.008112096,-0.011048313,0.0026328806,0.008248435,0.01778064,-0.02539638,0.021252673,0.008073182,0.03496079,-0.0044950764,0.029237164,0.036469698,0.009177139,0.01681556,0.003315783,-0.007153912,-0.0058129556,-0.0056023337,-0.0046886704,0.0070787612,-0.0009212149,0.06486464,0.0020190536,-0.05095389,0.068451144,0.14098889,-0.36401388,-0.40617758,0.2372707,0.009617304,-0.041338194,-0.02624198,0.043361165,0.009148457,-0.009644228,0.00048509712,0.013625869,0.012513842,-0.028991792,-0.008410553,-0.02329533,0.045866907,0.049411144,-0.033622075,-0.027490126,0.0441157,-0.08043712,0.009505394,0.05559355,0.078989215,-0.018593704,0.049314503,0.022386845,-0.041485254,0.029819489,-0.015287339,-0.048118357,-0.064636394,0.047316387,0.020808425,-0.03799647,-0.027543262,-0.035752293,0.01631923,-0.045075137,0.021052035,0.00657825,0.018899657,-0.021525556,0.009603052,-0.011579123,-0.027898192,0.015981086,0.024622057,0.0061181122,0.0043229344,-0.014139108,-0.007133882,-0.01057243,-0.0028493041,0.012313548,-0.025186945,-0.022610305,0.0063039036,-0.008876376,0.011659461,-0.0048531867,0.020442108,-0.020934839,0.011346677,-0.03006215,-0.011500314,0.031817134,-0.01432668,-0.022557717,0.018436454,-0.0024588124,-0.0024768491,0.021050796,0.03451666,0.002403366,0.05003907,0.07286018,0.04618174,-0.0031451385,-0.012842806,0.043346304,0.0065855235,0.046938837,-0.0568855,0.0017933889,-0.014310429,0.014227726,-0.0015936206,0.0030994068,0.007191525,0.014775089,0.0024861642,-0.0060652094,-0.0050401837,-0.009270197,0.0057103713,0.021112308,0.0032090272,0.028409077,-0.012144748,0.016425231,-0.07471793,-0.04442822,0.01870747,-0.009746693,0.018879846,-0.009967937,0.012377787,0.024846997,-0.00079513615,0.0029035667,0.032373846,0.035153747,-0.028251747,-0.012079782,-0.046176016,-0.0036191207,0.0057044593,-0.06731849,-0.006966617,-0.013448914,0.016750596,0.047420483,-0.002538759,-0.006340423,-0.0029310407,0.002103764,-0.034499,-0.005115566,0.01994469,-0.05161293,0.03881681,-0.028998062,0.01442457,-0.026448281,-0.029185578,-0.02327183,-0.008197901,0.0828209,-0.0012251,-0.023472358,0.03543007,0.035060998,0.010407957,-0.006924079,-0.011797549,-0.013863133,0.0011214478,0.0061363187,0.0018076284,-0.0008417645,0.013790909,0.010653179,0.003190549,0.014146996,0.010768696,0.016168356,0.03405515,0.019438962,0.008421091,0.034016702,0.00069701346,0.010945969,-0.031452782,-0.10183935,0.0033388268,-0.018345019,0.069907255,-0.017239315,0.055577435,0.07121543,0.038631648,-0.011025982,-0.013294411,-0.0032277564,0.030044511,-0.0030891367,-0.0052233334,-0.005834177,0.090327896,0.0471237,-0.010699146,0.050238375,-0.05270684,0.032601185,0.061217126,0.076225854,0.04581221,0.051573455,0.043901622,-0.026142435,-0.020970395,-0.010601579,0.03847159,-0.040137157,0.011570952,0.015715785,0.0038556976,-0.014576756,0.007962253,-0.00612336,0.01644641,-0.013978747,0.010438102,-0.011393895,0.0003320538,-0.019624893,-0.010093776,-0.014950757,-0.013320993,-0.028513266,-2.3565315e-06,-0.007091608,-0.009354355,-0.009454118,0.0018778875,0.0021870865,-0.0017349441,-0.0002850612,0.0022791836,0.018879442,0.016723916,0.019069832,-0.0039467695,-0.0044670906,-0.0030342552,-0.0042209905,-0.0033005967,5.4319742e-05,0.011875811,-0.02394806,-0.0027238012,-0.023653574,-0.011877079,-0.012680837,0.002591278,-0.03913538,0.017973006,-0.01135519,0.012906826,0.023473613,-0.002630423,0.0059651616,0.0040271888,0.0047450447,-0.010226729,-0.006436705,-0.0077674314,-0.006441936,-0.0073237102,0.0026342147,-0.00616003,0.028569112,-0.025088117,-0.04157683,-0.035967074,-0.012247565,0.00085523754,-0.020370943,0.010299851,0.015950615,-0.034421977,0.0024784496,-0.019633902,-0.027433017,0.0032421185,0.016348612,-0.035568018,0.03567622,0.020266393,0.03090211,-0.0007586836,0.004943296,-0.003176775,0.0034204668,0.06081488,0.021611506,0.028030962,-0.02809527,0.023214381,0.014471845,-0.030638361,-0.035504624,0.0062269275,0.00739336,0.010779817,0.0091382805,-0.009168649,-0.013916913,0.02002476,-0.026740417,-0.027870258,0.013225184,0.022648603,0.033923212,0.035803415,0.029615914,0.071835116,-0.077025786,-0.033401154,0.08273598,-0.0013899137,0.09285823,-0.028042667,0.005528635,-0.077416554,-0.02854526,-0.025458775,-0.0004038486,-0.025916485,0.012559028,0.00842948,0.010573087,0.0032211815,-0.025297495,0.032197226,-0.031876266,0.00060065126,0.010954406,-0.002357688,0.009698053,-0.013892725,0.0378186,0.14631617,0.09590124,0.005396149,-0.034756467,-0.014299082,-0.1357336,-0.014623246,0.06703809,-0.11268521,0.07759206,0.0034614739,-0.04265421,0.037170216,0.005744448,0.0040787756,-0.009972926,-0.007849159,0.008668789,-0.005412307,-0.0030023938,0.0011802753,-0.0033976545,0.0003857269,-0.0018963029,0.004837734,-0.020426748,0.0061000213,0.022164933,0.005844588,0.01221069,0.0020331172,0.015379078,0.07151122,-0.09401735,0.007564975,0.018500028,-0.02830619,0.018215459,-0.005307186,0.06542482,0.029688584,-0.030818682,-0.024215467,-0.017900167,-0.024928857,-0.023295121,0.029268026,-0.024579706
T,0.037681367,-0.004607245,-0.00025639895,-0.0051175924,-0.023048218,-0.0017955547,0.015048898,0.036739897,-0.024342177,0.02014039,0.0021895538,0.046127494,0.017244892,-0.025304757,-0.012757187,-0.015668917,0.0034291227,0.0042104498,0.028596077,0.0023751126,0.012575006,0.0050992887,-0.006913873,-0.012396354,0.030336048,0.04424882,-0.08122856,0.06339779,0.09320326,-0.39571044,-0.4090884,0.2704272,-0.012111577,-0.005319453,-0.0047291126,-0.009111182,0.0027172272,-0.008647485,-0.001968437,0.0060055433,0.002794965,-0.00835706,0.010395903,-0.0057483646,0.010864341,0.011604013,-0.0041121906,-0.008606822,0.010583718,-0.027509686,0.0016635592,0.02757584,0.024108881,-0.008137631,0.03134511,0.01194001,-0.004715038,0.0015365202,-0.0012351732,-0.00045466112,-0.021973861,0.024983943,0.0057652197,-0.026494525,-0.009114949,-0.013518822,0.006380537,-0.013918578,0.006655444,0.0021746035,0.0068671545,-0.00777551,0.0035091448,-0.00035305164,-0.00019659041,0.0029399367,0.0030000412,0.009239516,0.0020885938,-0.013220522,-0.0074854256,-0.010252363,-0.0021814841,0.013470488,-0.019478122,-0.01418457,0.008946836,-0.017178841,0.006622464,-0.0018590771,0.015440423,-0.014022847,0.041783463,0.005619729,0.008301376,0.01396721,-0.0055080676,-0.0071721906,0.011364227,0.00080844486,0.004800251,0.014456406,0.01998241,0.0021598714,0.015103575,0.04186649,0.038957164,-0.004059003,-0.00633505,0.021272501,0.0031788738,0.023009619,-0.04743033,0.000608247,-0.011632479,0.012017384,-0.0032075224,0.008156083,0.007313971,0.01143176,-0.0062103197,-0.02650157,-0.010663196,-0.013728634,-0.010488623,-0.00084804976,-0.0073331487,-0.003996701,-0.003418201,0.0033987488,-0.041059196,-0.02424827,0.00847578,-0.007248986,0.011941003,-0.010511284,0.011739494,0.012483278,-0.0044172206,0.007771854,-0.0015713891,0.03414561,-0.07151755,0.0029691358,-0.056368485,0.0058326814,0.015156481,-0.07560965,-0.0061133285,-0.006084911,0.009023374,0.051048193,-0.00879968,-0.023877166,0.008574975,-0.001563846,-0.03147254,-0.0068194577,0.01944141,-0.049740832,0.019548662,-0.014483356,0.008206476,-0.01146835,-0.0137755005,-0.01133887,-0.00513243,0.042600513,0.0007806732,-0.011178485,0.0070069847,0.009271186,-0.006204293,0.00058830105,0.00011635196,-0.0023577039,0.00066788227,0.0023326557,0.00056046783,-0.0005439289,0.0052915546,0.0040584593,0.0013020661,0.005639843,0.0075287316,0.01103862,0.020175949,0.011205086,0.013254292,0.030092929,-0.0060150702,-0.0004164062,-0.01685117,-0.072642505,0.0024932707,-0.007320488,0.05007973,-0.0038038061,0.044677597,0.05544942,0.006257067,0.0050013587,0.009006751,0.008044007,0.033706903,-0.00061800046,0.0010011621,-0.020279258,0.029015107,0.014465332,-0.002692185,0.014619792,-0.015653225,0.010089332,0.01870589,0.023336587,0.0074902987,0.01912672,0.0034344606,0.0043341457,0.007213043,-0.014347906,-0.016270615,0.0036891426,0.0020462738,0.008806581,-0.01056091,-0.020122869,0.009687488,-0.0022911616,0.012812681,-0.022187078,0.0034148234,0.0032791223,0.005740712,-0.019475378,-0.0019421644,-0.004199393,-0.0031783436,-0.0029216376,0.010574104,-0.013864792,0.002426138,-0.012521508,-0.004860702,0.001319571,0.006304615,0.0053532165,-0.0022640275,-0.014765254,-0.013572771,-0.016574938,0.03245144,-0.00981378,0.0032001007,-0.0035825712,-0.0046019186,-0.0044365334,-0.013750842,0.018446932,0.0034018368,0.01728796,-8.925187e-06,0.0061468147,0.0025515496,0.01431828,-0.005899584,-9.392616e-05,-0.008440161,-0.009855735,-0.00030744766,-0.003181152,-0.0019476241,0.008334475,-0.003925044,-0.0016835888,0.013290365,-0.007512104,-0.006072988,9.942083e-05,0.010799262,-0.015166854,0.012610671,0.021401655,-0.015469575,0.01472144,0.042535238,-0.002052674,0.020878484,0.003046372,-0.011226721,0.0065068104,-0.017165268,0.00027005808,-0.016466908,0.0036683388,-0.0135285985,0.013726803,0.0049006157,0.011409603,0.0035232003,0.00020700358,0.004262049,-0.011201284,0.036832143,0.013028045,0.017745554,-0.017614787,0.012419022,0.008819187,-0.018376043,-0.020794464,-0.00031105315,0.0019886612,0.00527296,0.00065507233,-0.033721987,-0.030169724,0.034696393,-0.03168194,-0.010594567,0.017179558,0.032929465,0.018827029,0.01986893,0.022706063,0.055062853,-0.053218797,-0.032957528,0.06593384,-0.0049043847,0.071571365,-0.007832536,0.002177944,-0.022215284,-0.008333032,-0.016270285,0.0003806511,-0.016943151,0.0069366684,0.0066142133,0.007378224,0.002916885,-0.01831516,0.023985911,-0.019869965,-0.0076145604,0.01448326,-0.012508846,0.009483739,0.021168746,0.030128404,0.15474093,0.08894689,0.012352016,-0.056283213,-0.016348436,-0.1490666,-0.006150207,0.07546296,-0.10938601,0.07935586,0.005836437,-0.024165425,0.026474712,0.008391145,0.005017462,-0.0070072357,-0.012791025,0.012735385,-0.014203657,-0.013532454,0.00596697,-0.0045752935,0.004561012,-0.0039630076,-0.021094518,-0.01978865,0.02387828,0.027551245,-0.10969995,-0.06264648,0.08137572,0.013575787,0.04077301,-0.038795926,-0.03218879,-0.0010916973,0.010467179,0.014254893,-0.003336132,0.029941203,0.026610224,-0.031154398,-0.0058982875,-0.027224666,0.046991453,-0.058032505,0.05776993,-0.03965001
W,0.07638298,-0.04826783,-0.058502052,-0.11439321,-0.013748729,0.06855657,0.041987177,0.061999973,0.015558075,-0.005260272,0.0011150725,-0.021042781,0.021254512,-0.062656544,-0.0866575,-0.023659538,0.043392558,0.0053127054,-0.11787258,-0.04033686,-0.051666677,-0.035528995,0.0354561,0.04095312,-0.049648196,-0.016931936,0.05152235,-0.052464217,0.08634911,-0.3739715,-0.38477942,0.23446031,0.008895349,-0.022510758,-0.013857431,0.026234698,0.0067446595,-0.0024632683,-0.00044368015,0.0064218044,0.025429253,-0.050047718,-0.097545,-0.047393497,0.02399419,0.034170087,-0.00864,-0.018846856,-0.002898871,0.020275934,-0.00041664304,-0.029299702,-0.015315438,0.008160027,-0.03797885,-0.013178611,0.0020403012,0.007964112,0.00039616766,-0.032396425,-0.042643394,-0.026395757,0.025413852,-0.026911642,0.012288861,0.05071258,-0.03508716,0.0013621176,-0.023845114,0.025921483,0.0037138513,0.0046137692,0.052546296,0.013546215,0.04335402,0.035628617,0.037512075,0.058549695,0.015101822,-0.09034111,-0.0076574762,-0.017205777,0.003819578,-0.0024983173,-0.022734206,-0.026073702,-0.00832753,0.08484292,0.002347199,0.013843906,0.050574668,-0.01983408,-0.011980537,0.036087513,0.01651681,-0.04485355,0.01676455,0.031120358,-0.006782085,0.0024237696,0.024514569,-0.031044658,-0.0042046197,-0.007781613,-0.096066095,-0.026372459,-0.010100753,0.0037652457,-0.010968125,0.025785679,0.004446202,0.03049131,0.0026939507,-0.00556087,0.00036993058,0.0010523937,-0.009398377,0.03227437,0.0074538784,-0.0038994835,-0.0018273031,0.014256775,0.008363342,0.0054090056,-0.037615426,-0.022386823,-0.027088176,-0.03640986,0.009960053,-0.017783763,-0.0147286095,-0.0081971185,-0.0040305345,-0.008106064,0.009501095,-0.021407451,0.0118437875,-0.014438527,-0.0118984245,0.013125601,-0.031160211,-0.0038144724,-0.033388987,0.013752341,-0.005775476,-0.0021726608,-0.0008718955,-0.009563995,-0.0012612123,-0.0037028342,0.0045534014,0.007374374,0.0055413055,0.01439932,0.007820958,-0.0053974274,-0.018034825,0.0010911275,0.0038893444,-0.021469614,0.019628514,-0.016549777,0.007588408,-0.014061865,-0.01636012,-0.013153197,-0.0046775932,0.0420223,0.0064834687,-0.012727351,0.002716711,-0.016189566,0.00605912,-0.0057012923,-0.010353004,-0.013506357,-0.0011430553,0.014803245,0.007382045,0.00086429564,0.03290863,0.027176956,0.0057483553,0.032620303,0.0110002,0.015588746,0.025975218,0.014087607,0.01745142,0.025751593,-0.002725415,-0.0025227754,-0.008290607,-0.0058867577,0.00070432754,-0.012015714,0.005194518,-0.015792249,-0.0025435183,-7.235714e-05,0.023424339,-0.007066951,-0.009119236,-0.00434069,-0.011624435,-0.0014005338,-0.003526659,0.017362505,0.040002648,0.021831516,-0.0067678816,0.02371575,-0.026264397,0.014286052,0.028448982,0.03587805,0.017863033,0.011573713,0.01923541,-0.017247202,-0.031295396,-0.0293529,0.022725383,-0.036971197,0.03513526,0.037987553,0.030315315,-0.014196616,0.009360756,-0.016432527,0.03006776,-0.0066166646,0.010225694,-0.030287698,-0.014973164,0.022797998,-0.010856154,-0.017599132,-0.0146446265,-0.024255298,0.0062459474,-0.009749328,0.0011765738,-0.009008456,-0.0023511043,0.0008002985,0.0005526419,0.0016626011,0.0033188818,0.01173168,0.01118808,0.012210202,-0.043025617,0.012913223,0.03907573,-0.0184158,0.02949921,0.02374101,0.034475047,-0.033175316,-0.011439552,-0.036697336,0.021336596,-0.005975589,-0.013549221,-0.0094343135,0.008867579,0.011137924,0.0195676,0.026544672,-0.001205544,0.009501971,-0.013507222,-0.03831673,0.05463462,0.019486723,0.008513073,0.038530663,0.04397645,8.976117e-06,-0.025246268,0.07228803,-0.04388419,-0.09468753,-0.026897116,-0.00807167,0.03346693,0.019889325,-0.022940695,0.008424083,-0.0091930805,-0.011970087,0.0077560027,-0.028777594,0.035461318,0.004625076,-0.007768121,0.009734795,0.01765922,0.009051574,0.012697951,-0.09999269,0.023236163,-0.022165885,0.10604382,0.050568223,0.02201596,-0.032810476,0.04778957,-0.004086653,-0.053991962,-0.04093414,-0.0023493003,0.008597751,0.016787281,0.015530994,-0.1556146,-0.061795264,0.12187993,0.05497717,0.014429358,0.010782986,0.038871564,0.006111046,-0.00055019726,0.018679708,0.012566784,-0.01399432,-0.0129578775,0.005821892,-0.0021055778,-0.006366593,-0.011497393,-0.006624915,-0.05501272,-0.019314494,-0.010494184,-0.0013306296,-0.0014187393,0.026040748,-0.01836263,-0.008281469,-0.01609149,0.03037169,0.0054435856,-0.027661333,0.059819244,-0.04941335,-0.0013011807,-0.019793542,0.018916976,0.010086717,0.1144106,0.038630262,0.022007523,-0.08207136,-0.014111938,-0.1196041,0.014316103,0.065110914,-0.04877759,0.015667602,0.0009374185,-0.013319197,-0.03577548,0.0048036072,0.034010094,-0.02704414,-0.023895072,0.024384141,-0.018095221,-0.016859623,0.009539235,-0.008840914,0.0026381447,-0.0067715133,-0.05200693,-0.021203058,0.048249476,0.02669372,0.002839184,-0.053293657,-0.016860181,0.010255224,-0.017632475,-0.08772418,0.0060655796,0.0023702127,-0.02801804,0.013845337,-0.0025321126,-0.0023809636,0.0041244132,-0.028639058,0.005958452,-0.017266687,-0.008136183,-0.021279847,-0.061843637,-0.032053832
Y,0.07352454,-0.015803391,-0.017002434,-0.03371111,-0.026023334,0.016622795,0.026244946,0.056703847,0.01841364,0.045706045,0.039540265,-0.01878275,-0.0045141736,-0.031613685,-0.017875202,-0.011545339,0.026145952,0.005918002,-0.060366277,-0.025828492,-0.02507137,-0.019455494,0.016170856,0.021300051,0.037326634,0.049301583,-0.0939338,0.077603556,0.13233773,-0.3484633,-0.38482925,0.20184693,0.011158645,-0.0054725385,-0.0019599597,0.030474806,-0.0032758487,-0.00423613,0.0016648832,-0.0051356605,0.048679695,-0.10862464,-0.07077527,-0.090407476,0.040302563,0.050542913,-0.022337774,-0.027647555,0.016268322,-0.026829977,0.0008682785,0.018964302,0.024187872,-0.0051646256,0.017479042,0.008837162,0.0038636392,0.0027581998,0.0022293313,-0.01968146,0.002502352,-0.011442887,0.0017213249,-0.024978822,0.03869368,0.06515976,-0.03384098,0.055039123,-0.031840257,-0.0036626454,-0.026004083,0.03161978,0.035917345,0.0024006495,0.01300825,0.028961496,0.048771832,0.03638184,0.012584551,-0.06260423,-0.0110249175,-0.021951936,0.0029226395,0.002775807,-0.032429278,-0.034261152,-0.005383345,0.081615254,0.009501104,0.008576081,0.05450632,-0.028787455,-0.00577663,0.004717709,0.0023544342,-0.010874597,-0.004437423,-0.006727523,-0.0029089164,-0.002495872,-0.00522947,-0.012047325,0.0014066317,-0.0013356924,0.041689213,0.014483841,-0.008578659,0.0018001178,0.0035726873,0.016468924,-0.010143942,0.017248707,-0.008741212,-0.0066232025,-0.0025039446,0.004301178,-0.012146744,0.03993117,0.010236948,-0.0016478869,0.0116451485,0.037855335,0.013163773,0.011740821,-0.029066505,-0.041596454,-0.018960869,-0.060722478,-0.0066204006,0.010469138,-0.015003728,-0.008871495,0.006967584,-0.00045196418,0.0019882252,0.0047451146,0.009962399,-0.010375435,-0.009519207,0.0107480055,-0.015753038,0.004478433,-0.02996261,0.007353787,-0.013853133,-0.0032389686,-0.000395383,-0.021703782,-0.0024892928,-0.0065595624,0.007929975,0.016139235,-0.0025301208,-0.006730313,0.005006695,-0.0016400393,-0.019614033,-0.005427802,0.013627824,-0.032550253,0.012633238,-0.009576536,0.004208899,-0.0090055205,-0.009284249,-0.008729681,-0.0025768536,0.02646242,0.004659905,-0.0015142286,-0.011144568,-0.021689674,-0.008976492,-0.00093393197,-0.0059838695,-0.013716389,0.0019453529,-0.0017304397,-0.0023230214,-0.0013355786,-0.003689273,-0.004149245,0.00045130905,-0.0036250164,0.0016295766,0.004650165,0.024074744,0.01489476,-0.009529382,0.0016469501,0.00659679,0.013800355,-0.010788946,-0.04946755,0.0011012692,-0.0030476016,0.032897618,0.000101481644,0.030755902,0.037862755,-0.0029396743,-0.00051735115,-0.00087688665,-0.00024315885,0.02877087,-0.00041271883,-0.001471816,-0.012489108,0.016498456,0.008907157,-0.0024134591,0.009496588,-0.010128959,0.0059694382,0.011501958,0.014362094,0.009031849,0.004658207,0.010228058,-0.009192394,-0.0093516195,0.006819926,0.01679158,-0.009510462,0.012961292,0.0069782743,0.023484949,0.015591537,-0.0075192107,-0.004722616,-0.0038520726,0.022165574,0.0028713057,-0.010558923,-0.005686469,0.0069013177,0.0013794835,0.004789924,0.0031528082,-0.0025281361,0.0064995107,0.00856275,0.020352615,0.014654498,-0.0076918616,-0.0035470612,0.0068364125,0.0065501914,0.0011778431,0.016615534,0.012334346,0.009554959,-0.013084415,0.004978726,-0.0028503607,0.0034535541,0.015145623,0.012530633,-0.0038393696,0.01667357,0.0007823822,0.012459597,0.02041111,0.011184367,0.000106524116,0.041236244,-0.00069191656,-0.00047576017,-0.0036805775,0.0047013657,-0.006982526,0.0029742587,0.013362875,-0.00868045,-0.0026497026,-0.006243017,-0.03677783,0.009948899,0.0014045974,-0.001843316,-0.0022985623,0.012844439,-0.024378665,-0.025719445,0.027612286,0.019006936,-0.013528106,-0.028884457,-0.0034789867,0.0018673864,-0.0009111298,-0.0050193323,-0.0013562816,-0.0098467395,0.011670085,-0.0015312013,-0.008256392,0.0064112553,-0.004344058,0.0058642407,0.012795345,-0.046975747,0.0200833,-0.03287409,0.10295038,0.061966136,0.0031779248,-0.02766219,0.023777284,-0.03387446,-0.05192797,-0.0050977874,0.015514013,0.015680093,0.021543983,0.03564162,-0.07096475,-0.05905356,0.06028149,-0.051705856,-0.04474551,-0.008122785,-0.039473224,0.007100785,0.018103212,-0.00022334815,0.04634388,-0.049280737,0.014611466,0.0077884677,0.004772053,0.026845174,0.010669,0.0012890574,0.027227383,0.0073099993,-0.024976304,0.001015753,-0.023766406,0.014513743,0.006330068,0.008457035,0.0011767605,-0.020320922,-0.0035545023,0.00086744566,0.005968849,-0.0056343055,-0.009540802,-0.026987989,0.039883364,0.02224856,0.058331657,0.039267384,0.012675357,-0.027500737,-0.011454882,-0.073069826,0.0036921313,0.03208217,-0.053107984,0.016004171,0.0033135654,-0.019940129,0.012661081,0.0016588204,-0.03184903,0.034648106,0.003141822,-0.009454281,0.016501728,-0.0018879074,-0.026799118,0.022810884,-0.02680518,-0.0106983455,-0.011659241,-0.017219603,0.01532148,0.027003327,-0.0558401,-0.05180087,0.032397307,-0.013783726,0.009685546,-0.12163082,0.010205626,0.019777907,-0.021919085,0.021217132,-0.00500317,0.007437343,-0.0046102027,-0.014159619,-0.008573785,-0.03020735,-0.03307146,0.041917164,0.002060611,-0.041584916
